%YAML:1.0
---
opencv_ml_svm:
   format: 3
   svmType: C_SVC
   kernel:
      type: RBF
      gamma: 2.2500000000000003e-03
   C: 2.5000000000000000e+00
   term_criteria: { epsilon:1.1920928955078125e-07, iterations:1000 }
   var_count: 64
   class_count: 2
   class_labels: !!opencv-matrix
      rows: 2
      cols: 1
      dt: i
      data: [ 0, 1 ]
   sv_total: 44
   support_vectors:
      - [ 1.68967992e-01, -1.44852772e-01, -5.65744862e-02,
          7.56615102e-02, 1.34751663e-01, -1.21372320e-01,
          -3.15684937e-02, 7.68077672e-02, 2.99036533e-01,
          -4.60941613e-01, -1.85084213e-02, 1.82151467e-01,
          9.75911081e-01, -9.78568077e-01, -5.06735563e-01,
          8.32685828e-01, 2.01659918e-01, -2.07984835e-01,
          8.83651003e-02, 1.64656222e-01, 3.73523347e-02,
          -3.20610707e-03, 1.70569569e-02, 1.33063560e-02,
          3.18706557e-02, -4.03516069e-02, -1.09081948e-02,
          2.55411416e-02, 4.17884856e-01, 3.17656100e-01, 3.76267731e-01,
          3.14881615e-02, 3.58627945e-01, -1.30953044e-01,
          8.10785294e-02, 1.24757834e-01, 3.70793939e-01,
          -1.05346665e-01, 9.69027057e-02, 1.19975545e-01,
          1.80960700e-01, -2.44281933e-01, -6.11110590e-02,
          1.29495904e-01, 9.97066140e-01, 9.86259520e-01, 9.92743313e-01,
          3.80783272e-03, 8.57588947e-02, -9.29531008e-02,
          2.01859325e-02, 5.44329248e-02, -4.11538668e-02,
          -1.40005276e-01, -8.38443711e-02, 3.71344425e-02,
          2.87068427e-01, 9.31673646e-02, 1.72059342e-01, 7.43969455e-02,
          1.78735241e-01, -1.68221459e-01, -4.21374217e-02,
          1.03554815e-01 ]
      - [ 5.03042378e-02, -1.44852772e-01, -5.93929403e-02,
          6.68065473e-02, 1.06496580e-01, -1.21372320e-01,
          -1.87191889e-02, 8.16334113e-02, 2.99036533e-01,
          -2.95810074e-01, 1.99429467e-02, 1.63029194e-01,
          9.76881802e-01, -9.78568077e-01, -2.72458255e-01,
          9.35999393e-01, 2.01659918e-01, -2.10930005e-01,
          4.19548489e-02, 1.86213180e-01, 3.66498567e-02,
          -3.20610707e-03, 1.30420243e-02, 1.21007608e-02,
          3.13934274e-02, -4.03516069e-02, -1.73686370e-02,
          2.14790534e-02, 4.24545616e-01, 3.17656100e-01, 3.83438438e-01,
          3.39488871e-02, 3.09086233e-01, -2.45808065e-01,
          1.86634008e-02, 1.28732070e-01, 3.70793939e-01,
          -1.05346665e-01, 9.02998522e-02, 1.21328160e-01,
          1.80960700e-01, -2.44281933e-01, -6.07776158e-02,
          1.28634676e-01, 9.97066140e-01, 9.86259520e-01, 9.92085814e-01,
          4.23076469e-03, 8.83857608e-02, -5.14685474e-02,
          3.96805778e-02, 4.44986075e-02, -4.46484573e-02,
          -1.40005276e-01, -9.47424769e-02, 3.70054096e-02,
          2.87068427e-01, 9.31673646e-02, 1.92452177e-01, 7.52034932e-02,
          9.46397632e-02, -1.80769518e-01, -8.04287568e-02,
          8.44767839e-02 ]
      - [ 6.91587567e-01, -2.39889145e-01, -1.73136760e-02,
          1.88901797e-01, 2.63996422e-01, -1.61340427e+00,
          -1.63713485e-01, 3.34704310e-01, 5.80102205e-01,
          -3.51973146e-01, -8.24892428e-03, 2.02290639e-01,
          7.93632507e-01, 4.14316326e-01, 6.23712599e-01, 1.45554066e-01,
          -3.60722452e-01, -7.81562448e-01, -5.66699803e-01,
          1.59957916e-01, 4.91361976e-01, 3.84675801e-01, 4.66829509e-01,
          3.01611871e-02, -1.16224241e+00, -2.23270869e+00,
          -1.71984243e+00, 4.41695243e-01, 9.55235243e-01,
          4.60919052e-01, 7.37483919e-01, 1.74556047e-01, 3.65955532e-01,
          -2.42659584e-01, -4.01824433e-03, 1.66652143e-01,
          2.24629208e-01, -6.45725191e-01, -7.71452859e-02,
          2.27581203e-01, 7.33681262e-01, -7.51860976e-01,
          1.51535328e-02, 3.12754154e-01, 8.55842590e-01, 4.28170502e-01,
          6.28851473e-01, 1.62869260e-01, -1.38230592e-01,
          -8.11523139e-01, -5.77195466e-01, 2.45225891e-01,
          -2.63708860e-01, -4.23043191e-01, -3.53873342e-01,
          5.03943264e-02, 2.23893166e+00, 5.93087852e-01, 1.61461878e+00,
          6.69417977e-01, 1.09995556e+00, 5.05681872e-01, 7.62530923e-01,
          1.93671554e-01 ]
      - [ 1.11784291e+00, 5.52002303e-02, 3.72053713e-01, 1.89867496e-01,
          5.12723625e-01, -2.41722131e+00, -3.40990782e-01,
          6.33647919e-01, 8.33219767e-01, -1.78687823e+00,
          1.98167473e-01, 4.68544960e-01, 9.01127994e-01, 4.85382825e-01,
          7.27547467e-01, 9.15827602e-02, -1.15996957e-01,
          -7.60461926e-01, -6.28335178e-01, 1.11749016e-01,
          3.64442199e-01, -8.70002061e-03, 7.22836703e-02,
          7.88255706e-02, -2.41432220e-01, -1.80520165e+00,
          -9.41495359e-01, 4.82722372e-01, 1.40080178e+00,
          4.08173561e-01, 1.14144301e+00, 2.38570124e-01, 7.09105805e-02,
          -1.15880096e+00, -2.39664331e-01, 2.05438003e-01,
          5.23640752e-01, -2.56407380e+00, -2.26971984e-01,
          5.93137920e-01, 4.39235121e-01, -2.65769267e+00,
          -3.07616405e-02, 4.72749382e-01, 6.72042549e-01,
          2.51138508e-01, 5.03376901e-01, 1.41821384e-01,
          -6.84380174e-01, -8.05736542e-01, -7.49129534e-01,
          3.72639894e-02, 2.16887742e-01, 1.31593449e-02, 1.19666062e-01,
          5.88505305e-02, 2.01480722e+00, 1.48927712e+00, 1.87504601e+00,
          1.36791632e-01, 1.48945212e+00, 6.73631787e-01, 1.05625618e+00,
          2.91682631e-01 ]
      - [ 5.88032663e-01, 9.47096124e-02, 3.33798826e-01, 1.13191061e-01,
          4.01948303e-01, -1.32612681e+00, -1.32514566e-01,
          4.03185695e-01, 6.11085713e-01, -1.43548131e-01,
          1.99527815e-01, 1.50981590e-01, 7.43332267e-01, 3.60471666e-01,
          5.19626975e-01, 1.45864055e-01, -6.21141911e-01,
          -7.65642345e-01, -6.93336070e-01, 4.90645580e-02,
          1.45645931e-01, -1.73916146e-01, -2.68218424e-02,
          1.18575796e-01, -1.04965794e+00, -1.83482766e+00,
          -1.52759910e+00, 2.42909461e-01, 1.28413761e+00,
          7.50722587e-01, 8.95786762e-01, 1.41804323e-01, 7.09105805e-02,
          -4.63643998e-01, -2.46659428e-01, 1.34657830e-01,
          5.23640752e-01, -5.45717299e-01, -6.66867271e-02,
          2.76023179e-01, 3.32963318e-01, -3.52517724e-01,
          -6.36514574e-02, 1.65895596e-01, 6.31792903e-01,
          2.07813337e-01, 3.13863069e-01, 1.12480022e-01,
          -6.14344358e-01, -8.05736542e-01, -7.30289161e-01,
          6.07209168e-02, 2.20961779e-01, -1.02283850e-01,
          1.43562153e-01, 8.21643472e-02, 2.01480722e+00, 1.22896254e+00,
          1.75364614e+00, 2.30006978e-01, 9.87835646e-01, 5.45668840e-01,
          7.01056004e-01, 1.12270996e-01 ]
      - [ 5.88032663e-01, 1.18301533e-01, 3.36024255e-01, 1.12434745e-01,
          4.01948303e-01, -5.66386402e-01, -6.17831126e-02,
          2.32950985e-01, 6.11085713e-01, -1.43548131e-01,
          1.84320971e-01, 1.46017954e-01, 7.20080793e-01, 3.42866510e-01,
          4.49529380e-01, 1.13143496e-01, -5.77335835e-01,
          -7.65642345e-01, -6.84969604e-01, 6.01750016e-02,
          1.45645931e-01, -1.73916146e-01, -7.25045726e-02,
          1.13590047e-01, -1.19790125e+00, -1.83482766e+00,
          -1.54779661e+00, 2.11796746e-01, 1.01503134e+00,
          6.66241467e-01, 8.14006269e-01, 7.83956051e-02, 4.74360615e-01,
          -4.63643998e-01, -1.90983474e-01, 2.23894492e-01,
          4.71347868e-01, -5.45717299e-01, -1.46686167e-01,
          2.25008681e-01, 1.05152525e-01, -3.52517724e-01,
          -1.06527761e-01, 1.04085878e-01, 7.56755173e-01,
          2.07813337e-01, 3.62447262e-01, 1.98098078e-01,
          -6.03758514e-01, -8.05736542e-01, -6.99867010e-01,
          7.14966208e-02, 2.20961779e-01, -1.93522677e-01,
          1.04669504e-01, 1.49300486e-01, 2.01480722e+00, 1.17798555e+00,
          1.62650466e+00, 2.99098939e-01, 1.04508090e+00, 5.45668840e-01,
          7.24673092e-01, 1.51573330e-01 ]
      - [ 5.88032663e-01, 7.55763501e-02, 2.94066250e-01, 1.34538978e-01,
          2.47016102e-01, -6.18687689e-01, -1.82935506e-01,
          2.47413322e-01, 6.11085713e-01, -1.82868317e-01,
          1.73236817e-01, 1.61302671e-01, 5.56271076e-01, 3.29247266e-01,
          3.90664726e-01, 5.50059937e-02, -5.68386137e-01,
          -7.65642345e-01, -6.67040944e-01, 7.37881064e-02,
          7.12056980e-02, -1.73916146e-01, -1.19165927e-01,
          6.27917498e-02, -1.16863143e+00, -1.83482766e+00,
          -1.49837971e+00, 2.49830946e-01, 8.72528017e-01,
          5.74726939e-01, 7.54123509e-01, 8.06393027e-02, 4.74360615e-01,
          -4.63643998e-01, -1.09541595e-01, 2.77434826e-01,
          3.19488555e-01, -5.45717299e-01, -1.27295658e-01,
          2.41673842e-01, 1.62445024e-01, -3.20209295e-01,
          -9.49999169e-02, 1.05255641e-01, 7.56755173e-01,
          2.07813337e-01, 4.36892211e-01, 2.41250157e-01,
          -6.03758514e-01, -7.81215906e-01, -6.66538954e-01,
          5.99999242e-02, 2.20961779e-01, -2.17427284e-01,
          4.23574410e-02, 1.88408881e-01, 1.96372592e+00, 1.17798555e+00,
          1.49775100e+00, 2.62635797e-01, 1.04508090e+00, 5.45668840e-01,
          7.69456923e-01, 1.74910203e-01 ]
      - [ 3.72049809e-01, -1.85403660e-01, -1.59214507e-03,
          1.11250713e-01, 6.37873650e-01, -2.57886559e-01,
          3.14262919e-02, 1.54380396e-01, 3.77901524e-01,
          -6.48708940e-01, -1.10806124e-02, 2.01849133e-01,
          6.64758980e-01, -1.59074771e+00, -4.53715911e-03,
          5.13717175e-01, 1.08990657e+00, -7.92259932e-01,
          1.46120071e-01, 4.70571905e-01, 4.48249161e-01,
          -5.13069332e-01, 1.28844529e-01, 1.83789209e-01,
          -2.70618105e+00, -2.83084321e+00, -2.77643394e+00,
          3.73690575e-02, -4.94673252e-01, -5.63488960e-01,
          -5.24938285e-01, 2.27481797e-02, 3.96071255e-01,
          -7.60270357e-01, -9.68951173e-03, 1.86723500e-01,
          6.93566561e-01, -3.40543538e-01, -7.72956992e-03,
          2.60847926e-01, 3.76929820e-01, -1.25763047e+00,
          -3.25640179e-02, 4.07897264e-01, 7.38037884e-01,
          -2.86588097e+00, -2.89199531e-01, 7.24094987e-01,
          6.58418775e-01, -1.41070867e+00, -3.69822919e-01,
          5.99971414e-01, 6.23368204e-01, -5.88068306e-01,
          -6.00435622e-02, 3.07986468e-01, 6.08921468e-01,
          4.18220431e-01, 5.05249321e-01, 6.13533631e-02,
          -5.59341311e-01, -7.28452921e-01, -6.68335736e-01,
          5.46499416e-02 ]
      - [ 2.92681485e-01, -1.54141411e-01, 9.81252734e-03,
          1.03889398e-01, 5.44550121e-01, -1.91244200e-01,
          3.55676562e-02, 1.27206206e-01, 4.78513002e-01,
          -4.91584808e-01, -8.31721257e-03, 1.88596085e-01,
          1.12516367e+00, -6.26078844e-01, 8.07511806e-02,
          4.00685728e-01, 6.59636259e-01, -6.05496883e-01,
          4.50848490e-02, 3.66905212e-01, 4.34097052e-01,
          -2.30715290e-01, 1.01619832e-01, 1.44489765e-01,
          -2.69614244e+00, -2.78389549e+00, -2.75201225e+00,
          2.83527095e-02, -4.97074753e-01, -5.83946228e-01,
          -5.41779399e-01, 2.32184939e-02, 3.13060373e-01,
          -5.96168220e-01, -6.45336555e-03, 1.65039271e-01,
          5.08708775e-01, -4.09998626e-01, -4.92359558e-03,
          2.06234232e-01, 3.15648884e-01, -8.45909834e-01,
          -5.51959053e-02, 2.99968779e-01, 1.80986321e+00,
          -2.23031569e+00, -3.15509886e-01, 6.31839633e-01,
          5.66107690e-01, -1.14299977e+00, -2.89719820e-01,
          4.22582388e-01, 6.59409106e-01, -5.13145626e-01,
          1.61357373e-01, 2.70719498e-01, 5.07528603e-01, 4.22903359e-01,
          4.73170906e-01, 2.28822939e-02, -6.25779748e-01,
          -7.30849922e-01, -6.80524468e-01, 3.61154601e-02 ]
      - [ 3.56672406e-01, -1.48353159e-01, 3.67763080e-03,
          1.20406613e-01, 6.74549341e-01, -1.23680048e-01,
          3.52125019e-02, 1.31795689e-01, 4.58546698e-01,
          -7.22086489e-01, -3.60486144e-03, 2.21072122e-01,
          1.55207169e+00, -1.16329157e+00, 6.24536611e-02,
          5.02741992e-01, 1.01379943e+00, -9.98369157e-01,
          6.44962788e-02, 4.88406897e-01, 4.78914499e-01,
          -3.60300660e-01, 5.72694987e-02, 1.99227840e-01,
          -2.69836020e+00, -2.80894709e+00, -2.77055120e+00,
          3.36781107e-02, -5.42457163e-01, -6.24055028e-01,
          -5.75252473e-01, 2.40045302e-02, 2.09696695e-01,
          -5.72072625e-01, 2.02445459e-04, 1.48535341e-01,
          7.56545186e-01, -4.76593643e-01, 1.03888884e-02,
          2.74229795e-01, 4.56940025e-01, -1.10486305e+00,
          -1.19036296e-02, 4.15328771e-01, 7.33854651e-01,
          -1.83103216e+00, -3.78675550e-01, 6.13822937e-01,
          6.87604189e-01, -1.59707582e+00, -4.21855718e-01,
          6.38274729e-01, 6.14735425e-01, -1.11614561e+00,
          -5.13552055e-02, 4.52608556e-01, 6.02760613e-01,
          3.95686299e-01, 4.86559600e-01, 7.93837383e-02,
          -5.64843714e-01, -7.69034207e-01, -6.91274703e-01,
          7.03283623e-02 ]
      - [ 6.35760009e-01, -3.67683738e-01, 8.28942377e-03,
          1.80703625e-01, 4.89332795e-01, -4.72224593e-01,
          4.95588519e-02, 1.59246951e-01, 5.04732192e-01,
          -8.75966370e-01, -1.67166051e-02, 2.72651285e-01,
          9.13655937e-01, -6.58327043e-01, 1.29566118e-01,
          3.17263275e-01, 7.02503324e-01, -6.12169147e-01,
          7.54328370e-02, 3.75362962e-01, 4.43215221e-01,
          -3.29405397e-01, 3.21322456e-02, 1.97093278e-01,
          -2.67577958e+00, -2.78894353e+00, -2.73193336e+00,
          3.08242738e-02, -5.32842636e-01, -5.99800169e-01,
          -5.67460597e-01, 1.81324631e-02, 3.02762717e-01,
          -6.16134942e-01, 4.04591952e-03, 1.52330473e-01,
          5.28688252e-01, -4.09921378e-01, -2.18461305e-02,
          2.51431525e-01, 4.25101638e-01, -8.36966753e-01,
          -1.68410353e-02, 3.21968019e-01, 9.66499865e-01,
          -2.52282786e+00, -4.23604578e-01, 6.32445335e-01,
          8.26149285e-01, -1.39806890e+00, -3.16924840e-01,
          5.95604837e-01, 1.01271546e+00, -5.59992254e-01,
          9.69201848e-02, 3.47161531e-01, 5.73923290e-01, 4.32047814e-01,
          5.12626767e-01, 4.04222794e-02, -5.43521404e-01,
          -7.07635999e-01, -6.32387877e-01, 4.75564599e-02 ]
      - [ 2.88844883e-01, -2.08714142e-01, 2.42720038e-04,
          1.25389531e-01, 5.44177651e-01, -3.62783551e-01,
          4.40764986e-02, 1.79664373e-01, 3.46407115e-01,
          -4.64838088e-01, -8.83754808e-03, 1.70320883e-01,
          1.13638568e+00, -8.81211221e-01, 3.03466357e-02,
          4.68723446e-01, 7.35699832e-01, -5.74271441e-01,
          1.02382906e-01, 3.18225950e-01, 3.72243613e-01,
          -2.08250284e-01, 5.65148704e-02, 1.63691834e-01,
          -2.67897749e+00, -2.77465963e+00, -2.73192525e+00,
          2.74580065e-02, -5.68714738e-01, -6.34236515e-01,
          -5.95152974e-01, 1.70387067e-02, 1.73263386e-01,
          -2.96321720e-01, -8.06547236e-03, 1.06392361e-01,
          4.95435804e-01, -4.15270686e-01, -1.09525584e-02,
          1.98119089e-01, 3.33456486e-01, -6.31742001e-01,
          -2.87714582e-02, 2.70265996e-01, 3.62561911e-01,
          -1.52734995e+00, -3.82170171e-01, 3.68382066e-01,
          4.28030103e-01, -1.09515548e+00, -1.94131017e-01,
          4.25687551e-01, 5.04113674e-01, -2.74604380e-01,
          4.38634530e-02, 1.82360515e-01, 5.01360774e-01, 4.12697315e-01,
          4.66117799e-01, 2.66692825e-02, -5.77839434e-01,
          -7.43220150e-01, -6.62922978e-01, 5.23615405e-02 ]
      - [ 1.42440513e-01, -1.27443060e-01, -3.85261304e-03,
          7.39379227e-02, 2.15100199e-01, -6.80586278e-01,
          5.86195663e-02, 1.66753888e-01, 6.00217640e-01,
          -2.99504101e-01, 1.46571472e-02, 1.85334772e-01,
          6.13376141e-01, -6.54627025e-01, -1.76487956e-02,
          3.64202738e-01, 5.83442986e-01, -4.32477593e-01,
          1.29718646e-01, 2.73489952e-01, 7.40200400e-01,
          -4.38839078e-01, -2.79950239e-02, 3.35469216e-01,
          -6.58677742e-02, -1.48346767e-01, -1.10337630e-01,
          2.26732288e-02, 1.95011303e-01, 1.04198940e-01, 1.51947826e-01,
          2.63520740e-02, 2.61611164e-01, -8.99773419e-01,
          -1.82775240e-02, 1.80507898e-01, 7.02897847e-01,
          -4.79542881e-01, -3.78354788e-02, 2.24941671e-01,
          3.51939350e-01, -1.16949761e+00, -1.55803636e-02,
          4.10151273e-01, 1.26363385e+00, -2.09205174e+00,
          -3.62556458e-01, 5.36272407e-01, 3.18011701e-01,
          -2.42297721e+00, -4.96779919e-01, 7.37425566e-01,
          1.45887017e-01, -7.84589529e-01, -2.30764374e-01,
          2.43805245e-01, 6.97245300e-01, 4.39888746e-01, 5.47504067e-01,
          1.01888798e-01, -4.85105485e-01, -7.00615704e-01,
          -5.86984634e-01, 7.76287541e-02 ]
      - [ 3.87821317e-01, -1.31870806e-01, 9.59349871e-02,
          1.29585728e-01, 1.36112124e-01, -7.51347482e-01,
          -1.16926469e-01, 1.63914993e-01, 8.64911377e-01,
          -4.12803978e-01, 2.68800426e-02, 2.71685094e-01,
          6.65008664e-01, -4.81323481e-01, -1.53199676e-02,
          3.42697471e-01, 4.07087654e-01, -5.07496655e-01,
          -2.97231060e-02, 2.33929172e-01, 6.11371219e-01,
          -5.91797829e-01, 8.16539302e-02, 3.58778954e-01,
          -9.38396901e-02, -1.45682663e-01, -1.19107358e-01,
          1.46279726e-02, -1.19480537e-02, -9.90963206e-02,
          -4.39843871e-02, 2.29198989e-02, 1.96059555e-01,
          -5.99252701e-01, 1.59548633e-02, 1.58070207e-01,
          5.41150868e-01, -5.77161729e-01, 1.54034318e-02,
          2.33953729e-01, 7.40473747e-01, -7.60836959e-01,
          4.34691906e-02, 3.15847874e-01, 9.39074755e-01,
          -1.51675272e+00, -1.63294617e-02, 5.07222891e-01,
          2.18319938e-01, -2.21965671e+00, -4.48502809e-01,
          6.65026546e-01, 3.26205373e-01, -4.69306678e-01,
          -2.16030758e-02, 1.66141301e-01, 6.55370653e-01,
          4.07182008e-01, 5.20074844e-01, 1.02351561e-01,
          -5.86097240e-01, -6.68894649e-01, -6.31382823e-01,
          2.18663868e-02 ]
      - [ 2.07547486e-01, -6.34020269e-02, 3.50562669e-02,
          6.50713220e-02, 6.05300590e-02, -1.07894719e+00,
          -1.41695842e-01, 1.93937466e-01, 7.08131492e-01,
          -3.39425653e-01, 8.30784719e-03, 1.96336076e-01,
          8.53279710e-01, -7.06580102e-01, -4.93085124e-02,
          3.08825582e-01, 1.68349102e-01, -6.50531292e-01,
          -7.66945407e-02, 2.03516439e-01, 2.84240782e-01,
          -4.89690304e-01, -5.67201003e-02, 2.48741582e-01,
          -9.78854671e-02, -1.46667749e-01, -1.22670852e-01,
          1.79128889e-02, -4.80778795e-03, -5.58737777e-02,
          -3.21993232e-02, 1.50777586e-02, 2.47595534e-01,
          -9.49747741e-01, -1.59411598e-02, 2.02881619e-01,
          7.92968869e-01, -8.41519654e-01, 1.35252194e-04,
          2.67543286e-01, 8.29497635e-01, -9.05743420e-01,
          7.06363656e-03, 3.75929087e-01, 2.78255844e+00,
          -2.03614044e+00, -5.88978119e-02, 8.50697517e-01,
          3.07327330e-01, -2.64331412e+00, -5.74909747e-01,
          8.41722190e-01, 2.58484662e-01, -8.49290252e-01,
          -2.42709860e-01, 2.73865849e-01, 7.14058399e-01,
          3.26997817e-01, 4.83030885e-01, 1.55614436e-01,
          -5.53892612e-01, -6.85262859e-01, -6.16956532e-01,
          2.84851734e-02 ]
      - [ 2.13883847e-01, -8.18087086e-02, 2.91651697e-03,
          7.14400485e-02, 2.63375193e-01, -7.88970590e-01,
          -8.00827220e-02, 1.78053573e-01, 3.22186887e-01,
          -4.92112070e-01, -1.30030923e-02, 1.83501929e-01,
          4.59899247e-01, -3.48200023e-01, -1.24771018e-02,
          2.29212940e-01, 4.40505952e-01, -5.41082144e-01,
          -2.84061208e-02, 2.68133700e-01, 2.75802851e-01,
          -4.53632236e-01, -2.15869963e-01, 2.14109525e-01,
          -7.76890889e-02, -1.44381866e-01, -1.08699486e-01,
          1.88616738e-02, -1.93380956e-02, -7.75427818e-02,
          -4.58203144e-02, 1.87395103e-02, 2.55305082e-01,
          -4.49917108e-01, -2.32848935e-02, 1.35596290e-01,
          5.96425354e-01, -3.22333366e-01, -3.73722310e-03,
          2.01820865e-01, 4.07801658e-01, -8.24144304e-01,
          -5.56092430e-03, 3.33943456e-01, 7.27777481e-01,
          -1.56833315e+00, -1.24610968e-01, 3.94669324e-01,
          3.65437210e-01, -1.74800003e+00, -4.49717045e-01,
          6.72969341e-01, 2.28183582e-01, -6.57890081e-01,
          -2.25908309e-01, 1.77271962e-01, 6.59681082e-01,
          3.56117725e-01, 4.66569424e-01, 1.14071727e-01,
          -5.70903242e-01, -6.66965067e-01, -6.17973924e-01,
          2.89123356e-02 ]
      - [ 1.42243177e-01, -7.83260837e-02, 1.27354516e-02,
          4.55054864e-02, 4.47271436e-01, -5.94121337e-01,
          -5.00911847e-02, 1.92129299e-01, 5.53692341e-01,
          -3.84865016e-01, 3.63593921e-03, 2.27371410e-01,
          8.82634699e-01, -6.34834051e-01, 5.32685816e-02,
          3.67975354e-01, 7.97850132e-01, -3.95516813e-01,
          -1.19279269e-02, 3.41509223e-01, 4.63673204e-01,
          -6.51816428e-01, -2.82239288e-01, 2.51579195e-01,
          -1.02449164e-01, -1.72229365e-01, -1.33193165e-01,
          2.45432016e-02, 4.92073409e-02, -7.04717636e-02,
          -2.70290021e-03, 3.61579694e-02, 2.07151026e-01,
          -6.33421719e-01, -1.79366730e-02, 1.62176937e-01,
          4.28832173e-01, -3.08258861e-01, -1.86824724e-02,
          1.79958910e-01, 4.38578069e-01, -4.31851238e-01,
          -5.01179462e-03, 2.07201928e-01, 8.83792639e-01,
          -1.27628660e+00, -3.13686460e-01, 4.08738703e-01,
          3.01354587e-01, -1.44924557e+00, -3.75947237e-01,
          5.72083533e-01, 4.85748164e-02, -6.58379972e-01,
          -2.68807977e-01, 1.98662356e-01, 6.64679885e-01,
          4.07329172e-01, 5.01670480e-01, 9.38200206e-02,
          -5.40428996e-01, -7.38709688e-01, -6.12757921e-01,
          6.32544532e-02 ]
      - [ 4.43890840e-01, -1.72719598e-01, 8.42320547e-02,
          1.66774601e-01, 3.34184259e-01, -9.47468221e-01,
          -6.22760616e-02, 1.99562654e-01, 9.41681623e-01,
          -4.14919138e-01, 3.16171125e-02, 2.81900525e-01,
          8.50883722e-01, -4.16317075e-01, 1.74816072e-01,
          4.37377632e-01, 4.29156840e-01, -3.64266217e-01,
          5.12905978e-02, 2.35500991e-01, 4.11019683e-01,
          -7.62711644e-01, -6.64322600e-02, 3.86086613e-01,
          -2.08649516e-01, -2.56646007e-01, -2.27478072e-01,
          1.40283331e-02, -1.50396032e-02, -1.82805881e-01,
          -7.34189302e-02, 4.55828272e-02, 2.17495754e-01,
          -7.98428953e-01, -6.99885702e-03, 1.94115728e-01,
          6.45295322e-01, -6.04483366e-01, 1.27714523e-03,
          2.42568091e-01, 1.04756474e+00, -7.86388993e-01,
          4.21820395e-02, 3.28420401e-01, 1.26041198e+00,
          -2.43772149e+00, -7.31322691e-02, 6.83144569e-01,
          3.56215686e-01, -2.17776918e+00, -4.66223419e-01,
          6.79036915e-01, 7.28530645e-01, -3.83127868e-01,
          -4.62888032e-02, 2.94725150e-01, 7.30988741e-01,
          4.62620497e-01, 5.83065987e-01, 1.00595921e-01,
          -5.54088652e-01, -6.75473452e-01, -6.05928719e-01,
          3.21342759e-02 ]
      - [ 2.47006774e-01, -1.23149157e-01, 8.15689713e-02,
          1.09905526e-01, 6.92317784e-01, -1.20945632e+00,
          -6.85826540e-02, 3.12753856e-01, 1.54535449e+00,
          -4.54944015e-01, 2.67371386e-02, 3.73259515e-01,
          1.78564656e+00, -9.77097988e-01, -2.51044836e-02,
          5.19729078e-01, 1.04610729e+00, -6.05890214e-01,
          -4.81776446e-02, 4.09504652e-01, 5.56319475e-01,
          -3.25591356e-01, -2.93751418e-05, 1.85716420e-01,
          -1.62767470e-01, -2.34730184e-01, -2.01342687e-01,
          2.01867670e-02, 5.48346341e-02, -1.92168251e-01,
          -2.73452234e-02, 7.89069310e-02, 3.76078576e-01,
          -1.01343000e+00, 1.20987790e-03, 2.36799031e-01,
          7.21048951e-01, -7.45295644e-01, -7.59476388e-04,
          2.77138114e-01, 6.66023016e-01, -1.25034928e+00,
          4.43442017e-02, 3.54154497e-01, 1.20352054e+00,
          -2.45680451e+00, -2.72979200e-01, 6.11540198e-01,
          3.28240216e-01, -2.57102942e+00, -6.96860373e-01,
          7.77900040e-01, 3.12004119e-01, -1.16423559e+00,
          -1.77731216e-01, 3.34750146e-01, 7.66655803e-01,
          4.13349032e-01, 5.56875229e-01, 1.34080619e-01,
          -5.35796583e-01, -6.82922900e-01, -6.02642238e-01,
          5.22185899e-02 ]
      - [ 6.08851910e-01, -3.80288929e-01, 2.27152370e-02,
          1.95506975e-01, 9.63876069e-01, -2.16335940e+00,
          -3.47253680e-02, 4.92446184e-01, 2.26876825e-01,
          -4.46857214e-01, 1.84308775e-02, 1.82333097e-01,
          2.04093528e+00, -1.02967823e+00, 2.72450149e-01,
          6.74635410e-01, 1.05086398e+00, -1.56937286e-01,
          4.63416696e-01, 4.08153415e-01, 2.88429642e+00,
          -1.35296130e+00, -2.27012321e-01, 8.03872883e-01,
          -3.23148906e-01, -5.34053445e-01, -4.21252847e-01,
          4.11088280e-02, -1.09877193e+00, -1.29712534e+00,
          -1.15127027e+00, 5.21026403e-02, 1.33425936e-01,
          -5.84094763e-01, -6.29457384e-02, 1.46461651e-01,
          3.53266269e-01, -8.90634894e-01, -5.95674515e-02,
          2.28128925e-01, 3.58996660e-01, -1.46737862e+00,
          -2.94109210e-02, 4.06017482e-01, 1.63206446e+00,
          -1.76974750e+00, -1.61637440e-01, 4.91239488e-01,
          3.75060230e-01, -1.95635831e+00, -4.89953876e-01,
          6.94603264e-01, 4.58988428e-01, -7.26742327e-01,
          -4.71841954e-02, 3.41139764e-01, 5.93047202e-01,
          3.34458321e-01, 4.26260859e-01, 9.80703011e-02,
          -3.97699445e-01, -4.77013111e-01, -4.33886349e-01,
          2.73668487e-02 ]
      - [ 4.54375774e-01, -1.66014686e-01, 2.34269962e-01,
          1.65542141e-01, 7.49070227e-01, -2.87366211e-01,
          -2.29962952e-02, 3.32628965e-01, 2.17257977e-01,
          -3.78381461e-01, 1.21850800e-02, 1.77722141e-01,
          8.58624458e-01, 7.53041565e-01, 8.12736332e-01, 3.26385163e-02,
          5.76826215e-01, 4.18396115e-01, 4.64640856e-01, 3.94973122e-02,
          2.68498361e-01, -6.63662031e-02, 8.91038030e-02,
          1.23054080e-01, 8.30084026e-01, -1.55175433e-01,
          2.43979722e-01, 3.40567172e-01, -7.85880387e-01,
          -1.14603341e+00, -9.59034204e-01, 1.16698705e-01,
          2.57781520e-02, -3.95814037e+00, -6.49513125e-01,
          7.64079452e-01, 1.20257938e+00, -8.53799880e-01,
          1.50776297e-01, 4.21135366e-01, 1.86177373e+00,
          -1.01182108e+01, 1.05437078e-01, 1.54893279e+00,
          -2.41025344e-01, -7.45518863e-01, -5.78876913e-01,
          1.76962212e-01, -3.51360179e-02, -5.44497609e-01,
          -2.97892392e-01, 1.91992804e-01, -4.96988684e-01,
          -6.73084676e-01, -6.33179665e-01, 5.16469590e-02,
          2.94779515e+00, -2.91896367e+00, -8.75358582e-01,
          1.64519095e+00, 9.85427648e-02, -1.29241669e+00,
          -6.48719609e-01, 5.01987398e-01 ]
      - [ 4.54375774e-01, -1.92166850e-01, 1.11650877e-01,
          2.04719484e-01, 7.49070227e-01, -2.87366211e-01,
          1.44705415e-01, 3.64808410e-01, 5.27851462e-01,
          -3.90998423e-01, -2.99138395e-04, 2.25460783e-01,
          8.58624458e-01, 7.53051519e-01, 8.07845950e-01, 3.76912281e-02,
          6.03434205e-01, 4.18396115e-01, 5.01172602e-01, 7.11468756e-02,
          1.99967399e-01, -6.63662031e-02, 3.75811681e-02,
          8.03690702e-02, 8.31847727e-01, -6.86466172e-02,
          4.43127632e-01, 2.87397683e-01, -7.85880387e-01,
          -1.28167140e+00, -9.89575982e-01, 1.60703808e-01,
          1.23615468e+00, -3.95814037e+00, -7.00314283e-01,
          7.90309906e-01, 1.20257938e+00, -9.26979840e-01,
          6.16288781e-02, 4.74650681e-01, 1.86177373e+00,
          -1.01182108e+01, 1.77075654e-01, 1.55225503e+00,
          -1.41409442e-01, -7.30376422e-01, -4.23455745e-01,
          2.09696099e-01, -1.16344720e-01, -5.44497609e-01,
          -4.09812599e-01, 1.35789379e-01, -4.47575003e-01,
          -6.72761381e-01, -5.74515343e-01, 8.75435621e-02,
          2.94779515e+00, -2.91896367e+00, -9.46499333e-02,
          1.82946515e+00, -1.97688803e-01, -1.29241669e+00,
          -9.20176029e-01, 3.23632449e-01 ]
      - [ 3.49030042e+00, -1.29133594e+00, 1.26309246e-01,
          7.56567061e-01, 9.02859151e-01, -1.18694437e+00,
          7.57113248e-02, 5.05059481e-01, 2.67292261e+00,
          -8.32413197e+00, -4.92722355e-02, 1.31168973e+00,
          8.25005531e-01, 7.53051519e-01, 7.94909477e-01, 2.67664101e-02,
          6.03434205e-01, 4.65810359e-01, 5.37864745e-01, 5.03183566e-02,
          2.82251030e-01, -6.37107044e-02, 1.34532586e-01,
          1.15557209e-01, 8.31847727e-01, -6.52942359e-01,
          1.86062623e-02, 5.96224785e-01, -8.86032641e-01,
          -1.29760647e+00, -1.11827683e+00, 1.10075578e-01,
          1.23615468e+00, -3.95814037e+00, -4.16205615e-01,
          8.43221605e-01, 8.06703329e-01, -9.26979840e-01,
          -2.74708241e-01, 2.70277143e-01, 1.86177373e+00,
          -1.01182108e+01, -6.81029633e-02, 1.53065705e+00,
          -1.23605460e-01, -3.29026103e-01, -1.74827978e-01,
          5.22834100e-02, -3.59077066e-01, -5.40243566e-01,
          -4.50014561e-01, 4.34424952e-02, -4.47432190e-01,
          -5.58096468e-01, -4.80719537e-01, 3.29779871e-02,
          2.34354305e+00, 1.06076312e+00, 1.34794986e+00, 2.73178190e-01,
          -9.24152553e-01, -1.26891768e+00, -1.03488314e+00,
          9.90957692e-02 ]
      - [ 4.81601810e+00, -2.87325644e+00, 1.41324267e-01,
          1.14602935e+00, 6.19128084e+00, -1.45745897e+01,
          6.13115132e-02, 2.29147315e+00, 4.24703598e+00,
          -6.25302601e+00, -4.18276042e-02, 1.40521145e+00,
          2.24979477e+01, -1.31138000e+01, 8.56335610e-02,
          4.59068251e+00, 3.02264118e+00, -2.96568418e+00,
          5.80422997e-01, 1.42007101e+00, 7.34252644e+00,
          -5.55629396e+00, -5.36994100e-01, 2.46035099e+00,
          -5.63026071e-01, -8.53940070e-01, -7.47100174e-01,
          5.08432128e-02, -5.31499565e-01, -1.04327583e+00,
          -8.53698432e-01, 1.17605112e-01, 2.68105412e+00,
          -4.44024229e+00, -2.73663193e-01, 9.95076001e-01,
          4.68574333e+00, -1.29849410e+00, 9.75084081e-02,
          8.46119046e-01, 2.04970527e+00, -9.15655136e+00,
          -6.46134652e-03, 1.99692190e+00, 2.40615630e+00,
          -5.56283665e+00, -8.94842684e-01, 1.82554936e+00,
          1.79518259e+00, -8.11364269e+00, -1.37011814e+00,
          2.41021705e+00, 2.88260174e+00, -4.47169733e+00,
          -1.59338102e-01, 1.40329671e+00, 1.28441978e+00,
          6.03637457e-01, 8.52658987e-01, 2.68270135e-01, 1.72508683e-03,
          -4.97139156e-01, -2.80349702e-01, 1.97018012e-01 ]
      - [ 3.08611465e+00, -1.48322737e+00, 2.71230221e-01,
          6.94718421e-01, 6.50563669e+00, -1.45224724e+01,
          -1.56846698e-02, 2.41862488e+00, 2.59498334e+00,
          -4.42986202e+00, -2.42277868e-02, 1.06636667e+00,
          2.02505341e+01, -1.51976576e+01, -5.89514966e-04,
          4.12218332e+00, 4.05229998e+00, -1.49884665e+00,
          5.23759425e-01, 1.33465302e+00, 6.86344433e+00,
          -4.52389812e+00, -7.06945062e-01, 2.19047570e+00,
          -2.53046930e-01, -8.30692768e-01, -5.61632276e-01,
          1.39267206e-01, -8.37000728e-01, -1.22286665e+00,
          -1.03352368e+00, 9.68337804e-02, 5.41443944e-01,
          -1.37553716e+00, -3.23257238e-01, 4.11127955e-01,
          1.42512331e+01, -3.59774303e+00, 9.49112996e-02,
          2.31501055e+00, 2.19403052e+00, -5.40437031e+00,
          -3.20693105e-02, 1.00782621e+00, 7.83965302e+00,
          -5.84488440e+00, -4.47274208e-01, 2.18265986e+00,
          3.37355065e+00, -2.21213341e+00, -3.65574896e-01,
          1.23844099e+00, 3.08503294e+00, -6.80842161e+00,
          -3.88173908e-01, 3.07967186e+00, 1.39735448e+00,
          9.73053515e-01, 1.22883677e+00, 1.13235384e-01,
          -3.24098766e-01, -1.06796360e+00, -7.56464124e-01,
          2.71487415e-01 ]
      - [ 6.85481668e-01, -2.49584705e-01, 3.09282362e-01,
          2.17839390e-01, 8.97444904e-01, -5.15608907e-01,
          1.54211029e-01, 4.68876511e-01, 3.70809376e-01,
          -3.46983135e-01, 7.07642734e-02, 2.47553557e-01,
          -2.73878783e-01, -6.63114905e-01, -4.83524382e-01,
          1.34391189e-01, 4.51813579e-01, 1.23766221e-01, 3.21677119e-01,
          1.07715823e-01, 5.69496214e-01, 5.26212215e-01, 5.50259948e-01,
          1.50859626e-02, 1.56389189e+00, 8.62473965e-01, 1.34415591e+00,
          2.41976619e-01, 3.27259600e-01, -8.77857208e-01,
          -2.78148055e-01, 4.09555882e-01, 4.32497114e-01,
          -6.89776957e-01, -6.20725490e-02, 2.80500591e-01,
          2.97806442e-01, -7.30849981e-01, -1.90436020e-02,
          2.05052182e-01, 3.27389091e-01, -6.56953037e-01,
          -1.31441251e-04, 2.28496790e-01, 9.26068842e-01,
          -1.67659909e-01, 4.21871811e-01, 5.07813811e-01,
          4.68127012e-01, -3.81602764e-01, 2.61006374e-02,
          3.66783172e-01, -1.03064664e-01, -2.92063266e-01,
          -2.06648812e-01, 7.17040822e-02, 9.66523945e-01,
          6.40244246e-01, 7.96843052e-01, 1.01900287e-01, 6.64004147e-01,
          3.32514405e-01, 4.68045950e-01, 1.11735336e-01 ]
      - [ 6.85481668e-01, -2.49584705e-01, 3.76376957e-01,
          2.03047976e-01, 7.23834217e-01, -7.64957130e-01,
          -5.80048934e-02, 4.53774959e-01, 4.35867101e-01,
          -3.15543085e-01, 1.69319794e-01, 2.12202281e-01,
          -2.67165542e-01, -6.52311802e-01, -4.28621531e-01,
          1.30651727e-01, 4.23635036e-01, 1.20413646e-01, 2.77818263e-01,
          1.14842668e-01, 5.69496214e-01, 5.24593711e-01, 5.46808958e-01,
          1.72258820e-02, 1.56389189e+00, 8.44175756e-01, 1.24590433e+00,
          2.74700493e-01, 2.36464903e-01, -8.85290682e-01,
          -4.42964047e-01, 3.80676568e-01, 4.32497114e-01,
          -4.25469875e-01, 3.92090902e-02, 2.47509569e-01,
          2.97806442e-01, -2.57390618e-01, 4.50861938e-02,
          1.26793474e-01, 3.83123964e-01, -4.29790586e-01,
          7.11384341e-02, 2.15005979e-01, 9.26068842e-01,
          -1.67659909e-01, 5.67275405e-01, 4.66590196e-01,
          4.44209576e-01, -3.81602764e-01, -8.92705545e-02,
          3.42767388e-01, -1.03064664e-01, -3.06924969e-01,
          -2.30033606e-01, 7.17497393e-02, 9.09772277e-01,
          6.40244246e-01, 7.80932128e-01, 8.71076211e-02, 6.64004147e-01,
          3.32514405e-01, 5.04158735e-01, 1.22312725e-01 ]
      - [ 2.97276592e+00, -2.31438923e+00, 1.46494448e-01,
          9.18545604e-01, 4.63104200e+00, -1.20877237e+01,
          5.70590533e-02, 2.24152470e+00, 4.97030640e+00,
          -2.02839065e+00, 1.54155359e-01, 8.92845035e-01,
          1.37898521e+01, -1.95018044e+01, 4.45491463e-01,
          5.08272266e+00, 5.56217623e+00, -3.78061223e+00,
          3.74719620e-01, 1.28509450e+00, 1.29736938e+01,
          -1.16512241e+01, -1.21711111e+00, 3.23185325e+00,
          5.42020559e-01, -3.04246336e-01, -3.92273553e-02,
          2.38355041e-01, -5.97780585e-01, -1.01609015e+00,
          -8.60888600e-01, 9.05082375e-02, 1.33395207e+00,
          -2.67883158e+00, -2.85412163e-01, 6.26529694e-01,
          6.98836803e-01, -1.49287426e+00, -1.33205950e-01,
          3.66694033e-01, 1.67569470e+00, -7.72468138e+00,
          1.43609896e-01, 1.62489331e+00, 2.00389719e+00,
          -3.44255781e+00, -2.85425097e-01, 1.19884086e+00,
          2.89193797e+00, -6.60172653e+00, -7.32598841e-01,
          2.41500521e+00, 1.52132010e+00, -3.37274790e+00,
          -8.53497013e-02, 9.84591544e-01, 8.69579732e-01,
          2.59940058e-01, 5.12044966e-01, 2.35011280e-01,
          -3.76823545e-01, -6.68617010e-01, -5.24207056e-01,
          8.87418315e-02 ]
      - [ 3.39939380e+00, -1.53883994e+00, 1.62839279e-01,
          8.56384814e-01, 3.67046881e+00, -1.57635355e+01,
          -7.55226472e-03, 2.40518594e+00, 1.88786280e+00,
          -6.27686977e+00, -1.89991610e-03, 1.02405143e+00,
          1.55563946e+01, -1.65892735e+01, -2.01444775e-01,
          3.75574279e+00, 7.17639112e+00, -2.15589595e+00,
          5.89645803e-01, 1.39543009e+00, 1.08846979e+01,
          -8.44314957e+00, -6.44739568e-01, 3.15211916e+00,
          7.68151432e-02, -4.44316328e-01, -1.66099548e-01,
          1.21573187e-01, -7.92140365e-01, -1.04280305e+00,
          -9.86103356e-01, 5.55762239e-02, 5.12444437e-01,
          -7.73803592e-01, -3.21811557e-01, 3.42394263e-01,
          4.17973328e+00, -1.73639977e+00, 2.42373757e-02,
          1.12084985e+00, 8.08422983e-01, -8.89891803e-01,
          5.45515418e-02, 3.97873342e-01, 1.20081539e+01,
          -1.21471653e+01, -8.16930711e-01, 4.63559771e+00,
          2.63240337e+00, -2.68991518e+00, -4.60530758e-01,
          1.30855322e+00, 1.80016994e+00, -6.73501635e+00,
          -1.27725887e+00, 2.26167941e+00, 2.58034801e+00,
          1.63132989e+00, 2.08058190e+00, 3.49484056e-01,
          -4.49082136e-01, -9.02180195e-01, -6.29263103e-01,
          1.42865226e-01 ]
      - [ 3.69417399e-01, -3.30628157e-01, -1.09362155e-02,
          2.28307292e-01, 3.58741194e-01, -2.61055380e-01,
          -3.88096794e-02, 1.37291685e-01, 3.09431225e-01,
          -4.00020421e-01, -6.35478040e-03, 1.90734386e-01,
          -6.78819418e-01, -7.49578059e-01, -7.36232817e-01,
          1.92922000e-02, 1.72575131e-01, -1.73973247e-01,
          -4.66583706e-02, 1.09924085e-01, -4.02188212e-01,
          -5.46276867e-01, -4.47870463e-01, 4.54625189e-02,
          -8.61944020e-01, -1.03846943e+00, -8.99513543e-01,
          4.16514426e-02, 8.27337027e-01, 1.51090756e-01, 3.84353310e-01,
          2.13251784e-01, 1.47690266e-01, -6.58777773e-01,
          -2.23974347e-01, 2.28377834e-01, 9.57153678e-01,
          -8.64423811e-01, -6.12641126e-02, 5.47249138e-01,
          3.71120185e-01, -3.02966032e-02, 1.41953841e-01,
          1.12093739e-01, 3.90294045e-01, -2.50944227e-01,
          1.07788235e-01, 2.21648693e-01, 6.34356439e-01, 5.07258177e-01,
          5.87889194e-01, 4.24980111e-02, -2.69956440e-01,
          -3.37319672e-01, -3.00298065e-01, 1.74097475e-02,
          -9.93980050e-01, -1.54994464e+00, -1.37907875e+00,
          1.95037186e-01, -1.71480179e-01, -9.23809767e-01,
          -5.93210459e-01, 2.79475063e-01 ]
      - [ 7.56086767e-01, -3.60653996e-01, 9.91339311e-02,
          3.34953696e-01, 5.63135326e-01, -2.61055380e-01,
          1.32250354e-01, 2.24260598e-01, 3.17638516e-01,
          -9.17048931e-01, 3.60395834e-02, 2.86274612e-01,
          -6.33548200e-01, -7.72516549e-01, -6.92772090e-01,
          4.09672223e-02, 6.69535100e-01, -8.99731554e-03,
          2.29023099e-01, 1.52530298e-01, -2.25074306e-01,
          -6.20665610e-01, -5.30486584e-01, 9.13977772e-02,
          -8.70039523e-01, -1.56739593e+00, -1.19416213e+00,
          2.20972300e-01, 9.73684072e-01, 4.42670256e-01, 7.85688579e-01,
          1.46281973e-01, 1.14626653e-01, -7.87310839e-01,
          -3.51982832e-01, 3.14706147e-01, 7.22891986e-01,
          -8.64423811e-01, -2.94635743e-01, 3.80657673e-01,
          2.93798685e-01, -3.02966032e-02, 1.45530552e-01,
          8.16085711e-02, 3.90294045e-01, -2.71567911e-01,
          1.70909837e-01, 2.08555385e-01, 5.85858464e-01, 5.07258177e-01,
          5.53626657e-01, 2.70955767e-02, -2.57041693e-01,
          -3.04556251e-01, -2.80093819e-01, 1.23713156e-02,
          -9.93980050e-01, -1.40569377e+00, -1.24071836e+00,
          1.43970966e-01, -6.13045208e-02, -9.23809767e-01,
          -6.58439875e-01, 2.70471156e-01 ]
      - [ 7.56086767e-01, -3.60653996e-01, 1.93369865e-01,
          3.19645345e-01, 5.91025770e-01, -1.39563605e-01,
          2.26318330e-01, 2.26189524e-01, 3.17638516e-01,
          -9.17048931e-01, -3.45171802e-02, 3.40812474e-01,
          -6.33548200e-01, -7.72516549e-01, -6.84502423e-01,
          3.58343609e-02, 6.69535100e-01, 8.61558393e-02, 3.17081690e-01,
          1.74612999e-01, -2.17791408e-01, -6.20665610e-01,
          -4.89284039e-01, 1.46723703e-01, -9.32160914e-01,
          -1.56739593e+00, -1.25896418e+00, 1.86648503e-01,
          9.73684072e-01, 5.52509964e-01, 8.14357758e-01, 1.10075288e-01,
          1.14626653e-01, -7.87310839e-01, -3.17891926e-01,
          3.26202393e-01, 1.25527072e+00, -8.64423811e-01,
          -7.31698051e-02, 5.90786457e-01, 4.41973090e-01,
          2.63153333e-02, 1.90815195e-01, 9.40375403e-02, 3.90294045e-01,
          -4.09766972e-01, 6.49758577e-02, 2.71639377e-01,
          5.84858179e-01, 5.07258177e-01, 5.51668346e-01, 2.65339836e-02,
          -2.40246758e-01, -2.91575760e-01, -2.71230519e-01,
          1.39203621e-02, -9.93980050e-01, -1.40569377e+00,
          -1.24349272e+00, 1.42897397e-01, 9.99345779e-02,
          -9.23809767e-01, -5.11135042e-01, 3.49919349e-01 ]
      - [ 9.16170835e-01, -1.84038773e-01, 3.67123187e-01,
          2.68006355e-01, 1.96158493e+00, -2.18964052e+00,
          3.91245127e-01, 1.16668606e+00, 1.08553576e+00,
          -5.29683113e-01, 3.66719753e-01, 5.53603172e-01,
          6.15170121e-01, -4.61968184e-01, 2.18831554e-01,
          3.81127745e-01, -4.47839767e-01, -6.99610233e-01,
          -5.68398356e-01, 8.29888508e-02, -3.59023549e-02,
          -2.41516113e-01, -1.22451201e-01, 6.14977516e-02,
          1.60454452e+00, 8.55213940e-01, 1.20810103e+00, 2.55202562e-01,
          5.11286438e-01, -8.40630829e-01, 3.29315588e-02,
          4.47568923e-01, 2.00010359e-01, -8.70496869e-01,
          -4.53150988e-01, 3.19588810e-01, 1.35531902e+00,
          -6.34475470e-01, 4.75353748e-01, 6.78131700e-01,
          6.09473705e-01, 1.49583742e-01, 3.97683591e-01, 1.40624881e-01,
          3.82424921e-01, -5.20701289e-01, -2.15665802e-01,
          2.98632324e-01, 5.86351871e-01, 4.74738032e-01, 5.35703540e-01,
          3.63170914e-02, -1.75801918e-01, -4.00457591e-01,
          -3.02086949e-01, 7.01749101e-02, -9.82302606e-01,
          -1.48045254e+00, -1.29995501e+00, 1.33880422e-01,
          2.66738981e-01, -1.14533675e+00, -2.30200097e-01,
          4.62169737e-01 ]
      - [ 2.09881496e+00, 4.83752310e-01, 1.08660996e+00, 4.02654082e-01,
          5.33992469e-01, -1.27281368e+00, -6.49923444e-01,
          4.26319510e-01, 4.99019027e-01, -5.51706612e-01,
          -1.12774588e-01, 3.05253804e-01, 2.72289068e-01,
          -5.05741954e-01, -2.75277287e-01, 2.39042923e-01,
          8.54630470e-01, -8.50787699e-01, -2.95361429e-01,
          6.11900032e-01, 4.22076285e-01, -5.62311232e-01,
          -2.44911090e-01, 3.16719085e-01, 2.91730785e+00,
          1.35490036e+00, 2.15841818e+00, 4.39271837e-01,
          -1.94846757e-03, -1.40599906e+00, -1.00881648e+00,
          3.70262295e-01, 1.93336532e-01, -2.02782822e+00,
          -9.02916014e-01, 7.50834525e-01, 1.26721179e+00,
          -8.06675553e-01, 6.04309022e-01, 7.05697536e-01,
          1.85901916e+00, 2.20087230e-01, 8.78657818e-01, 5.07245123e-01,
          5.36777198e-01, -6.92285061e-01, -2.73731261e-01,
          4.35953170e-01, 6.75962329e-01, 3.09600264e-01, 4.69453126e-01,
          1.33389175e-01, -1.66879609e-01, -3.80696356e-01,
          -2.40621865e-01, 5.07457294e-02, -2.97335148e-01,
          -1.57797146e+00, -1.04824197e+00, 3.42680097e-01,
          2.34513834e-01, -1.17706335e+00, -1.71493456e-01,
          4.85116422e-01 ]
      - [ 2.17174029e+00, -1.86612689e+00, 8.20322111e-02,
          6.60885215e-01, 2.09038329e+00, -8.57668972e+00,
          1.20538346e-01, 1.44611633e+00, 1.99314785e+00,
          -3.19030619e+00, 1.99662130e-02, 7.31382012e-01,
          2.68591766e+01, -1.33204460e+01, 9.36452970e-02,
          5.53887320e+00, 4.83403683e+00, -2.40450811e+00,
          4.27699149e-01, 1.22626054e+00, 8.27312469e+00,
          -7.84315968e+00, -8.63896728e-01, 2.51331496e+00,
          2.87503958e+00, -3.08755445e+00, -5.09890258e-01,
          2.08008265e+00, -1.25071526e+00, -1.41432059e+00,
          -1.35549653e+00, 3.75838429e-02, 1.01930642e+00,
          -1.54033780e+00, -2.03484848e-01, 4.54246998e-01,
          8.54494476e+00, -8.51758242e-01, 2.15141084e-02,
          1.80446577e+00, 8.32486391e-01, -4.29840422e+00,
          1.67179793e-01, 8.33774626e-01, 1.15268335e+01,
          -6.48119593e+00, -6.08642757e-01, 3.63290596e+00,
          2.23443294e+00, -4.04407024e+00, -5.89317858e-01,
          1.49733365e+00, 3.27892423e+00, -9.62324142e+00,
          -1.47641826e+00, 3.24990058e+00, 1.20567799e+00,
          3.42232943e-01, 8.55982006e-01, 2.92355090e-01,
          -2.19135672e-01, -1.13655972e+00, -7.49016345e-01,
          3.61372471e-01 ]
      - [ 6.16359562e-02, -4.04047340e-01, -9.07463804e-02,
          1.05685741e-01, 3.25439990e-01, -3.41763854e-01,
          -5.90086877e-02, 1.58195823e-01, 5.81005752e-01,
          -3.16728592e-01, 6.15005121e-02, 2.85022825e-01,
          6.28024995e-01, 5.15428185e-01, 5.56186676e-01, 3.26153934e-02,
          8.41785550e-01, 7.65969515e-01, 8.14587235e-01, 2.15070099e-02,
          1.77518383e-01, 3.38265970e-02, 1.33816317e-01, 3.58747840e-02,
          -2.17836761e+00, -2.58108711e+00, -2.48482203e+00,
          1.14585400e-01, -1.00354779e+00, -1.25793457e+00,
          -1.09223187e+00, 7.25364611e-02, 1.55805260e-01,
          -4.02299464e-01, -7.43450969e-02, 1.58737332e-01,
          6.06369495e-01, -4.14411604e-01, 5.09002134e-02,
          2.22382963e-01, 3.88641953e-01, -4.90558803e-01,
          2.17087958e-02, 2.35798612e-01, -5.46915293e-01,
          -6.91508293e-01, -5.90406477e-01, 3.86891887e-02,
          -5.20502925e-01, -7.58123338e-01, -6.66815877e-01,
          7.55907074e-02, 4.90364701e-01, 2.95521319e-01, 4.14527863e-01,
          6.48973137e-02, 2.40685272e+00, 1.19964647e+00, 2.15077996e+00,
          3.26211154e-01, -1.00562072e+00, -1.27987492e+00,
          -1.11540985e+00, 9.15491730e-02 ]
      - [ 4.83833775e-02, -4.04047340e-01, -9.44276080e-02,
          1.01485826e-01, 2.48100683e-01, -3.41763854e-01,
          -4.40123230e-02, 1.54365778e-01, 5.81005752e-01,
          -3.16728592e-01, 6.63069636e-02, 2.80573756e-01,
          6.07743740e-01, 5.09615958e-01, 5.42607069e-01, 2.37973593e-02,
          8.45451117e-01, 7.83590853e-01, 8.23531330e-01, 1.57611165e-02,
          1.77518383e-01, 8.82525593e-02, 1.42690480e-01, 2.14287136e-02,
          -2.33387089e+00, -2.58449054e+00, -2.52753067e+00,
          6.21204525e-02, -9.92732584e-01, -1.21063471e+00,
          -1.06188560e+00, 5.04912771e-02, 1.55805260e-01,
          -4.02299464e-01, -7.15871006e-02, 1.59727633e-01,
          6.06369495e-01, -4.14411604e-01, 5.77460788e-03,
          2.19487339e-01, 3.88641953e-01, -3.80613893e-01,
          3.58542986e-02, 2.12290287e-01, -5.46915293e-01,
          -7.18427062e-01, -6.05495393e-01, 5.45714796e-02,
          -4.89336580e-01, -7.47849226e-01, -6.36336029e-01,
          8.50810111e-02, 4.90364701e-01, 3.15163165e-01, 4.27206695e-01,
          5.01363985e-02, 2.40685272e+00, 9.88060117e-01, 1.99641860e+00,
          4.73904729e-01, -1.00562072e+00, -1.27987492e+00,
          -1.13110828e+00, 9.76933315e-02 ]
      - [ 2.72906184e-01, -2.68883198e-01, -4.76064219e-04,
          1.72813371e-01, 3.62941951e-01, -3.02164584e-01,
          3.54337357e-02, 2.09738567e-01, 2.20972538e-01,
          -2.62012839e-01, -5.79130650e-02, 1.08948253e-01,
          5.20131946e-01, 5.01197636e-01, 5.09606719e-01, 6.14221534e-03,
          8.49064648e-01, 7.88946450e-01, 8.31710696e-01, 1.82817169e-02,
          3.22580963e-01, 1.29730552e-01, 2.02362210e-01, 6.26012683e-02,
          -2.56593847e+00, -2.73147655e+00, -2.66129184e+00,
          5.37259057e-02, -9.82973516e-01, -1.03020108e+00,
          -1.00588775e+00, 1.64333228e-02, 3.73891950e-01,
          -5.21697514e-02, 1.05520897e-01, 1.33578554e-01,
          1.81798190e-01, -3.23714823e-01, -2.64225025e-02,
          1.48546606e-01, 2.73442000e-01, -3.80613893e-01,
          -2.79601943e-02, 1.59430817e-01, -6.83561563e-01,
          -7.63381362e-01, -7.42768228e-01, 1.94503814e-02,
          -4.63138700e-01, -5.28854609e-01, -4.86331910e-01,
          1.64946523e-02, 4.21064317e-01, 3.19507211e-01, 3.67044479e-01,
          2.75399145e-02, 1.27787864e+00, 7.11968184e-01, 8.34425211e-01,
          1.32128865e-01, -1.14035404e+00, -1.26870716e+00,
          -1.18079007e+00, 3.00485622e-02 ]
      - [ 2.72906184e-01, -2.68883198e-01, -2.23025847e-02,
          1.89538449e-01, 3.62941951e-01, -3.02164584e-01,
          2.00474858e-02, 2.05981970e-01, 2.20972538e-01,
          -3.45681429e-01, -8.37134123e-02, 1.35439143e-01,
          5.48794627e-01, 5.01197636e-01, 5.12347758e-01, 1.10281799e-02,
          8.49064648e-01, 7.53849566e-01, 8.22875321e-01, 2.68023256e-02,
          3.50065321e-01, 1.30027428e-01, 2.27409825e-01, 7.00670704e-02,
          -2.56266761e+00, -2.73147655e+00, -2.66394496e+00,
          5.02637811e-02, -9.82973516e-01, -1.09733880e+00,
          -1.01369643e+00, 2.58777067e-02, 3.73891950e-01,
          -5.21697514e-02, 9.58987772e-02, 1.38059080e-01,
          1.81798190e-01, -3.82092565e-01, -4.88523990e-02,
          1.77360520e-01, 2.73442000e-01, -2.89741278e-01,
          -2.77942605e-02, 1.53432354e-01, -7.15619504e-01,
          -7.63381362e-01, -7.49696314e-01, 1.12382900e-02,
          -4.63138700e-01, -5.24331510e-01, -4.86945182e-01,
          1.71261579e-02, 4.04383838e-01, 3.17784488e-01, 3.55815232e-01,
          2.59524267e-02, 1.00677371e+00, 7.10560679e-01, 7.85579979e-01,
          7.25714043e-02, -1.14035404e+00, -1.23082232e+00,
          -1.17683637e+00, 2.25532297e-02 ]
      - [ 2.72906184e-01, -4.84623611e-01, -4.80326191e-02,
          2.21197590e-01, 3.62941951e-01, -3.52815151e-01,
          -3.54306549e-02, 2.02477857e-01, 2.20972538e-01,
          -3.45681429e-01, -7.65240937e-02, 1.45002171e-01,
          5.56899011e-01, 5.01197636e-01, 5.17671287e-01, 1.71982553e-02,
          8.49064648e-01, 7.37076461e-01, 8.10537994e-01, 3.56612429e-02,
          3.60446930e-01, 1.39123827e-01, 2.54546374e-01, 7.17928708e-02,
          -2.55874300e+00, -2.73147655e+00, -2.66231656e+00,
          5.29378317e-02, -9.82973516e-01, -1.15784121e+00,
          -1.03003812e+00, 4.46137562e-02, 3.73891950e-01,
          -6.99528307e-02, 8.96816626e-02, 1.42410070e-01,
          1.81798190e-01, -3.82092565e-01, -6.19714558e-02,
          1.70977429e-01, 2.73442000e-01, -3.30056787e-01,
          -4.42725569e-02, 1.72504202e-01, -7.36796498e-01,
          -7.63381362e-01, -7.52066612e-01, 6.47967542e-03,
          -4.63138700e-01, -5.31926334e-01, -4.92538750e-01,
          2.20407080e-02, 3.88400733e-01, 3.17784488e-01, 3.46361041e-01,
          2.26156320e-02, 8.72264326e-01, 7.10560679e-01, 7.59399354e-01,
          3.63617875e-02, -1.14035404e+00, -1.26364565e+00,
          -1.18386090e+00, 3.31712924e-02 ]
      - [ 3.91689301e-01, -5.19056380e-01, -8.30232278e-02,
          2.47054920e-01, 7.66302109e-01, -3.52815151e-01,
          -4.27832641e-02, 2.22172573e-01, 5.06528914e-01,
          -3.45681429e-01, -5.58686629e-02, 1.78692102e-01,
          5.66971362e-01, 5.01442254e-01, 5.24957120e-01, 2.18214393e-02,
          8.48248243e-01, 7.20870495e-01, 7.96050608e-01, 4.13980596e-02,
          3.60446930e-01, 1.61324769e-01, 2.79603064e-01, 6.63116276e-02,
          -2.55874300e+00, -2.73147655e+00, -2.66274810e+00,
          5.27419150e-02, -9.84739780e-01, -1.22737503e+00,
          -1.05638838e+00, 6.91267326e-02, 3.73891950e-01,
          -2.17054471e-01, 7.03517646e-02, 1.59167275e-01,
          1.81798190e-01, -3.82092565e-01, -7.55011886e-02,
          1.70105979e-01, 2.73442000e-01, -3.30056787e-01,
          -5.94766736e-02, 1.84791550e-01, -7.21797943e-01,
          -7.63381362e-01, -7.50405133e-01, 9.45845153e-03,
          -4.63138700e-01, -5.34526587e-01, -5.00428200e-01,
          2.33077724e-02, 3.73037457e-01, 3.17784488e-01, 3.39152873e-01,
          1.96968373e-02, 7.92684853e-01, 5.76919377e-01, 7.36549318e-01,
          4.42165993e-02, -1.14035404e+00, -1.30325353e+00,
          -1.19954097e+00, 4.45101932e-02 ]
      - [ 2.80484819e+00, -3.50774497e-01, 1.38725185e+00,
          9.22357142e-01, 7.73574293e-01, -6.17899179e-01,
          3.08253244e-02, 3.74865711e-01, 4.26387739e+00,
          -1.11684930e+00, 6.89621806e-01, 1.67714620e+00,
          5.27092636e-01, -2.48398542e-01, 1.28276095e-01,
          2.67098337e-01, 7.11589158e-01, -1.55003607e-01,
          2.86333025e-01, 3.12319875e-01, 6.11851454e-01, 4.06098783e-01,
          5.51045239e-01, 5.48680648e-02, 3.10734200e+00,
          -3.02770281e+00, 7.41762996e-01, 1.60920155e+00,
          -1.20190227e+00, -1.33188343e+00, -1.25032723e+00,
          3.11198384e-02, -5.26885808e-01, -2.64205551e+00,
          -1.89163601e+00, 5.18272996e-01, 3.55574876e-01,
          -8.85059536e-01, -1.22230396e-01, 2.55206347e-01,
          2.06195045e+00, -1.71417713e+00, 9.79477167e-02,
          8.60628664e-01, 5.24444997e-01, -6.99981630e-01,
          -1.64422274e-01, 3.87143493e-01, 1.96605161e-01,
          -5.38541973e-01, -2.34741092e-01, 2.41747499e-01,
          5.54897487e-01, 3.19548666e-01, 4.63822067e-01, 8.03113058e-02,
          3.33982468e-01, -7.80622184e-01, -4.03080285e-01,
          2.99434066e-01, -9.13469911e-01, -1.35134614e+00,
          -1.18403566e+00, 1.28420636e-01 ]
      - [ 2.80484819e+00, -3.50774497e-01, 1.31526649e+00,
          9.95853841e-01, 8.22837651e-01, -6.17899179e-01,
          7.16795325e-02, 4.26709175e-01, 4.26387739e+00,
          -5.85154295e-01, 1.04225278e+00, 1.65912867e+00,
          4.68651116e-01, -2.48398542e-01, 4.52668257e-02,
          2.43994132e-01, 6.64669514e-01, -1.55003607e-01,
          1.94039404e-01, 2.91352302e-01, 6.43212080e-01, 4.71545011e-01,
          5.74617326e-01, 4.02864926e-02, 3.10734200e+00, 1.55677602e-01,
          1.15413928e+00, 9.34163570e-01, -1.20394135e+00,
          -1.34763896e+00, -1.26613486e+00, 3.96698825e-02,
          3.32715303e-01, -2.64205551e+00, -1.82954478e+00,
          6.64239764e-01, 1.90957761e+00, -8.85059536e-01,
          2.99496087e-03, 5.45953929e-01, 4.45002365e+00,
          -1.58379769e+00, 6.43304229e-01, 1.41076350e+00,
          5.99412143e-01, -6.58141613e-01, -1.28806010e-02,
          4.01258171e-01, 2.99249560e-01, -5.02431989e-01,
          -1.39645487e-01, 2.61595398e-01, 5.54897487e-01,
          3.38387221e-01, 4.73564714e-01, 6.67831302e-02,
          -1.24958633e-02, -7.80622184e-01, -4.55869347e-01,
          2.14359567e-01, -9.13469911e-01, -1.30794346e+00,
          -1.14212191e+00, 1.28575936e-01 ]
      - [ 1.87473035e+00, -1.42889291e-01, 1.43111199e-01,
          3.36701155e-01, 9.40826237e-01, -6.58592105e-01,
          4.89395671e-03, 3.34183425e-01, 1.57167530e+00,
          -4.91014051e+00, -5.56741841e-02, 8.95704865e-01,
          3.25296640e+00, -3.77415061e+00, -7.32277036e-02,
          1.16166115e+00, 2.05528498e+00, -2.75472546e+00,
          2.98669599e-02, 1.25750303e+00, 7.82067418e-01,
          -9.58288789e-01, 5.89036904e-02, 5.31986535e-01,
          3.13862395e+00, -3.13510036e+00, -1.32576537e+00,
          2.73004198e+00, -4.36954051e-01, -5.52281380e-01,
          -4.99258757e-01, 3.05866841e-02, 3.96527112e-01,
          -1.60778987e+00, -2.51883626e-01, 4.99117792e-01,
          7.84671593e+00, -1.21565592e+00, 1.01114380e+00,
          2.20441556e+00, 6.55469000e-01, -4.09212798e-01,
          1.29561186e-01, 2.91431427e-01, 1.41338766e+00,
          -1.99806786e+00, -2.56850958e-01, 7.22420573e-01,
          1.20912588e+00, -7.81934738e-01, -1.40067577e-01,
          5.46438694e-01, 1.31157160e+00, -4.21927643e+00,
          -5.54685473e-01, 1.43936551e+00, 2.98654199e+00,
          -3.00067854e+00, 1.23476946e+00, 1.18696570e+00,
          4.69944686e-01, -1.44428372e+00, -2.94923425e-01,
          8.57933521e-01 ]
   decision_functions:
      -
         sv_count: 44
         rho: 3.2492065896714173e-01
         alpha: [ 8.4273399048229125e-01, 5.1009254856639752e-01,
             2.1406524192127263e-01, 2.8694371451754652e-01,
             1.8475632845664036e-01, 1.7986442576027944e-01,
             2.5000000000000000e+00, 2.5000000000000000e+00,
             2.5000000000000000e+00, 2.5000000000000000e+00,
             2.5000000000000000e+00, 2.5000000000000000e+00,
             2.5000000000000000e+00, 2.5000000000000000e+00,
             2.5000000000000000e+00, 2.5000000000000000e+00,
             2.5000000000000000e+00, 2.5000000000000000e+00,
             2.5000000000000000e+00, -2.5000000000000000e+00,
             -1.0750294487883878e+00, -8.8859177271986028e-02,
             -1.0874605037867552e-01, -3.8432820638495666e-02,
             -2.5000000000000000e+00, -2.1864611589882408e+00,
             -8.5528910390994539e-01, -3.8166526282921964e-01,
             -7.7102531981347033e-01, -7.5983043017447649e-01,
             -2.1650230107370776e+00, -4.5138496511623655e-01,
             -5.5386449742119248e-01, -2.5000000000000000e+00,
             -1.4294040891350726e+00, -2.2402840958333021e+00,
             -2.5000000000000000e+00, -1.7801600978154202e+00,
             -1.1643880150774211e+00, -2.5000000000000000e+00,
             -2.5000000000000000e+00, -2.5000000000000000e+00,
             -1.2903137652406699e-01, -1.0395773292517378e+00 ]
         index: [ 43, 34, 28, 27, 24, 23, 19, 18, 17, 16, 15, 14, 13, 12,
             11, 10, 9, 8, 7, 1, 2, 0, 3, 4, 5, 6, 20, 21, 22, 25, 26,
             29, 30, 31, 32, 33, 35, 36, 37, 38, 39, 40, 41, 42 ]
