%YAML:1.0
---
opencv_ml_svm:
   format: 3
   svmType: C_SVC
   kernel:
      type: RBF
      gamma: 2.2500000000000003e-03
   C: 6.2500000000000000e+01
   term_criteria: { epsilon:1.1920928955078125e-07, iterations:1000 }
   var_count: 64
   class_count: 5
   class_labels: !!opencv-matrix
      rows: 5
      cols: 1
      dt: i
      data: [ 0, 1, 2, 3, 4 ]
   sv_total: 363
   support_vectors:
      - [ 8.34662676e-01, -5.86283147e-01, 5.50400205e-02,
          3.68084610e-01, 1.19861579e+00, -7.79829204e-01,
          -9.61986184e-02, 4.85792369e-01, 1.33056200e+00,
          -1.31825686e+00, -7.33565092e-02, 6.02653563e-01,
          4.73989725e+00, -5.06757402e+00, -3.72862518e-01,
          1.57369781e+00, 1.91034007e+00, -1.36808383e+00,
          2.86135495e-01, 9.03739989e-01, 3.92869282e+00,
          -1.91993380e+00, 4.54028666e-01, 1.37528145e+00,
          -2.79356503e+00, -3.03092265e+00, -2.92233586e+00,
          7.84256160e-02, -4.98642683e-01, -6.45648301e-01,
          -5.65483272e-01, 3.21297534e-02, 1.52851355e+00,
          -2.33644080e+00, 3.09386407e-03, 7.83000052e-01,
          1.94571555e+00, -1.15991831e+00, -2.75288373e-01,
          6.42624438e-01, 1.11023581e+00, -3.81634212e+00,
          1.18581876e-01, 1.12150824e+00, 2.49391079e+00,
          -8.01773071e+00, -1.45542368e-01, 1.74600291e+00,
          3.77939606e+00, -3.54830027e+00, -9.10583884e-02,
          1.80470753e+00, 1.77248681e+00, -2.83453107e+00,
          -2.94842720e-01, 1.58711541e+00, 5.06257296e-01,
          -1.67481359e-02, 2.23878250e-01, 1.81282759e-01,
          -6.13809347e-01, -8.44012678e-01, -7.44362891e-01,
          8.15267339e-02 ]
      - [ 1.27493024e+00, -9.79422033e-01, 8.02827999e-02,
          4.53080535e-01, 1.71219897e+00, -1.43606627e+00,
          8.80544037e-02, 5.99100590e-01, 2.38936281e+00,
          -3.41551948e+00, -6.91168681e-02, 9.02744234e-01,
          7.90780354e+00, -7.12521553e+00, -9.92221460e-02,
          2.41821790e+00, 3.30237031e+00, -2.35484147e+00,
          9.42113325e-02, 1.21755564e+00, 3.33125639e+00,
          -9.79587197e-01, 4.07345414e-01, 1.06036615e+00,
          -2.66450763e+00, -2.94242978e+00, -2.85891533e+00,
          8.27248991e-02, -3.54608297e-01, -5.60763717e-01,
          -4.16498244e-01, 3.83712091e-02, 7.08546817e-01,
          -3.03043866e+00, -1.73938662e-01, 7.81567872e-01,
          2.96865153e+00, -1.31536674e+00, -6.22623153e-02,
          7.95720100e-01, 1.19780958e+00, -5.42338371e+00,
          2.21678987e-02, 1.29569411e+00, 1.87359571e+00,
          -5.22987795e+00, -5.82159460e-01, 1.29362774e+00,
          2.71927428e+00, -5.80751562e+00, -7.54081368e-01,
          2.36956048e+00, 7.90023029e-01, -2.54836726e+00,
          -8.98906767e-01, 8.93533826e-01, 8.54881346e-01,
          1.16716743e-01, 4.09536868e-01, 2.66094536e-01,
          -3.71145546e-01, -7.12745488e-01, -5.99247098e-01,
          1.20466009e-01 ]
      - [ 6.39210045e-01, -1.09739554e+00, -5.32218218e-01,
          4.21261013e-01, 2.54463434e+00, -3.21251690e-01,
          6.54244542e-01, 6.04089618e-01, 1.33319819e+00,
          -3.53021026e+00, -1.50925532e-01, 7.42969155e-01,
          2.85113716e+00, -6.49889612e+00, -7.42459476e-01,
          1.49410295e+00, 2.85388923e+00, -2.62409806e+00,
          2.99510479e-01, 1.50485551e+00, 3.93991661e+00,
          -1.93962216e+00, 2.87808746e-01, 1.26084542e+00,
          2.87176776e+00, 2.55582094e+00, 2.69975543e+00, 9.05662701e-02,
          3.48171592e-01, -3.58687155e-02, 1.59255326e-01,
          1.50185034e-01, 9.31196213e-01, -3.63589692e+00,
          -2.83115208e-01, 9.08107221e-01, 2.27181721e+00,
          -9.06456828e-01, -2.38883018e-01, 6.39055133e-01,
          1.26669204e+00, -5.34809208e+00, 2.33454317e-01,
          1.38940227e+00, 2.03197551e+00, -6.65410662e+00,
          1.60138514e-02, 1.42643332e+00, 3.73328757e+00,
          -5.19400263e+00, -2.59856224e-01, 2.20013690e+00,
          2.57898951e+00, -2.74319196e+00, -1.97900400e-01,
          1.41990709e+00, 6.62570417e-01, 1.47269100e-01, 4.01736706e-01,
          1.74687520e-01, -4.78942931e-01, -7.09446967e-01,
          -6.17554188e-01, 8.71457979e-02 ]
      - [ 9.77419615e-01, -1.06779373e+00, -4.74439561e-01,
          4.37696815e-01, 2.14382362e+00, -5.28741181e-01,
          7.29286849e-01, 4.82587785e-01, 1.01571560e+00,
          -4.09201717e+00, 7.95174465e-02, 8.24347198e-01,
          5.98542500e+00, -5.63777304e+00, -3.40955704e-01,
          1.54760253e+00, 1.85793793e+00, -2.76672697e+00,
          2.48268425e-01, 1.25129604e+00, 4.15450430e+00,
          -2.05745769e+00, 2.74235476e-02, 1.46379924e+00,
          2.72562242e+00, 2.47915983e+00, 2.60139751e+00, 6.38357997e-02,
          3.09338540e-01, 6.05453216e-02, 1.83345139e-01, 9.00972039e-02,
          1.24784148e+00, -3.28239822e+00, -1.20441727e-01,
          8.55909646e-01, 2.47188139e+00, -1.16671419e+00,
          -7.19958544e-02, 6.40086949e-01, 8.90238702e-01,
          -4.21769619e+00, 7.07148761e-02, 1.11660159e+00,
          2.68054366e+00, -8.96730709e+00, -1.39743626e-01,
          2.02589583e+00, 3.49239945e+00, -6.39876699e+00,
          -1.55075133e-01, 2.38269734e+00, 2.80716109e+00,
          -4.14029360e+00, -1.89142957e-01, 2.08865643e+00,
          7.69889891e-01, 1.08953178e-01, 4.90345269e-01, 2.10588232e-01,
          -4.23044115e-01, -7.86583722e-01, -6.10985219e-01,
          1.25977084e-01 ]
      - [ 2.15608430e+00, 1.15085870e-01, 9.79404390e-01, 4.05966312e-01,
          8.50708485e-02, -7.01693475e-01, -3.39395225e-01,
          1.92624047e-01, 1.68354011e+00, -1.08058608e+00,
          -4.82132286e-01, 5.56890666e-01, 1.97261143e+00,
          -1.35513878e+00, -8.50657299e-02, 9.08258319e-01,
          3.12327552e+00, -1.61245167e+00, -8.42272192e-02,
          9.80616927e-01, 2.07414794e+00, -1.95665014e+00,
          -1.51639670e-01, 1.35218751e+00, -7.06138194e-01,
          -1.07167804e+00, -9.80178773e-01, 8.43098462e-02,
          -2.54753008e-02, -6.23571396e-01, -1.85164809e-01,
          1.52267605e-01, 1.58198321e+00, -2.71883702e+00,
          -1.91794429e-02, 7.41471112e-01, 2.03935575e+00,
          -1.10506737e+00, -6.75569177e-02, 5.84408283e-01,
          1.14081836e+00, -3.36738324e+00, 1.02878958e-01,
          8.67655993e-01, 4.51487637e+00, -9.19376183e+00,
          -5.74786179e-02, 2.46109295e+00, 4.63568115e+00,
          -4.46457291e+00, -1.40337899e-01, 2.47598410e+00,
          2.88677645e+00, -3.44419074e+00, -2.74902821e-01,
          1.93484199e+00, 7.74895906e-01, 1.78856507e-01, 5.55677116e-01,
          1.70608848e-01, -3.07376921e-01, -7.82195032e-01,
          -5.47418237e-01, 1.34820029e-01 ]
      - [ 1.27105463e+00, 1.22654974e-01, 6.37400031e-01, 2.99277037e-01,
          4.48044449e-01, -1.00539649e+00, -2.87375957e-01,
          2.24049211e-01, 1.22615373e+00, -1.53357434e+00,
          -3.60995948e-01, 5.82430899e-01, 2.57973957e+00,
          -3.15078044e+00, -1.05403826e-01, 9.44275022e-01,
          2.36773920e+00, -1.63947165e+00, 5.30025996e-02,
          8.96452665e-01, 1.38929999e+00, -1.71355581e+00,
          -2.72956073e-01, 8.33963573e-01, -8.04273129e-01,
          -1.14896894e+00, -9.80538189e-01, 9.75756198e-02,
          -1.49733528e-01, -3.56118828e-01, -2.70602673e-01,
          6.17453530e-02, 8.70501339e-01, -2.24829769e+00,
          -2.42415980e-01, 6.03185773e-01, 3.27191424e+00,
          -1.36312592e+00, -1.25022694e-01, 9.00999725e-01,
          1.02911317e+00, -4.77791023e+00, 6.99592605e-02,
          1.17513597e+00, 3.82916617e+00, -6.62941790e+00,
          -1.48294330e-01, 1.48159134e+00, 3.52483487e+00,
          -4.70925951e+00, -4.03780252e-01, 2.09304762e+00,
          1.75736570e+00, -2.32456183e+00, -3.70266765e-01,
          1.02728951e+00, 8.95865619e-01, 3.58467579e-01, 6.14051700e-01,
          1.68953359e-01, -5.12841642e-01, -7.44889438e-01,
          -6.23884559e-01, 7.58016929e-02 ]
      - [ 2.09287667e+00, -2.54238665e-01, 5.33606887e-01,
          5.78912854e-01, 5.64904153e-01, -9.01879787e-01,
          -1.20477296e-01, 2.51638204e-01, 1.23785031e+00,
          -1.24835944e+00, 6.00189390e-03, 5.60797036e-01,
          3.15406680e+00, -4.14631176e+00, 1.18075572e-02,
          1.27881062e+00, 3.48489881e+00, -1.41022313e+00,
          -1.06680337e-02, 1.14454007e+00, 3.16608810e+00,
          -1.57085967e+00, 2.38411903e-01, 1.33629453e+00,
          -3.47478896e-01, -5.92260301e-01, -4.61728960e-01,
          8.62042308e-02, 7.46158585e-02, -2.19719797e-01,
          -8.22102278e-02, 1.04196295e-01, 1.47855043e+00,
          -2.64129090e+00, -1.20394029e-01, 7.13911057e-01,
          3.00153661e+00, -1.03723466e+00, -1.62215784e-01,
          9.10146236e-01, 1.23692155e+00, -4.59343195e+00,
          1.48691803e-01, 1.15789747e+00, 1.37843835e+00,
          -4.75501013e+00, -2.16554347e-02, 1.18023896e+00,
          2.19602942e+00, -4.65933895e+00, -4.96416360e-01,
          1.58012593e+00, 1.99120665e+00, -1.94736230e+00,
          1.28810152e-01, 8.39627922e-01, 7.18173683e-01, 3.26642513e-01,
          5.39771378e-01, 1.14437163e-01, -5.98911822e-01,
          -7.97580361e-01, -6.87599957e-01, 6.91890866e-02 ]
      - [ 1.22766018e+00, -3.75776500e-01, 2.60202378e-01,
          4.00342792e-01, 3.57973129e-01, -6.54697120e-01,
          -1.42477117e-02, 2.56191909e-01, 1.15558374e+00,
          -5.51705837e-01, -9.13243648e-03, 3.94784898e-01,
          2.84179449e+00, -2.92008591e+00, -5.63435117e-03,
          1.01017606e+00, 4.59660816e+00, -1.83210993e+00,
          -1.12898007e-01, 1.48983085e+00, 1.99537802e+00,
          -2.27840137e+00, -3.96965981e-01, 1.10546792e+00,
          -6.86732456e-02, -3.37384611e-01, -2.12596029e-01,
          8.78809839e-02, -5.49969748e-02, -2.03103662e-01,
          -1.13744952e-01, 3.16973180e-02, 1.25320995e+00,
          -3.52922463e+00, -1.09044090e-01, 8.26248288e-01,
          1.63463235e+00, -9.23458815e-01, -1.46825552e-01,
          6.09250486e-01, 8.40933263e-01, -3.77228594e+00,
          6.87096044e-02, 1.02059090e+00, 1.53471136e+00,
          -6.67778730e+00, -1.04829662e-01, 1.75217104e+00,
          3.88832211e+00, -4.52927208e+00, -2.09410470e-02,
          2.17997670e+00, 2.12992930e+00, -4.20292568e+00,
          -4.90384176e-02, 1.89530420e+00, 7.40540445e-01,
          1.63551971e-01, 5.20262420e-01, 1.80712327e-01,
          -4.89711314e-01, -9.03659880e-01, -6.87310457e-01,
          1.26809984e-01 ]
      - [ 4.38812435e-01, -4.57060933e-01, -4.54795919e-03,
          2.66457736e-01, 6.41934812e-01, -9.33300138e-01,
          1.86177157e-02, 2.67029971e-01, 1.82843614e+00,
          -8.12010109e-01, -1.26184858e-02, 5.66353977e-01,
          3.82298136e+00, -1.85901952e+00, -7.00518712e-02,
          9.72937226e-01, 1.50110424e+00, -1.56593645e+00,
          5.06286919e-02, 6.95982635e-01, 1.61052167e+00,
          -1.89763558e+00, -2.30523944e-01, 8.47396314e-01,
          -8.68654028e-02, -2.11234316e-01, -1.60096139e-01,
          3.23741846e-02, 5.00479452e-02, -6.96317405e-02,
          -2.61480827e-02, 3.30764577e-02, 5.66893101e-01,
          -3.16210318e+00, -1.72376528e-01, 6.86854959e-01,
          2.86989117e+00, -1.81291616e+00, -4.15535867e-02,
          8.67617667e-01, 7.31001139e-01, -3.60056901e+00,
          4.64745574e-02, 8.64584565e-01, 4.05423403e+00,
          -5.98912477e+00, -1.40658528e-01, 1.40960908e+00,
          3.40470624e+00, -4.38429403e+00, -5.30846596e-01,
          2.19063330e+00, 1.75962329e+00, -3.19982171e+00,
          -6.94558203e-01, 1.14302540e+00, 9.66033101e-01,
          3.52893054e-01, 6.14822209e-01, 2.07918674e-01,
          -5.26678264e-01, -7.71188974e-01, -6.41332924e-01,
          8.08144063e-02 ]
      - [ 5.21666646e-01, -1.09536660e+00, -5.90122283e-01,
          3.69534999e-01, 1.38776994e+00, -1.69465292e+00,
          -3.88932049e-01, 6.12738788e-01, 1.81261861e+00,
          -2.57288122e+00, 4.44527149e-01, 7.10476220e-01,
          5.24465370e+00, -7.39890099e+00, -1.73389569e-01,
          2.15740895e+00, 3.19064951e+00, -2.00723028e+00,
          7.29577392e-02, 1.47398055e+00, 3.56455183e+00,
          -1.41990471e+00, 3.55471820e-01, 1.13529885e+00,
          2.53046560e+00, 2.15073180e+00, 2.29068041e+00, 1.02641858e-01,
          -7.56510258e-01, -1.11323488e+00, -9.50121701e-01,
          1.33751929e-01, 7.29066014e-01, -3.74989486e+00,
          -1.95169032e-01, 8.34737301e-01, 2.72689986e+00,
          -1.16250443e+00, -2.66649991e-01, 8.47515702e-01,
          1.27899194e+00, -5.33972931e+00, 1.44913331e-01,
          1.34126890e+00, 1.82754016e+00, -5.94341707e+00,
          -6.78868666e-02, 1.31138813e+00, 3.53086948e+00,
          -5.48336077e+00, -8.35300833e-02, 2.22361493e+00,
          1.71092677e+00, -3.32667398e+00, -4.79313761e-01,
          1.25059366e+00, 5.84623337e-01, 7.33509008e-03, 2.93816119e-01,
          1.98006287e-01, -6.66415513e-01, -8.15649569e-01,
          -7.49571323e-01, 4.99168858e-02 ]
      - [ 1.51652694e+00, -1.70026124e+00, -4.99356389e-02,
          4.62994516e-01, 3.24832201e-01, -2.93013692e-01,
          1.58850700e-02, 1.47796899e-01, 7.01834857e-01,
          -9.71683383e-01, 1.93255275e-01, 4.50172275e-01,
          2.84882450e+00, -3.83598566e+00, -2.31291112e-02,
          9.88148868e-01, 4.01347637e+00, -1.47316539e+00,
          2.62678862e-02, 1.22288048e+00, 8.93618405e-01,
          -2.49974227e+00, -3.42702299e-01, 7.64395952e-01,
          5.77470437e-02, -1.82172522e-01, -3.25051658e-02,
          7.18716606e-02, 3.63568589e-02, -7.53364041e-02,
          -4.27867807e-02, 2.70438697e-02, 1.02362669e+00,
          -3.37587476e+00, -1.84502125e-01, 8.14514279e-01,
          2.70529699e+00, -9.54560041e-01, -1.85906112e-01,
          7.46015787e-01, 1.34929383e+00, -4.28823376e+00,
          2.16569260e-01, 1.23543751e+00, 1.10327137e+00,
          -5.19486570e+00, -1.37917683e-01, 1.19985247e+00,
          3.82450366e+00, -3.87595510e+00, -1.53246552e-01,
          1.75951350e+00, 1.91140044e+00, -3.84795403e+00,
          -2.38242030e-01, 1.42338347e+00, 4.95276242e-01,
          7.92357773e-02, 2.95922965e-01, 1.31116912e-01,
          -3.96656424e-01, -6.37574494e-01, -5.18326104e-01,
          8.43151063e-02 ]
      - [ 5.92410862e-01, -6.00557029e-01, -1.56550128e-02,
          2.98771501e-01, 7.80827165e-01, -4.27792758e-01,
          3.36145051e-02, 2.72707880e-01, 8.99652004e-01,
          -9.39518988e-01, 1.80716231e-01, 5.39673269e-01,
          2.77147770e+00, -4.37376070e+00, 4.81068864e-02,
          1.33435118e+00, 3.22747302e+00, -1.12525535e+00,
          -1.42389564e-02, 1.01454186e+00, 8.62262666e-01,
          -1.94941080e+00, -2.40874276e-01, 5.26694536e-01,
          -5.60528152e-02, -2.42780015e-01, -1.32436529e-01,
          5.47116883e-02, -3.47918347e-02, -1.90117955e-01,
          -1.05831668e-01, 3.44651230e-02, 6.37174845e-01,
          -3.24267960e+00, -2.10050523e-01, 7.06629395e-01,
          2.26477647e+00, -6.49190187e-01, -1.41122565e-01,
          6.56786323e-01, 1.10526776e+00, -4.95355988e+00,
          1.85240194e-01, 1.28504157e+00, 1.25174129e+00,
          -3.77562523e+00, 3.76711637e-02, 9.23159719e-01,
          3.43830919e+00, -4.47124290e+00, 3.74943390e-02,
          1.89436555e+00, 1.88714242e+00, -3.16009927e+00,
          -1.43358380e-01, 1.20488966e+00, 5.25453925e-01,
          1.32754415e-01, 3.67688596e-01, 1.16978236e-01,
          -4.45473373e-01, -5.93864679e-01, -5.37727475e-01,
          4.84243557e-02 ]
      - [ 1.34851801e+00, -6.85399175e-01, 8.15543085e-02,
          4.69441444e-01, 4.57519740e-01, -6.07064426e-01,
          -2.98677798e-04, 2.10252300e-01, 9.68541026e-01,
          -1.00353408e+00, 8.25833306e-02, 5.47425330e-01,
          4.77565336e+00, -3.53474784e+00, 7.12279007e-02,
          1.37219369e+00, 3.07845783e+00, -1.26887679e+00,
          3.74852791e-02, 9.34123456e-01, 2.40572619e+00,
          -1.16562510e+00, 2.23048255e-01, 1.00218809e+00,
          -3.97130586e-02, -1.92970455e-01, -1.03524983e-01,
          4.38450128e-02, 1.17831081e-02, -1.73112646e-01,
          -1.08625509e-01, 5.11251725e-02, 1.39471686e+00,
          -2.80748725e+00, -7.40701184e-02, 6.36747301e-01,
          2.62167668e+00, -7.83866823e-01, -6.39151037e-02,
          7.33555973e-01, 1.66800892e+00, -4.86694908e+00,
          2.20857412e-01, 1.39038277e+00, 2.75294995e+00,
          -3.27639532e+00, 1.32468015e-01, 1.50699770e+00,
          2.40752482e+00, -5.22923136e+00, -6.40006959e-01,
          1.99850452e+00, 1.72374308e+00, -1.73910701e+00,
          2.47065023e-01, 7.30813384e-01, 6.35613561e-01, 1.88507184e-01,
          4.10856962e-01, 1.46224335e-01, -3.64132941e-01,
          -6.73366487e-01, -5.01008749e-01, 9.48573276e-02 ]
      - [ 8.71821225e-01, -3.02386671e-01, 1.64229885e-01,
          2.49851435e-01, 8.45950484e-01, -4.64056373e-01,
          -6.97884290e-03, 3.13921392e-01, 1.65140080e+00,
          -8.08158815e-01, 8.95799845e-02, 4.92566556e-01,
          3.10137177e+00, -5.09320974e+00, -1.45497069e-01,
          1.29756320e+00, 2.73373294e+00, -1.57757258e+00,
          2.01897964e-01, 1.23435056e+00, 1.27989769e+00,
          -2.30524778e+00, -1.03946045e-01, 7.55632162e-01,
          -1.73414975e-01, -5.06987035e-01, -3.44221085e-01,
          1.00149989e-01, -2.86531031e-01, -4.25725430e-01,
          -3.83498609e-01, 3.85927558e-02, 7.34462440e-01,
          -2.99264121e+00, -2.19532803e-01, 6.93190873e-01,
          2.38539410e+00, -1.01561427e+00, -2.17601627e-01,
          7.64508426e-01, 1.31441152e+00, -5.48955250e+00,
          1.67485639e-01, 1.38338721e+00, 2.10622597e+00,
          -4.81282473e+00, -7.11100921e-03, 1.07159710e+00,
          3.19740582e+00, -5.24768305e+00, -8.87988135e-02,
          2.06111670e+00, 2.44348407e+00, -3.34591269e+00,
          -2.62578368e-01, 1.35460579e+00, 5.28917670e-01,
          4.22175750e-02, 3.00317556e-01, 1.54549450e-01,
          -5.44112802e-01, -6.68805838e-01, -6.04308844e-01,
          4.02232148e-02 ]
      - [ 1.72823703e+00, -4.14914787e-01, 4.27815884e-01,
          5.11925519e-01, 2.18190491e-01, -9.91773963e-01,
          -2.08558872e-01, 2.97012150e-01, 1.15048087e+00,
          -1.00118732e+00, -2.11259246e-01, 5.74038327e-01,
          3.30592299e+00, -3.67909312e+00, -1.65723599e-02,
          1.17877412e+00, 4.14645529e+00, -1.34959030e+00,
          -1.13260388e-01, 1.26961291e+00, 1.46363676e+00,
          -1.64631534e+00, -2.46178150e-01, 1.02191246e+00,
          -1.18000880e-02, -6.75542176e-01, -4.76677954e-01,
          1.73098639e-01, -3.31725180e-01, -6.50875628e-01,
          -4.84813362e-01, 8.75105187e-02, 1.34359932e+00,
          -2.54046679e+00, 3.23251784e-02, 7.76407063e-01,
          2.05980110e+00, -1.31802356e+00, -3.52196619e-02,
          7.23024011e-01, 9.97962952e-01, -2.86525440e+00,
          9.03876349e-02, 9.04725015e-01, 2.54471755e+00,
          -7.30183220e+00, -7.17513338e-02, 1.81431568e+00,
          3.23449326e+00, -5.08370876e+00, -2.02545181e-01,
          2.26877284e+00, 2.22257400e+00, -4.52344370e+00,
          -3.28438401e-01, 2.07396221e+00, 6.90304041e-01,
          2.25581005e-02, 3.85469735e-01, 2.11849049e-01,
          -3.96075964e-01, -7.70433009e-01, -5.94315946e-01,
          1.18272021e-01 ]
      - [ 2.32892299e+00, -5.34455478e-01, 5.70686698e-01,
          6.25125706e-01, 4.74123806e-01, -7.82667041e-01,
          -9.01530981e-02, 3.20878178e-01, 1.28840661e+00,
          -9.02389228e-01, -2.34188795e-01, 5.43905318e-01,
          3.91104960e+00, -2.83914781e+00, 9.99041926e-03,
          1.02203786e+00, 4.46226931e+00, -9.85936701e-01,
          5.99971935e-02, 1.17623222e+00, 1.47497129e+00,
          -1.51687264e+00, -2.49879315e-01, 9.35631096e-01,
          2.25445181e-01, -8.31797957e-01, -5.66738784e-01,
          3.21252614e-01, -3.22713926e-02, -8.61035883e-01,
          -3.26423943e-01, 2.76717961e-01, 1.20633578e+00,
          -2.64784622e+00, 4.39959671e-03, 6.48264527e-01,
          1.41152465e+00, -8.45009565e-01, -9.23608914e-02,
          5.25290847e-01, 8.69385898e-01, -3.44818425e+00,
          3.01598683e-02, 8.55723858e-01, 1.81787133e+00,
          -4.99959946e+00, 2.95166168e-02, 1.41051865e+00,
          3.14034486e+00, -3.92602873e+00, 6.82028085e-02,
          1.77490020e+00, 2.16570687e+00, -4.29148531e+00,
          -3.21070641e-01, 1.93597496e+00, 4.76819962e-01,
          -8.31567645e-02, 2.59955555e-01, 1.82962626e-01,
          -5.06567061e-01, -7.48678327e-01, -6.37215436e-01,
          7.54987374e-02 ]
      - [ 2.01192021e+00, 1.33286733e-02, 7.51019478e-01, 4.79940951e-01,
          7.68027961e-01, -1.32085133e+00, 1.02877133e-01,
          3.82583112e-01, 5.50422788e-01, -1.16030490e+00,
          -2.84046680e-01, 4.34555680e-01, 5.19953585e+00,
          -4.92481327e+00, 5.32886013e-02, 1.55519879e+00,
          3.79386568e+00, -1.35519385e+00, -1.33843690e-01,
          1.20030558e+00, 3.89649892e+00, -1.48612630e+00,
          1.79555938e-01, 1.13643193e+00, -8.58291209e-01,
          -1.05482161e+00, -9.41113412e-01, 5.70217669e-02,
          5.70839718e-02, -2.30522797e-01, -7.09630102e-02,
          1.02947988e-01, 1.38866889e+00, -3.43062139e+00,
          -1.62259996e-01, 7.39997089e-01, 3.03306293e+00,
          -7.23864138e-01, -1.71637088e-01, 8.17458808e-01,
          1.18163192e+00, -6.47610950e+00, 1.66204736e-01,
          1.43706834e+00, 1.74951768e+00, -6.84682941e+00,
          -1.86879374e-02, 1.56237674e+00, 1.87296152e+00,
          -7.09332848e+00, -3.16049218e-01, 2.53790665e+00,
          2.09074616e+00, -2.13063455e+00, 1.14377208e-01,
          8.54350388e-01, 6.20500624e-01, 3.80680747e-02, 3.45028192e-01,
          1.93356231e-01, -5.37469685e-01, -7.99230993e-01,
          -6.79344714e-01, 8.19763839e-02 ]
      - [ 1.98470378e+00, 3.16715956e-01, 7.76135206e-01, 4.09261733e-01,
          4.34506536e-01, -1.13592124e+00, -2.17660218e-02,
          3.30997020e-01, 1.22118723e+00, -1.17406964e+00,
          -3.16759706e-01, 5.29784322e-01, 3.54615879e+00,
          -3.38007641e+00, -1.54728413e-01, 1.07640445e+00,
          4.60747719e+00, -1.03482497e+00, 1.06989734e-01,
          1.37344384e+00, 1.86115873e+00, -2.16699219e+00,
          -2.74762541e-01, 1.18515182e+00, -6.87747777e-01,
          -1.00035465e+00, -8.41841102e-01, 1.20002963e-01,
          -1.74446464e-01, -3.73225898e-01, -2.60513335e-01,
          3.98095846e-02, 1.65331531e+00, -3.10053539e+00,
          -4.22540790e-04, 8.55855048e-01, 1.58970857e+00,
          -8.21011364e-01, -1.04181178e-01, 5.58496237e-01,
          7.76964426e-01, -4.40089703e+00, 9.41643864e-02,
          1.05420351e+00, 1.55054736e+00, -8.08950996e+00,
          -2.23562308e-02, 1.88834894e+00, 3.07189345e+00,
          -6.13815308e+00, -1.33536264e-01, 2.35977721e+00,
          2.33376431e+00, -4.37278223e+00, -1.06717870e-01,
          2.05873871e+00, 6.95305586e-01, -5.41228242e-03,
          3.85179758e-01, 2.26353779e-01, -4.73502040e-01,
          -8.74198318e-01, -6.61423922e-01, 1.22481078e-01 ]
      - [ 1.44535089e+00, -1.05133128e+00, 8.15424621e-02,
          5.50456047e-01, 9.39185143e-01, -6.92202151e-01,
          1.73345670e-01, 3.49643767e-01, 6.43574417e-01,
          -6.79705322e-01, 1.18268594e-01, 4.32375818e-01,
          5.74984789e+00, -4.10242128e+00, 3.36007327e-01,
          1.65834498e+00, 4.23950958e+00, -1.43369913e+00,
          -1.16547652e-01, 1.33590090e+00, 3.45111752e+00,
          -1.56604183e+00, 4.69600469e-01, 1.27259171e+00,
          -2.41638534e-02, -2.39745051e-01, -1.05872050e-01,
          5.94390817e-02, 1.79011792e-01, -1.21856621e-02,
          6.92363381e-02, 4.71905246e-02, 1.62006652e+00,
          -3.14949894e+00, -1.66226521e-01, 8.31942737e-01,
          2.76598406e+00, -7.68734515e-01, -2.00582072e-01,
          8.27687919e-01, 1.13785183e+00, -5.36292362e+00,
          1.84104532e-01, 1.40161943e+00, 1.06511354e+00,
          -6.88127518e+00, -1.10701717e-01, 1.40408027e+00,
          1.79329646e+00, -6.77761841e+00, -4.67686296e-01,
          2.05599713e+00, 2.52381349e+00, -2.03703737e+00,
          3.88127565e-01, 9.97103333e-01, 6.56200349e-01, 1.97003618e-01,
          4.64753151e-01, 1.38749525e-01, -5.54491162e-01,
          -7.57463694e-01, -6.44123495e-01, 6.33207932e-02 ]
      - [ 8.68744731e-01, -9.29742455e-01, -3.57790411e-01,
          3.31175923e-01, 6.65770173e-01, -7.80883312e-01,
          8.23604986e-02, 2.96206772e-01, 2.34436202e+00,
          -1.14718401e+00, 1.33762658e-01, 6.89148962e-01,
          3.14536905e+00, -4.70643330e+00, -1.32986262e-01,
          1.49785542e+00, 3.98597121e+00, -1.82760143e+00,
          1.00474274e-02, 1.17195261e+00, 7.97527194e-01,
          -1.81661797e+00, -4.67533946e-01, 5.66917300e-01,
          4.15670544e-01, 1.86506480e-01, 3.20870757e-01, 6.67869300e-02,
          3.22630674e-01, -2.52849003e-03, 1.45955145e-01,
          9.71731246e-02, 6.49191439e-01, -3.84910226e+00,
          -2.84806281e-01, 8.38897526e-01, 3.59383368e+00,
          -1.11691165e+00, -1.99689865e-01, 8.46740782e-01,
          1.05327141e+00, -5.75902700e+00, 1.11001983e-01,
          1.28563309e+00, 3.52390265e+00, -7.59213829e+00,
          -1.08096793e-01, 1.69560015e+00, 4.95568085e+00,
          -4.81732225e+00, -5.06412745e-01, 2.27817440e+00,
          2.55704975e+00, -2.99171400e+00, -7.08100736e-01,
          1.28834975e+00, 8.51811230e-01, 2.32039273e-01, 4.97062981e-01,
          2.13488132e-01, -4.57157224e-01, -7.46878743e-01,
          -6.03483021e-01, 9.68614817e-02 ]
      - [ 1.84082711e+00, -2.73681939e-01, 4.51731473e-01,
          5.00397563e-01, 3.10060084e-01, -1.37310588e+00,
          -3.35376173e-01, 2.89528072e-01, 8.26421797e-01,
          -1.00498736e+00, 1.59886584e-03, 4.15578961e-01,
          4.39893246e+00, -4.60370111e+00, -3.37074511e-02,
          1.58496273e+00, 3.92912769e+00, -1.36983097e+00,
          -1.80071861e-01, 1.19762588e+00, 2.19827867e+00,
          -1.35365427e+00, 2.68862844e-01, 1.06108975e+00,
          -4.18939888e-01, -6.19853258e-01, -4.99760687e-01,
          5.77591807e-02, -1.70815706e-01, -4.83194619e-01,
          -3.21999878e-01, 1.10201798e-01, 2.39627576e+00,
          -2.70661116e+00, -1.09970212e-01, 8.67212594e-01,
          3.08852434e+00, -1.18218470e+00, -2.14536607e-01,
          9.45714831e-01, 1.11903691e+00, -3.99477839e+00,
          1.49352148e-01, 1.12130237e+00, 3.41409206e+00,
          -8.61251640e+00, -1.83549032e-01, 1.74604392e+00,
          1.99218917e+00, -4.42618322e+00, -7.13450968e-01,
          1.39876842e+00, 1.47283959e+00, -3.09349680e+00,
          -1.13321394e-01, 9.37830389e-01, 7.78833628e-01,
          3.70450765e-01, 5.54116547e-01, 1.44793734e-01,
          -5.29013336e-01, -7.86052525e-01, -6.40971303e-01,
          8.05116445e-02 ]
      - [ 1.30376518e+00, -2.87711740e-01, 3.91476631e-01,
          3.80922109e-01, 6.42107308e-01, -1.07316768e+00,
          -1.40190274e-01, 3.11022639e-01, 1.20793033e+00,
          -7.48057604e-01, 1.12738577e-03, 4.38256830e-01,
          2.50847673e+00, -5.41410494e+00, -8.21553916e-02,
          1.28282988e+00, 4.52443695e+00, -1.24768603e+00,
          7.01711923e-02, 1.43473721e+00, 1.19989109e+00,
          -2.01931071e+00, -2.95024246e-01, 7.71516323e-01,
          -4.01193768e-01, -6.94769561e-01, -5.27165949e-01,
          9.21980813e-02, -1.80284455e-01, -3.48117322e-01,
          -2.44364992e-01, 4.36186232e-02, 1.70166934e+00,
          -3.27062869e+00, -2.07942814e-01, 8.57934713e-01,
          2.61577272e+00, -1.02983224e+00, -2.14484632e-01,
          7.34842777e-01, 1.10995054e+00, -4.73355532e+00,
          1.64078757e-01, 1.30710113e+00, 4.18934059e+00,
          -7.00057650e+00, -8.70802253e-02, 1.62108099e+00,
          4.05853176e+00, -4.64779520e+00, -2.02607810e-02,
          1.84169495e+00, 1.89828873e+00, -4.02346659e+00,
          -3.90974432e-01, 1.72754729e+00, 7.79336691e-01,
          3.37950259e-01, 5.77119291e-01, 1.45240828e-01,
          -4.33750033e-01, -7.60009766e-01, -6.05389476e-01,
          1.17460251e-01 ]
      - [ 2.62263441e+00, -7.11723328e-01, 5.10473430e-01,
          6.36026800e-01, 2.01142490e-01, -4.83359307e-01,
          -1.09720938e-01, 1.84926793e-01, 2.28299332e+00,
          -6.19391561e-01, -8.81914273e-02, 5.91004610e-01,
          3.67966223e+00, -2.48980570e+00, -8.66421536e-02,
          1.28764284e+00, 5.92603111e+00, -1.67314100e+00,
          1.35249898e-01, 1.27307761e+00, 1.94862401e+00,
          -1.60456765e+00, 9.82915889e-03, 1.34515142e+00,
          1.05155356e-01, -4.75933164e-01, -3.33082736e-01,
          1.38248220e-01, 1.50588900e-01, -1.43662751e-01,
          3.58870625e-02, 6.82332367e-02, 1.52131855e+00,
          -2.30035424e+00, -2.74694953e-02, 7.11245060e-01,
          1.74799836e+00, -1.28479278e+00, -8.01188946e-02,
          5.35714924e-01, 1.29808617e+00, -3.59769297e+00,
          9.04267356e-02, 8.98918271e-01, 4.13609648e+00,
          -7.69593477e+00, 2.49088202e-02, 2.14982009e+00,
          4.29681253e+00, -4.29852867e+00, -2.34951988e-01,
          2.16792607e+00, 3.11235023e+00, -3.42700315e+00,
          -1.54186845e-01, 1.80307531e+00, 6.40929520e-01,
          1.04042582e-01, 4.32544291e-01, 1.51503026e-01,
          -3.39453787e-01, -7.19590187e-01, -5.54867089e-01,
          1.21689685e-01 ]
      - [ 5.78416705e-01, -3.23001653e-01, 4.27117646e-02,
          1.77840397e-01, 1.17360868e-01, -9.41784441e-01,
          -3.14717144e-01, 2.92093277e-01, 1.13267767e+00,
          -1.24496496e+00, 8.87547096e-04, 5.19454360e-01,
          1.91786349e+00, -2.96759796e+00, -1.34393007e-01,
          9.01461899e-01, 2.74229193e+00, -1.84759450e+00,
          7.01756179e-02, 1.09220695e+00, 1.61638331e+00,
          -2.24720073e+00, -4.37511712e-01, 9.00556982e-01,
          4.74982172e-01, -5.63261092e-01, -1.28462702e-01,
          3.48159850e-01, -8.64362270e-02, -6.41815424e-01,
          -3.77580673e-01, 1.80656523e-01, 8.51177275e-01,
          -3.82419229e+00, -2.29417294e-01, 7.69888043e-01,
          2.22126651e+00, -8.13900769e-01, -2.11583406e-01,
          6.57657444e-01, 1.15084124e+00, -4.72879362e+00,
          1.88506126e-01, 1.15330124e+00, 2.74789262e+00,
          -7.10445499e+00, -1.44952506e-01, 1.64361322e+00,
          4.05144453e+00, -3.92900896e+00, -1.52135521e-01,
          1.83972299e+00, 2.08257222e+00, -2.66155815e+00,
          -5.71225286e-01, 1.11045456e+00, 6.79118156e-01,
          2.15653956e-01, 4.36256111e-01, 1.48065999e-01,
          -5.11421680e-01, -7.78391421e-01, -6.22724473e-01,
          8.96454751e-02 ]
      - [ 2.08913994e+00, -1.24496067e+00, -1.35985203e-02,
          6.45810425e-01, 1.34452045e+00, -2.45558381e+00,
          -3.98281552e-02, 5.85165381e-01, 2.41262078e+00,
          -6.20716667e+00, -3.81491296e-02, 1.18088400e+00,
          9.55523586e+00, -9.66442871e+00, -2.02186331e-01,
          2.51502132e+00, 2.47892666e+00, -3.90888023e+00,
          4.84816611e-01, 1.48701036e+00, 4.64999533e+00,
          -1.86087334e+00, 4.00835782e-01, 1.50820482e+00,
          3.12592626e+00, -3.12650752e+00, 7.35553682e-01,
          2.90541983e+00, -4.02884454e-01, -6.62456155e-01,
          -5.23400068e-01, 5.88648915e-02, 1.32535362e+00,
          -2.30276084e+00, -4.26724285e-01, 8.72586846e-01,
          9.57985497e+00, -1.51991236e+00, -9.55019817e-02,
          2.17775226e+00, 7.61239529e-01, -2.15451741e+00,
          7.51370043e-02, 5.06820023e-01, 3.46124196e+00,
          -5.66544008e+00, -1.81988671e-01, 1.67490065e+00,
          3.41180563e+00, -2.70246148e+00, 2.14750022e-01,
          1.60831273e+00, 3.36096811e+00, -1.05754642e+01,
          -4.15313989e-01, 4.03140926e+00, 2.55347705e+00,
          1.19091463e+00, 1.57228065e+00, 3.10073256e-01,
          -6.54936850e-01, -1.52451360e+00, -1.10120177e+00,
          3.07571709e-01 ]
      - [ 1.78954840e+00, -1.15296698e+00, -3.05025112e-02,
          5.23925364e-01, 1.35818422e+00, -5.82084084e+00,
          1.24131799e-01, 1.33233857e+00, 2.08998537e+00,
          -1.91073012e+00, 4.47498113e-02, 6.29718721e-01,
          1.00509481e+01, -9.60363007e+00, -1.21402256e-01,
          3.22022772e+00, 2.10236502e+00, -3.50258827e+00,
          -2.89690912e-01, 1.12803161e+00, 5.81496239e+00,
          -4.23791742e+00, -5.08875549e-02, 1.56614673e+00,
          2.60456442e-03, -7.82677710e-01, -5.19782841e-01,
          1.65041313e-01, -1.17387867e+00, -1.42737949e+00,
          -1.31502092e+00, 5.18301465e-02, 5.64121366e-01,
          -3.28511095e+00, -2.32669011e-01, 6.45657361e-01,
          2.09082055e+00, -1.03364348e+00, 5.70460372e-02,
          5.62773943e-01, 1.07553935e+00, -8.06673336e+00,
          4.65724804e-02, 1.44549084e+00, 1.84956777e+00,
          -5.21745491e+00, -3.29456300e-01, 1.71219432e+00,
          2.69677711e+00, -9.13510609e+00, -4.22956347e-01,
          3.27574348e+00, 2.53785992e+00, -4.19571924e+00,
          -1.80765465e-01, 1.53093743e+00, 7.55748272e-01,
          -1.05523027e-01, 3.46891940e-01, 2.98377156e-01,
          -3.93054187e-01, -8.32629740e-01, -6.44998133e-01,
          1.44078925e-01 ]
      - [ 2.34666657e+00, -9.44286466e-01, 1.22958913e-01,
          6.19864643e-01, 1.59734690e+00, -9.34026527e+00,
          1.50605589e-01, 1.64856029e+00, 2.17346501e+00,
          -1.27382934e+00, -1.32952556e-01, 5.59655368e-01,
          1.25840931e+01, -1.02866421e+01, 4.85851407e-01,
          3.55211329e+00, 3.92391109e+00, -5.64586353e+00,
          1.31795615e-01, 1.86424601e+00, 1.54111204e+01,
          -6.56392670e+00, 6.47842363e-02, 2.97603869e+00,
          -1.48523822e-01, -7.17615068e-01, -4.32437688e-01,
          1.21545836e-01, -9.34653938e-01, -1.19354475e+00,
          -1.10103691e+00, 7.15666413e-02, 1.07499063e+00,
          -2.02329087e+00, -6.48058299e-03, 4.88115519e-01,
          2.09726977e+00, -2.54376864e+00, 3.80691290e-02,
          7.30636835e-01, 1.72679305e+00, -5.94773531e+00,
          4.00697328e-02, 1.27852070e+00, 2.16645837e+00,
          -3.63698792e+00, -2.23948047e-01, 1.28804016e+00,
          2.45227122e+00, -6.46510887e+00, -2.39425898e-01,
          2.12261438e+00, 2.90590692e+00, -4.17851019e+00,
          -2.29421854e-02, 1.41745472e+00, 8.08525980e-01,
          3.08509082e-01, 5.73143184e-01, 1.64130017e-01,
          -3.75887603e-01, -6.96446836e-01, -5.41039050e-01,
          1.12011902e-01 ]
      - [ 1.78057933e+00, -6.74241066e-01, 1.42765537e-01,
          5.46907127e-01, 2.87955379e+00, -9.41516590e+00,
          2.15864882e-01, 1.94228756e+00, 2.66515040e+00,
          -1.17727685e+00, 2.35535074e-02, 5.90551198e-01,
          1.09036951e+01, -1.26762161e+01, -1.54389650e-01,
          3.66608119e+00, 6.99699831e+00, -5.92682314e+00,
          9.72090289e-02, 2.35690856e+00, 1.32396059e+01,
          -9.94131660e+00, 2.11358115e-01, 3.15185452e+00,
          2.57919133e-01, -4.81444091e-01, -1.86234325e-01,
          1.67804956e-01, -1.03828943e+00, -1.36615741e+00,
          -1.19858229e+00, 8.30937400e-02, 1.28255975e+00,
          -2.34658980e+00, -5.99757694e-02, 6.41518950e-01,
          2.08670712e+00, -1.84711266e+00, 4.43455204e-03,
          6.38713360e-01, 2.01663280e+00, -9.34371758e+00,
          5.49438223e-02, 1.67630315e+00, 2.00061369e+00,
          -3.91253877e+00, -5.20056307e-01, 1.35446465e+00,
          2.28457952e+00, -8.00670052e+00, -8.20394993e-01,
          2.62733531e+00, 2.75246501e+00, -5.11841393e+00,
          -3.77386034e-01, 1.82643795e+00, 8.46495748e-01,
          1.94604650e-01, 5.33091128e-01, 2.16381952e-01,
          -3.24581116e-01, -8.31882238e-01, -6.14975512e-01,
          1.97759330e-01 ]
      - [ 2.01758862e+00, -1.78052330e+00, -3.18627581e-02,
          6.97019398e-01, 3.82357121e+00, -6.41899824e+00,
          -9.08294991e-02, 1.53868604e+00, 2.57424569e+00,
          -1.45877516e+00, 3.01686171e-02, 5.34325182e-01,
          1.21101065e+01, -1.36738234e+01, -2.55744457e-01,
          3.36801314e+00, 5.11431074e+00, -3.67319441e+00,
          4.51961368e-01, 1.74413610e+00, 4.89587831e+00,
          -4.38417339e+00, -1.66470513e-01, 2.10894251e+00,
          8.65149200e-02, -1.16969776e+00, -5.42664945e-01,
          4.20647144e-01, -1.11296058e+00, -1.45565736e+00,
          -1.34056675e+00, 8.19536746e-02, 4.06359643e-01,
          -1.87145388e+00, -3.69114041e-01, 5.32207727e-01,
          7.85337496e+00, -1.79344738e+00, -1.48990229e-01,
          1.89196348e+00, 7.40946770e-01, -3.78769946e+00,
          3.77162844e-02, 7.41284609e-01, 3.61178589e+00,
          -4.42472076e+00, -7.08451867e-02, 1.41661680e+00,
          2.72707987e+00, -2.95384574e+00, 2.30594233e-01,
          1.71337438e+00, 2.94893241e+00, -7.14680195e+00,
          -3.09811413e-01, 2.54114795e+00, 1.27420616e+00,
          6.75336003e-01, 1.07084119e+00, 1.67736262e-01,
          -8.19504678e-01, -1.36945975e+00, -1.10555339e+00,
          1.84220761e-01 ]
      - [ 1.97909081e+00, -1.33620596e+00, 6.81728311e-03,
          6.23633802e-01, 4.41615248e+00, -6.71128273e+00,
          -1.70377836e-01, 1.43141103e+00, 1.52010429e+00,
          -1.01587152e+00, 6.35601953e-02, 4.15176183e-01,
          4.82668734e+00, -1.19231339e+01, -3.20974976e-01,
          2.56375742e+00, 7.40935469e+00, -2.50861931e+00,
          3.87241006e-01, 1.68775880e+00, 4.10352468e+00,
          -3.05439448e+00, -2.29645789e-01, 1.64659894e+00,
          -2.09586620e-01, -1.59658325e+00, -7.38779962e-01,
          3.72466922e-01, -1.16887009e+00, -1.42673564e+00,
          -1.33446932e+00, 7.57960752e-02, 5.43435514e-01,
          -1.14889562e+00, -3.19927752e-01, 5.66188931e-01,
          8.41201210e+00, -1.62669289e+00, -2.29794487e-01,
          1.90954387e+00, 4.99183625e-01, -2.93463874e+00,
          6.29798770e-02, 6.84963524e-01, 4.42596292e+00,
          -7.51229191e+00, -1.28033191e-01, 1.80026948e+00,
          3.69268513e+00, -3.48856282e+00, 5.90881333e-02,
          1.51278603e+00, 2.60615659e+00, -8.41662502e+00,
          -2.64077663e-01, 2.78812432e+00, 1.29600835e+00,
          7.71151900e-01, 1.13943398e+00, 1.31066099e-01,
          -8.08294713e-01, -1.34466624e+00, -1.08661008e+00,
          1.81252256e-01 ]
      - [ 1.66868258e+00, -9.55501139e-01, -1.08667901e-02,
          5.79965949e-01, 2.72422719e+00, -4.74207211e+00,
          -1.47345424e-01, 1.25251508e+00, 2.06137109e+00,
          -1.49837184e+00, 4.92604040e-02, 4.89085853e-01,
          7.56222486e+00, -1.03026772e+01, -1.34290785e-01,
          2.70658803e+00, 5.47528791e+00, -1.91093409e+00,
          4.92545813e-01, 1.55213928e+00, 5.10560322e+00,
          -2.06065059e+00, -1.86866611e-01, 1.53700447e+00,
          -4.13606733e-01, -3.03472042e+00, -1.01645112e+00,
          7.03704238e-01, -1.32475030e+00, -1.54358244e+00,
          -1.42723465e+00, 6.15349896e-02, 1.22096884e+00,
          -1.53533792e+00, -2.73766994e-01, 6.87143624e-01,
          9.34981251e+00, -1.98085141e+00, -1.61913782e-01,
          1.84382868e+00, 9.50886309e-01, -2.91596889e+00,
          4.32609990e-02, 6.50856495e-01, 4.85828829e+00,
          -5.51623058e+00, -8.10902417e-02, 1.85749018e+00,
          3.08529234e+00, -2.46905589e+00, 5.50944284e-02,
          1.29814661e+00, 2.96756554e+00, -8.79764271e+00,
          -1.98536575e-01, 3.09873843e+00, 2.63151503e+00,
          1.88512534e-01, 1.26759684e+00, 3.89202356e-01,
          -8.99723709e-01, -1.54550648e+00, -1.19900215e+00,
          2.20863491e-01 ]
      - [ 1.74852991e+00, -4.90756154e-01, 1.88703060e-01,
          5.26670277e-01, 2.56989574e+00, -8.60896397e+00,
          2.26136476e-01, 1.66424239e+00, 1.70119607e+00,
          -1.82917678e+00, -1.37233585e-02, 5.13404548e-01,
          1.08209219e+01, -1.02876425e+01, 4.84934039e-02,
          3.20399928e+00, 3.11250114e+00, -3.49435472e+00,
          1.11890629e-01, 1.70162165e+00, 5.44874334e+00,
          -3.85486031e+00, 2.15140525e-02, 1.69245124e+00,
          9.80344042e-02, -5.83132088e-01, -2.79160917e-01,
          1.54395416e-01, -1.16602254e+00, -1.44550955e+00,
          -1.34816277e+00, 5.27908243e-02, 9.81979728e-01,
          -9.13880467e-01, -7.48981955e-03, 4.05334204e-01,
          5.81593704e+00, -1.68886507e+00, -2.61286777e-02,
          1.39858198e+00, 5.66082358e-01, -3.00280142e+00,
          1.03394173e-01, 6.02325737e-01, 2.36167598e+00,
          -1.79377031e+00, -1.70713812e-01, 1.17909098e+00,
          2.41182828e+00, -2.19962931e+00, -2.44457111e-01,
          1.19961417e+00, 3.74469662e+00, -7.95864725e+00,
          -7.26933539e-01, 3.24033713e+00, 2.29783225e+00,
          1.47928381e+00, 1.72826540e+00, 2.26530626e-01,
          -7.54359782e-01, -1.47811925e+00, -1.12914658e+00,
          2.43332505e-01 ]
      - [ 1.63982046e+00, -1.96218431e+00, -8.78642425e-02,
          7.00124145e-01, 3.27275038e+00, -7.44765282e+00,
          -3.03681754e-02, 1.72179425e+00, 2.97282624e+00,
          -1.80270624e+00, 6.59099743e-02, 6.44842386e-01,
          1.41693649e+01, -1.57644110e+01, -5.21541983e-02,
          4.05897284e+00, 5.51708078e+00, -4.06948662e+00,
          4.61268425e-01, 1.73910987e+00, 6.48369455e+00,
          -5.65776730e+00, 1.71180032e-02, 2.44738173e+00,
          4.20869917e-01, -1.71668887e+00, -2.93976784e-01,
          5.60694814e-01, -1.13069332e+00, -1.50031793e+00,
          -1.37128532e+00, 8.92062709e-02, 5.05550861e-01,
          -1.61044431e+00, -4.58213061e-01, 5.71021378e-01,
          6.92635918e+00, -1.79379189e+00, -6.41650334e-03,
          1.81784463e+00, 4.75596428e-01, -2.77092266e+00,
          1.65603478e-02, 5.95477879e-01, 3.49176455e+00,
          -3.14738512e+00, -8.08153152e-02, 1.33168006e+00,
          2.43914104e+00, -2.32752180e+00, 2.19441697e-01,
          1.66769207e+00, 2.09451270e+00, -7.50420856e+00,
          -5.12125731e-01, 2.55130529e+00, 1.68399370e+00,
          1.25692463e+00, 1.48572779e+00, 9.31528658e-02,
          -6.74873531e-01, -1.30778468e+00, -9.94364202e-01,
          2.27932855e-01 ]
      - [ 2.36729383e+00, -9.81814682e-01, 5.18430889e-01,
          6.61500156e-01, 3.02052140e+00, -4.39522648e+00,
          -1.48521904e-02, 1.11087239e+00, 9.04518127e-01,
          -2.50605512e+00, -4.12215978e-01, 5.68743050e-01,
          8.14068699e+00, -8.87333107e+00, 3.22176516e-01,
          2.74636459e+00, 4.29225683e+00, -4.63821411e+00,
          -3.09966892e-01, 1.53421390e+00, 5.96345568e+00,
          -6.07608223e+00, -1.76446125e-01, 2.10113525e+00,
          -1.56583726e+00, -2.07753062e+00, -1.85276198e+00,
          1.40631348e-01, -8.16456914e-01, -1.07385397e+00,
          -9.78264928e-01, 7.48306736e-02, 1.46541560e+00,
          -1.12453842e+00, -3.49801421e-01, 5.67313671e-01,
          9.30382538e+00, -1.76790285e+00, -2.61621803e-01,
          2.13532901e+00, 8.28477025e-01, -1.52029335e+00,
          1.52513757e-01, 5.69472373e-01, 1.96980703e+00,
          -6.01465416e+00, -2.72094995e-01, 2.00422001e+00,
          2.19098258e+00, -3.71063447e+00, -3.63989443e-01,
          1.43943989e+00, 2.64443469e+00, -8.31542778e+00,
          -4.55768466e-01, 2.54209137e+00, 2.21546364e+00,
          1.37266517e+00, 1.58007145e+00, 2.39344656e-01,
          -8.27842593e-01, -1.32758927e+00, -1.07529998e+00,
          1.66809335e-01 ]
      - [ 9.59374905e-01, -8.53961527e-01, -2.20520254e-02,
          5.81656694e-01, 6.55483484e-01, -3.19854569e+00,
          -8.09314400e-02, 8.02441955e-01, 1.25125790e+00,
          -1.93268442e+00, 1.44806609e-01, 6.47605240e-01,
          8.60711479e+00, -7.04958153e+00, -9.67088863e-02,
          3.15180087e+00, 1.61381888e+00, -2.40613151e+00,
          -2.84205228e-01, 1.13567102e+00, 2.03661847e+00,
          -2.45146823e+00, -6.44533277e-01, 1.27308774e+00,
          3.13396358e+00, -3.13360000e+00, 8.07017758e-02,
          2.96805549e+00, -5.88509440e-01, -1.07180893e+00,
          -7.13434994e-01, 1.28934011e-01, 7.78640151e-01,
          -4.20307827e+00, -5.89784563e-01, 9.00952339e-01,
          1.38932896e+00, -1.28418243e+00, -8.06451142e-02,
          6.86567545e-01, 2.07907462e+00, -4.01495457e+00,
          3.32665443e-01, 1.07094908e+00, 3.46131134e+00,
          -3.34610629e+00, -4.00104523e-01, 1.95225680e+00,
          3.49245238e+00, -9.61969757e+00, -8.73823166e-01,
          3.46594048e+00, 6.60726929e+00, -5.57519150e+00,
          9.20774639e-01, 3.49091077e+00, 2.25643277e-01,
          -4.84682888e-01, -1.09222300e-01, 2.06523463e-01,
          -4.75018263e-01, -9.01715338e-01, -7.01190650e-01,
          1.36690915e-01 ]
      - [ 1.68298411e+00, -5.49808502e-01, 4.29052591e-01,
          4.59289014e-01, 1.21039927e+00, -1.39039505e+00,
          2.27527432e-02, 5.18155515e-01, 1.13809836e+00,
          -2.43510962e+00, 1.12364955e-01, 8.17171037e-01,
          4.01060486e+00, -6.31446695e+00, -6.04582727e-01,
          1.92703402e+00, 3.20533848e+00, -3.27593470e+00,
          4.08309281e-01, 2.12184930e+00, 3.97713709e+00,
          -2.03180242e+00, 6.44134104e-01, 1.70950627e+00,
          4.93096471e-01, -3.10852671e+00, -2.81644750e+00,
          4.90672559e-01, -4.35594499e-01, -6.95896685e-01,
          -5.36647081e-01, 6.29365072e-02, 1.71845388e+00,
          -2.75907063e+00, -5.15298396e-02, 8.18173349e-01,
          2.03806233e+00, -2.60928273e+00, -1.13704037e-02,
          6.61253333e-01, 1.74800885e+00, -3.61748838e+00,
          2.14078024e-01, 1.05573440e+00, 5.40483904e+00,
          -5.87587309e+00, -1.15752168e-01, 3.06545615e+00,
          4.67862749e+00, -9.18352318e+00, -9.93410528e-01,
          3.24883485e+00, 2.05044985e+00, -2.87591720e+00,
          -2.60580897e-01, 1.23502719e+00, 3.48668337e-01,
          -4.07605350e-01, -7.72927282e-03, 2.46202797e-01,
          -4.44046892e-02, -6.75361991e-01, -2.47664854e-01,
          1.72681436e-01 ]
      - [ 9.06406283e-01, -6.85001671e-01, -5.51825389e-02,
          4.44972724e-01, 8.48319650e-01, -1.09041405e+00,
          -7.12529868e-02, 4.72295642e-01, 1.39806855e+00,
          -1.84577072e+00, -8.62160102e-02, 6.11552596e-01,
          2.72616625e+00, -4.66394615e+00, -2.73012608e-01,
          1.55586839e+00, 4.04845428e+00, -1.08588040e+00,
          7.69281328e-01, 1.48142564e+00, 3.60417485e+00,
          -1.77532959e+00, 8.51215422e-01, 1.40956461e+00,
          3.13426161e+00, -3.12956071e+00, -2.07843113e+00,
          2.10423470e+00, -4.01284814e-01, -5.66951156e-01,
          -4.79923844e-01, 4.42295894e-02, 1.46448958e+00,
          -3.12713623e+00, -1.43076181e-01, 8.27558696e-01,
          1.23039651e+00, -2.17957735e+00, -3.95895660e-01,
          5.14548600e-01, 1.63307524e+00, -4.36041594e+00,
          1.63507894e-01, 1.09772491e+00, 6.04056787e+00,
          -5.17954683e+00, 7.00271904e-01, 3.54668427e+00,
          5.20945692e+00, -7.12970972e+00, -2.38276109e-01,
          2.30792975e+00, 2.92727089e+00, -3.85432506e+00,
          -6.08037531e-01, 1.91827130e+00, 1.22930005e-01,
          -4.75572109e-01, -2.06256360e-01, 1.73070461e-01,
          -3.39069784e-01, -1.28338718e+00, -6.73038423e-01,
          2.55154222e-01 ]
      - [ 6.67386711e-01, -1.89962745e+00, -1.08197367e+00,
          5.59354961e-01, 1.99580956e+00, -6.56670570e-01,
          1.05498576e+00, 5.63281178e-01, 1.47327292e+00,
          -2.56086421e+00, 8.58935475e-01, 7.97045350e-01,
          6.62515354e+00, -4.83374596e+00, -3.91215056e-01,
          2.07314610e+00, 1.86738408e+00, -2.74765992e+00,
          -6.06141210e-01, 1.40174222e+00, 2.71126294e+00,
          -1.54454887e+00, 3.96471173e-01, 1.24312758e+00,
          1.76857495e+00, 1.30747545e+00, 1.61206889e+00, 1.18175432e-01,
          5.40334582e-01, 1.38222516e-01, 3.78262848e-01, 1.17941961e-01,
          9.88175392e-01, -3.14186287e+00, 7.23380297e-02,
          7.03807235e-01, 1.65300667e+00, -1.71271729e+00,
          2.34977882e-02, 5.43042839e-01, 2.50497103e+00,
          -3.28694296e+00, 4.57882993e-02, 1.11943209e+00,
          1.77268493e+00, -5.68685865e+00, -7.86794901e-01,
          1.90368319e+00, 1.92598915e+00, -8.55707836e+00,
          -1.41563773e+00, 2.58972883e+00, 1.46582067e+00,
          -2.15643644e+00, -4.50486273e-01, 1.28045404e+00,
          7.57043898e-01, -1.15417764e-02, 2.94213563e-01,
          3.04375678e-01, -7.20342696e-02, -6.84347272e-01,
          -2.76359230e-01, 1.74803674e-01 ]
      - [ 1.08093095e+00, -1.07563639e+00, -5.42291760e-01,
          5.16110361e-01, 1.27975690e+00, -9.09624219e-01,
          2.25843620e-02, 4.98823345e-01, 1.13948476e+00,
          -1.86584210e+00, 1.10853009e-01, 6.28852725e-01,
          8.26922417e+00, -5.74174404e+00, 3.31757486e-01,
          2.32771277e+00, 1.87562203e+00, -3.63555813e+00,
          -4.34359193e-01, 1.79680324e+00, 1.91141164e+00,
          -1.64905465e+00, -4.20421600e-01, 1.11606336e+00,
          2.65981078e+00, 2.28088212e+00, 2.43259597e+00, 1.11988403e-01,
          -5.10248303e-01, -8.97495866e-01, -6.61690593e-01,
          1.29625142e-01, 6.37636304e-01, -2.64209676e+00,
          -1.40738934e-01, 6.07629836e-01, 2.80444622e+00,
          -2.02551794e+00, -1.03030592e-01, 7.34001398e-01,
          2.33460975e+00, -4.63341904e+00, 3.14705789e-01,
          1.56859362e+00, 3.99344420e+00, -5.76869774e+00,
          1.61951944e-01, 2.73153567e+00, 3.60476589e+00,
          -9.06785107e+00, -7.15370297e-01, 2.95267558e+00,
          3.80462241e+00, -6.58942521e-01, 1.29731524e+00,
          8.22823822e-01, 4.01289761e-01, -1.15330085e-01,
          9.59540382e-02, 1.85442895e-01, -2.65820324e-01,
          -8.74342442e-01, -5.13997376e-01, 1.68404594e-01 ]
      - [ 4.58064497e-01, -1.33620477e+00, -5.60099125e-01,
          4.75997239e-01, 5.85871935e-01, -7.43722320e-01,
          -1.61336929e-01, 3.82028997e-01, 9.42566693e-01,
          -2.00258350e+00, 9.81581360e-02, 5.33344507e-01,
          1.96459961e+00, -1.97838533e+00, 2.04625204e-01,
          7.25462377e-01, 1.09910858e+00, -4.18698215e+00,
          -3.45802933e-01, 1.43826091e+00, 1.83605647e+00,
          -1.57850766e+00, -5.75851321e-01, 8.28825831e-01,
          2.65595198e+00, 2.37064576e+00, 2.51241970e+00, 9.19407383e-02,
          -5.84504008e-01, -8.89517784e-01, -7.35473812e-01,
          1.01789594e-01, 6.06867492e-01, -3.27396131e+00,
          -2.66077310e-01, 7.22590268e-01, 1.31431866e+00,
          -1.12604189e+00, -1.49714708e-01, 5.63935995e-01,
          1.63489819e+00, -4.35967350e+00, 3.34498405e-01,
          1.27777684e+00, 3.06909657e+00, -5.12144518e+00,
          -2.59165674e-01, 1.89003384e+00, 2.33280802e+00,
          -8.68389797e+00, -8.78862679e-01, 3.00239921e+00,
          3.06112432e+00, -2.23544621e+00, 1.05441403e+00,
          1.31902659e+00, 4.02846128e-01, -2.09963217e-01,
          4.78839427e-02, 2.28447706e-01, -3.47765952e-01,
          -7.24185169e-01, -5.28176904e-01, 1.14241950e-01 ]
      - [ 1.48794520e+00, -2.89930135e-01, 2.81148851e-01,
          4.31507379e-01, 1.23356736e+00, -1.02044380e+00,
          8.21703523e-02, 4.77295309e-01, 8.69135439e-01,
          -2.36477375e+00, 2.09539514e-02, 5.89724779e-01,
          9.75108528e+00, -6.42356443e+00, 1.12493739e-01,
          3.36039495e+00, 3.20953202e+00, -3.29953313e+00,
          -2.24186704e-02, 2.24428678e+00, 2.04557776e+00,
          -1.53048158e+00, 1.65521994e-01, 1.34429514e+00,
          -2.44153762e+00, -3.01238203e+00, -2.83613634e+00,
          1.63671851e-01, -5.56037128e-01, -1.08222950e+00,
          -6.97848618e-01, 1.55399263e-01, 1.14111590e+00,
          -1.46871257e+00, 1.19541943e-01, 4.39031452e-01,
          6.26402676e-01, -8.91604781e-01, 5.15621994e-03,
          4.38500077e-01, 2.25556159e+00, -2.88405323e+00,
          -5.15465327e-02, 9.28071916e-01, 2.52530766e+00,
          -2.07140565e+00, 9.63789504e-03, 1.19890094e+00,
          2.63768268e+00, -5.23215771e+00, -1.25030839e+00,
          1.44793856e+00, 2.00150752e+00, -7.57266223e-01,
          7.19868004e-01, 7.23426163e-01, 1.53231755e-01,
          -2.95319259e-01, -1.14689149e-01, 1.56587481e-01,
          -4.20151830e-01, -6.47739589e-01, -5.29849589e-01,
          5.77919967e-02 ]
      - [ 1.90357137e+00, -5.46381235e-01, 3.27587396e-01,
          5.23645043e-01, 8.57963800e-01, -1.40073514e+00,
          -8.52967277e-02, 4.99503016e-01, 1.27836239e+00,
          -2.61769009e+00, 1.06595397e-01, 8.42879057e-01,
          5.79974174e+00, -6.28256750e+00, -8.07565033e-01,
          2.41250610e+00, 2.65496755e+00, -2.82625651e+00,
          1.50065720e-01, 1.58274019e+00, 4.16534519e+00,
          -2.25571775e+00, 3.93642187e-01, 1.69833207e+00,
          -2.66580677e+00, -2.98813200e+00, -2.84456944e+00,
          1.03570685e-01, -5.51208556e-01, -8.40490878e-01,
          -6.57918155e-01, 7.94347376e-02, 1.22304857e+00,
          -2.04398608e+00, -1.06663577e-01, 6.56380117e-01,
          2.39826655e+00, -3.39125419e+00, 6.66624308e-02,
          7.93600976e-01, 2.28747153e+00, -3.00134635e+00,
          1.62012830e-01, 9.10276949e-01, 3.25904775e+00,
          -8.63103199e+00, -3.06387126e-01, 2.74843526e+00,
          3.97507691e+00, -7.00307465e+00, -5.89065373e-01,
          2.55022645e+00, 1.90835178e+00, -3.16509509e+00,
          -6.08774185e-01, 1.63968956e+00, 4.96454358e-01,
          -2.06985965e-01, 8.81916061e-02, 2.71067291e-01,
          -2.52965450e-01, -6.72955453e-01, -3.87347192e-01,
          9.00794193e-02 ]
      - [ 1.25177157e+00, -6.93549395e-01, -6.86655864e-02,
          4.79884446e-01, 6.65115833e-01, -1.34231055e+00,
          -2.74027865e-02, 4.84736025e-01, 9.49161172e-01,
          -2.72752428e+00, 2.18164191e-01, 7.41580665e-01,
          6.60093975e+00, -3.61993313e+00, 1.21322572e-01,
          1.89169288e+00, 4.08244133e+00, -1.52256215e+00,
          6.82956636e-01, 1.43272066e+00, 2.43424201e+00,
          -2.26490903e+00, 2.04646453e-01, 1.18225563e+00,
          -2.76803303e+00, -3.01005650e+00, -2.89589524e+00,
          8.36486593e-02, -6.02673054e-01, -8.43055248e-01,
          -7.15591669e-01, 7.88734779e-02, 2.26463169e-01,
          -3.14832544e+00, -4.20567602e-01, 7.61392474e-01,
          3.00896835e+00, -5.19635916e+00, 1.31530657e-01,
          1.00640285e+00, 2.43352938e+00, -3.95815039e+00,
          1.10300668e-01, 1.13794518e+00, 5.44160986e+00,
          -8.42974663e+00, -6.69004321e-01, 2.22071028e+00,
          6.45292616e+00, -7.25981569e+00, -8.68798614e-01,
          3.31319308e+00, 3.80178189e+00, -4.70849895e+00,
          -4.86179292e-01, 1.91442752e+00, 4.84024137e-01,
          -3.25450361e-01, 4.04039510e-02, 2.72726506e-01,
          -3.57212573e-01, -5.82196295e-01, -4.44898129e-01,
          6.71189576e-02 ]
      - [ 1.18865097e+00, -5.33926547e-01, 3.50018978e-01,
          4.69070613e-01, 6.23468280e-01, -1.93122000e-01,
          1.72274753e-01, 1.92174226e-01, 1.72461259e+00,
          -1.04054999e+00, -3.69247166e-04, 6.72146261e-01,
          3.97829103e+00, -4.23015833e+00, -4.18552369e-01,
          2.06405854e+00, 3.22877240e+00, -2.51103067e+00,
          9.51586187e-01, 1.73507118e+00, 2.50378466e+00,
          -2.10739923e+00, 9.60281771e-03, 1.60683584e+00,
          4.45058316e-01, -1.19124003e-01, 8.63878727e-02,
          1.77180231e-01, 6.30378246e-01, 1.68389082e-01, 4.31624830e-01,
          1.40301123e-01, 4.68954623e-01, -1.30505574e+00,
          6.08623475e-02, 4.28578079e-01, 1.65850258e+00,
          -1.25228035e+00, -2.15098038e-02, 4.69256729e-01,
          1.73833239e+00, -2.10820627e+00, 5.15993219e-04,
          8.28715146e-01, 1.46259665e+00, -5.70732880e+00,
          -1.04975212e+00, 1.87191689e+00, 2.55967617e+00,
          -5.74662733e+00, -1.18470824e+00, 2.42788601e+00,
          2.07079506e+00, -1.32900941e+00, 2.07911730e-01,
          9.94305551e-01, 7.11782277e-01, -7.75176585e-02,
          2.79353172e-01, 2.44149521e-01, 2.55479161e-02,
          -5.92680693e-01, -2.33916849e-01, 2.41267622e-01 ]
      - [ 1.20694327e+00, -1.21953738e+00, -7.72598339e-03,
          7.11333930e-01, 5.94115257e-01, -8.20418298e-01,
          -1.97093431e-02, 2.91021168e-01, 9.63249326e-01,
          -8.49591851e-01, 1.55344322e-01, 5.14725268e-01,
          7.65474558e-01, -2.11199021e+00, -5.26899576e-01,
          8.51956904e-01, 2.82475376e+00, -1.35205281e+00,
          -4.52211797e-02, 1.03314519e+00, 3.62063932e+00,
          -1.35367644e+00, 1.08481300e+00, 1.29943144e+00,
          2.85808742e-01, 1.28130823e-01, 2.10652083e-01, 5.17531447e-02,
          -3.70748788e-02, -2.31345952e-01, -1.33929968e-01,
          6.74761236e-02, 5.10097802e-01, -2.47203851e+00,
          -2.24689811e-01, 5.81697822e-01, 1.83587658e+00,
          -2.30721712e+00, 1.30043924e-02, 6.56382263e-01,
          1.65147638e+00, -4.19544125e+00, 3.77266973e-01,
          1.32885921e+00, 3.03415418e+00, -7.13643074e+00,
          2.77096421e-01, 1.96785092e+00, 3.32572150e+00,
          -8.36426830e+00, -4.92180079e-01, 3.38830996e+00,
          4.04209757e+00, -1.90908480e+00, 1.26775956e+00,
          1.40979338e+00, 2.61729687e-01, -4.48844016e-01,
          -9.36249793e-02, 2.26169378e-01, -1.24886163e-01,
          -4.04538065e-01, -2.95005500e-01, 7.16838539e-02 ]
      - [ 1.05365729e+00, -9.42745030e-01, -4.77220193e-02,
          5.21263540e-01, 4.34995443e-01, -6.02054000e-01,
          1.48990497e-01, 2.26833776e-01, 2.39174080e+00,
          -9.45964515e-01, -1.68867871e-01, 6.68695211e-01,
          1.67357790e+00, -1.14637947e+00, -6.78677708e-02,
          4.80983913e-01, 1.47137368e+00, -2.73237014e+00,
          -2.53984749e-01, 1.06141603e+00, 2.39188623e+00,
          -1.97672117e+00, 1.79354966e-01, 1.59570158e+00,
          2.77538925e-01, 8.78538042e-02, 1.72964409e-01, 6.14868030e-02,
          -1.62222251e-01, -2.45896235e-01, -1.92754939e-01,
          2.36692019e-02, 3.37385476e-01, -2.55263186e+00,
          -3.38824093e-01, 6.84555769e-01, 6.90804899e-01,
          -2.90633798e+00, 6.04850501e-02, 5.81275344e-01,
          2.38088584e+00, -3.69639707e+00, 1.70371622e-01,
          1.02182937e+00, 2.81065226e+00, -4.28132772e+00,
          -9.89968956e-01, 1.68388176e+00, 4.79887390e+00,
          -8.23169994e+00, -9.69154954e-01, 3.82108045e+00,
          3.12602377e+00, -3.36869931e+00, -2.64516652e-01,
          2.12299275e+00, 4.69116509e-01, -4.71841246e-01,
          -2.90006343e-02, 3.16446811e-01, -1.27549812e-01,
          -5.21443963e-01, -2.81625301e-01, 1.31460100e-01 ]
      - [ 2.90299034e+00, -5.59619367e-01, 3.05009723e-01,
          5.42747378e-01, 3.25490952e-01, -1.52926672e+00,
          -1.39667928e-01, 4.21405315e-01, 5.31706810e+00,
          -8.85844946e-01, -7.75669590e-02, 1.01525271e+00,
          2.25091243e+00, -6.57013988e+00, -5.74150741e-01,
          1.62934625e+00, 5.84749460e+00, -5.31193447e+00,
          2.68225700e-01, 2.16957641e+00, 3.24818349e+00,
          -2.57720399e+00, 2.42991403e-01, 1.89184034e+00,
          5.11817992e-01, -1.04741238e-01, 1.17621370e-01,
          1.82110757e-01, 2.15195552e-01, -2.74018228e-01,
          -7.50666112e-02, 1.97131187e-01, 5.33990204e-01,
          -3.14448833e+00, -6.28980219e-01, 8.08185041e-01,
          3.02353716e+00, -2.18921757e+00, 3.59876573e-01,
          7.77738214e-01, 1.27407455e+00, -4.65132475e+00,
          -2.72345573e-01, 1.29637837e+00, 3.00406671e+00,
          -8.45339584e+00, -1.23498809e+00, 2.14588833e+00,
          3.55238295e+00, -8.19832706e+00, -2.02344894e+00,
          3.20878243e+00, 2.64106750e+00, -1.66284680e+00,
          2.40552813e-01, 1.32972789e+00, 1.58089447e+00, 4.71229076e-01,
          9.94088650e-01, 2.25009665e-01, 2.18093008e-01, 9.24747512e-02,
          1.61369905e-01, 3.17634381e-02 ]
      - [ 6.51276469e-01, -1.30284202e+00, -6.61709607e-02,
          6.11562014e-01, 6.37602389e-01, -6.69530034e-01,
          -1.98414862e-01, 2.90191948e-01, 1.48614049e+00,
          -1.10680532e+00, -4.98437658e-02, 6.97340310e-01,
          1.76302624e+00, -2.31031179e+00, -2.17148170e-01,
          8.27147901e-01, 3.47856355e+00, -1.97781360e+00,
          3.65181774e-01, 1.24811935e+00, 1.89363515e+00,
          -1.49847937e+00, 3.06016177e-01, 1.02291465e+00,
          3.79239976e-01, 4.82338928e-02, 2.27081925e-01, 1.16968334e-01,
          -6.41641840e-02, -1.83497012e-01, -1.35281011e-01,
          3.16089876e-02, 2.76911139e-01, -3.74249721e+00,
          -3.16771388e-01, 8.19336832e-01, 5.01883209e-01,
          -1.78054988e+00, -2.75325984e-01, 4.76169378e-01,
          1.97378516e+00, -3.89587355e+00, 1.66429326e-01,
          1.26659977e+00, 3.48819160e+00, -6.11930180e+00,
          -6.52877629e-01, 2.17961812e+00, 2.50711894e+00,
          -1.19935923e+01, -1.01458013e+00, 4.12210798e+00,
          3.91201544e+00, -3.86924624e+00, 8.02709103e-01,
          2.15465331e+00, 1.92536741e-01, -8.27791393e-01,
          -4.07157838e-01, 4.02131945e-01, -4.61885035e-01,
          -9.76014972e-01, -6.93496227e-01, 1.75915867e-01 ]
      - [ 7.17881501e-01, -5.76204181e-01, -1.10526644e-01,
          3.69482845e-01, 8.04176271e-01, -5.07374465e-01,
          6.26629218e-02, 3.04451346e-01, 9.76102352e-01,
          -6.10296309e-01, 8.62077996e-02, 4.55611408e-01,
          6.93723202e-01, -2.05713534e+00, -3.23510915e-01,
          8.31198573e-01, 2.33910918e+00, -1.72875535e+00,
          -2.04881713e-01, 1.34472835e+00, 9.78528380e-01,
          -2.83991027e+00, -9.38022316e-01, 1.21851265e+00,
          1.89172715e-01, -1.51858285e-01, -3.20228748e-02,
          9.39088762e-02, -6.94009215e-02, -2.76229173e-01,
          -1.66651323e-01, 6.97264522e-02, 2.94881612e-01,
          -2.31433129e+00, -7.53565192e-01, 6.44443989e-01,
          1.45161068e+00, -4.72294474e+00, -5.02827823e-01,
          9.21375334e-01, 2.60621333e+00, -4.56937504e+00,
          -3.74568254e-02, 1.22102976e+00, 3.78853035e+00,
          -7.92627239e+00, -2.18559042e-01, 2.57504272e+00,
          4.65474415e+00, -5.53069448e+00, 3.82341881e-04,
          2.19820952e+00, 3.69004607e+00, -3.97360516e+00,
          -2.58959889e-01, 2.53329325e+00, 8.03371191e-01,
          2.18801260e-01, 5.17956555e-01, 1.73272252e-01,
          -3.86143833e-01, -1.09076083e+00, -7.35624790e-01,
          1.96576297e-01 ]
      - [ 8.79781127e-01, -1.88006198e+00, -2.24496067e-01,
          9.39796507e-01, 6.28145039e-01, -1.05905163e+00,
          -2.40182459e-01, 3.32810342e-01, 1.81154907e+00,
          -1.23686695e+00, -3.78365442e-02, 6.96282387e-01,
          1.29170620e+00, -3.48958325e+00, -2.30176091e-01,
          1.27234948e+00, 4.25498438e+00, -1.56616282e+00,
          -9.44254082e-03, 1.45948756e+00, 4.63714790e+00,
          -2.03356123e+00, 9.30804670e-01, 1.78547883e+00,
          8.51787567e-01, -2.31413722e-01, 4.24163461e-01,
          3.95513564e-01, -2.79965550e-01, -4.34363276e-01,
          -3.39176267e-01, 3.56843360e-02, 9.00163293e-01,
          -3.35334396e+00, -4.44377333e-01, 8.68657708e-01,
          3.48177218e+00, -2.83617020e+00, -5.06326556e-01,
          9.45747077e-01, 1.93949652e+00, -4.89185905e+00,
          -1.93226021e-02, 1.36948562e+00, 4.03133965e+00,
          -1.01149025e+01, -4.79185194e-01, 3.15718055e+00,
          3.30050397e+00, -9.32849598e+00, -1.15838206e+00,
          3.10714006e+00, 4.72523022e+00, -1.07839596e+00,
          2.18584728e+00, 1.40370667e+00, 1.66087556e+00,
          -1.11277795e+00, 2.74784029e-01, 6.30429327e-01,
          -9.28734422e-01, -1.30612385e+00, -1.11307931e+00,
          1.00411266e-01 ]
      - [ 6.11481309e-01, -6.40851438e-01, -4.39387374e-02,
          3.04849356e-01, 8.12835038e-01, -4.37632412e-01,
          1.18818171e-01, 2.88403600e-01, 1.72755384e+00,
          -6.73063517e-01, 1.18505195e-01, 5.01518548e-01,
          1.56454182e+00, -3.69662714e+00, -4.48730946e-01,
          1.73195612e+00, 2.25009131e+00, -2.43876100e+00,
          -6.09466255e-01, 1.35446942e+00, 1.66627860e+00,
          -1.44343448e+00, -2.71804065e-01, 9.01035726e-01,
          1.08307108e-01, -3.41702580e-01, -1.73589751e-01,
          1.35894418e-01, 4.11838502e-01, 8.15470982e-03, 2.46120885e-01,
          1.16839528e-01, 6.68099523e-01, -2.51129580e+00,
          -4.55483675e-01, 6.46348000e-01, 8.71681809e-01,
          -1.54002166e+00, -1.82298973e-01, 4.80060995e-01,
          1.19867015e+00, -2.97620463e+00, 2.26763964e-01,
          8.99441898e-01, 4.89587212e+00, -6.46319437e+00,
          -9.67237577e-02, 2.34369874e+00, 5.60643291e+00,
          -4.85701799e+00, -1.06692111e+00, 2.50829458e+00,
          4.24966288e+00, -3.33415937e+00, -3.55643779e-01,
          2.59866214e+00, 4.69083041e-01, -3.20578545e-01,
          1.35549963e-01, 2.22056940e-01, 2.30719196e-03,
          -5.58223903e-01, -2.91356832e-01, 1.38912782e-01 ]
      - [ 1.64988279e+00, -8.04871619e-01, 6.71101511e-02,
          5.20318329e-01, 1.10440671e+00, -7.94328690e-01,
          2.22553257e-02, 3.25095683e-01, 4.29656553e+00,
          -1.43725812e+00, 1.23905711e-01, 8.18057835e-01,
          8.78482819e+00, -6.16191816e+00, 1.37444392e-01,
          1.77696979e+00, 1.59501448e+01, -9.90579224e+00,
          -2.51883138e-02, 2.95355511e+00, 4.58864546e+00,
          -1.54414558e+00, 6.69386983e-01, 1.65994251e+00,
          2.39850432e-01, -6.73972517e-02, 1.06926136e-01,
          9.93170664e-02, 1.90389872e-01, 2.96051912e-02, 6.68838620e-02,
          3.65528241e-02, 8.74819338e-01, -1.91732562e+00,
          -1.63838305e-02, 5.41587591e-01, 1.30865836e+00,
          -1.43866837e+00, -1.77307323e-01, 5.00773489e-01,
          1.96899927e+00, -3.34434223e+00, 2.14439258e-01,
          1.07617569e+00, 6.79441690e+00, -3.38212299e+00,
          7.07491279e-01, 2.08429050e+00, 3.27351904e+00,
          -5.64774036e+00, -9.14698482e-01, 2.00732422e+00,
          3.54833460e+00, -3.94068480e-01, 1.11997855e+00,
          8.51016045e-01, 1.60011411e-01, -2.62821734e-01,
          -7.23907351e-02, 1.58267811e-01, -1.55555651e-01,
          -6.29728615e-01, -4.01416063e-01, 1.42513320e-01 ]
      - [ 4.00200844e+00, -1.12979567e+00, -7.58075491e-02,
          9.23968732e-01, 7.97687352e-01, -2.73091435e+00,
          2.36761142e-02, 7.42309690e-01, 1.95315623e+00,
          -6.69615459e+00, 1.61873087e-01, 1.34580636e+00,
          6.52688360e+00, -4.68422747e+00, -2.78731138e-01,
          2.23602319e+00, 7.38158464e+00, -3.44971490e+00,
          1.19290733e+00, 2.35937977e+00, 9.12064266e+00,
          -2.40131712e+00, 7.90658176e-01, 1.80667722e+00,
          3.13835120e+00, -3.11379457e+00, -1.07279706e+00,
          2.68811321e+00, -5.54687738e-01, -8.84013355e-01,
          -6.71734095e-01, 9.21233073e-02, 4.49068606e-01,
          -3.33629179e+00, -6.20021999e-01, 7.72149622e-01,
          7.43354273e+00, -2.07843733e+00, 6.47978634e-02,
          1.82383168e+00, 1.29243743e+00, -4.53350925e+00,
          2.08410800e-01, 1.04271710e+00, 9.06174564e+00,
          -6.55740976e+00, -1.59176602e-03, 2.63045168e+00,
          4.91801786e+00, -3.95217729e+00, 5.26840627e-01,
          1.96968961e+00, 5.74432135e+00, -5.63965607e+00,
          1.74141694e-02, 2.90102172e+00, 9.15211976e-01, 4.26850528e-01,
          6.85849905e-01, 1.33710012e-01, -7.24682510e-01,
          -1.16329825e+00, -1.00472462e+00, 1.50680214e-01 ]
      - [ 2.17319131e+00, -1.23679161e+00, 5.26597816e-03,
          8.05366337e-01, 7.55280674e-01, -3.45281768e+00,
          -9.97995883e-02, 6.62277937e-01, 2.46920252e+00,
          -5.71341038e+00, 3.49316746e-02, 1.16217816e+00,
          1.01745377e+01, -4.87889767e+00, -2.18730539e-01,
          2.62039542e+00, 7.08486128e+00, -2.29469180e+00,
          9.46994603e-01, 2.24534893e+00, 8.11976242e+00,
          -3.93139052e+00, 6.56537473e-01, 1.90853477e+00,
          3.13435030e+00, -3.13376904e+00, -5.88626564e-01,
          2.86872244e+00, -5.58970094e-01, -8.62239897e-01,
          -6.38461828e-01, 7.45621845e-02, 7.35744953e-01,
          -1.70132518e+00, -4.83760476e-01, 7.59301543e-01,
          8.80085468e+00, -1.57514143e+00, -4.81934985e-03,
          2.04128003e+00, 1.62260115e+00, -3.81454611e+00,
          3.05901408e-01, 1.02965546e+00, 1.44140959e+01,
          -6.81995630e+00, -5.09871095e-02, 3.94194365e+00,
          3.68276572e+00, -2.98970819e+00, 6.67876780e-01,
          1.80410314e+00, 4.44184542e+00, -5.09463787e+00,
          -4.18405563e-01, 2.59333444e+00, 8.36511791e-01,
          3.41091394e-01, 5.75799763e-01, 1.56676948e-01,
          -7.12739706e-01, -1.18583453e+00, -9.62465465e-01,
          1.42515600e-01 ]
      - [ 2.01732516e+00, -8.52253675e-01, -7.73233967e-03,
          5.08586168e-01, 1.03345644e+00, -2.51948547e+00,
          1.38425790e-02, 7.10721612e-01, 2.33148909e+00,
          -6.37324619e+00, 3.12169995e-02, 1.41897607e+00,
          1.16874628e+01, -9.12813854e+00, -4.03379768e-01,
          3.16420937e+00, 4.94313288e+00, -1.21665454e+00,
          6.94545507e-01, 1.40768135e+00, 8.46807098e+00,
          -3.66779184e+00, 5.40306509e-01, 2.01964498e+00,
          -2.72989631e+00, -3.04736829e+00, -2.87778831e+00,
          1.15630925e-01, -4.78033245e-01, -7.92274177e-01,
          -5.49174130e-01, 7.12887421e-02, 5.33681750e-01,
          -1.97920048e+00, -7.42816687e-01, 7.19190598e-01,
          5.99147129e+00, -1.64676178e+00, 2.61396747e-02,
          1.61805427e+00, 1.56690955e+00, -2.57399106e+00,
          2.50493020e-01, 9.27571595e-01, 4.22084141e+00,
          -4.15911674e+00, -3.77121389e-01, 2.63455367e+00,
          3.57452202e+00, -3.50925684e+00, 5.56151390e-01,
          1.98204708e+00, 7.20205736e+00, -6.09326315e+00,
          1.30551130e-01, 3.44246531e+00, 9.65860009e-01, 2.81812072e-01,
          6.54406667e-01, 1.58333704e-01, -6.25588834e-01,
          -1.28922272e+00, -1.04214633e+00, 2.25940555e-01 ]
      - [ 2.13159037e+00, -9.21201885e-01, -8.37332010e-02,
          7.21357882e-01, 1.10204828e+00, -1.82532609e+00,
          -4.04858887e-02, 4.31005269e-01, 1.33075333e+00,
          -4.51074553e+00, -9.15155280e-03, 1.07466829e+00,
          9.43854523e+00, -2.40126014e+00, 1.06440969e-01,
          1.63712275e+00, 5.64493132e+00, -2.22844076e+00,
          7.76093185e-01, 2.06423163e+00, 6.81885195e+00,
          -1.61603773e+00, 6.22089148e-01, 1.53535509e+00,
          3.13846326e+00, -3.12225151e+00, -3.92262459e-01,
          2.91641140e+00, -4.16031539e-01, -6.00275636e-01,
          -5.03474534e-01, 6.91041797e-02, 5.77773511e-01,
          -1.67132425e+00, -3.79319727e-01, 6.28387094e-01,
          7.97059679e+00, -1.85530937e+00, -1.18313543e-01,
          1.73156941e+00, 1.39868820e+00, -4.74356508e+00,
          1.77818596e-01, 1.01821303e+00, 5.97347403e+00,
          -1.16880798e+01, 3.02450597e-01, 3.31745100e+00,
          5.30634737e+00, -3.28002429e+00, 6.32690310e-01,
          2.33317208e+00, 4.65072823e+00, -4.94873810e+00,
          -8.37561265e-02, 2.53378773e+00, 1.12924600e+00,
          -4.35037911e-02, 4.75128055e-01, 2.64793634e-01,
          -9.19890165e-01, -1.49519753e+00, -1.24136078e+00,
          1.67700171e-01 ]
      - [ 1.83581316e+00, -7.29101539e-01, -9.09016207e-02,
          6.10414445e-01, 1.14620364e+00, -2.01171279e+00,
          1.51331704e-02, 5.58484793e-01, 1.55503273e+00,
          -4.61156464e+00, 2.57205274e-02, 9.71296132e-01,
          1.02481298e+01, -4.84166765e+00, -1.47993490e-01,
          2.35600686e+00, 5.33363962e+00, -2.41532016e+00,
          5.51866591e-01, 2.12615180e+00, 5.73705673e+00,
          -1.79253757e+00, 5.97780824e-01, 1.53686190e+00,
          3.11640239e+00, -3.11361027e+00, 8.96934807e-01,
          2.76511216e+00, -4.00583178e-01, -6.91925168e-01,
          -4.67050701e-01, 6.76594451e-02, 1.11247885e+00,
          -2.00393343e+00, -4.58615899e-01, 7.82537580e-01,
          6.66050863e+00, -1.65312147e+00, -1.19792946e-01,
          1.60600638e+00, 1.10831022e+00, -2.99192739e+00,
          2.14567155e-01, 7.70113349e-01, 8.60147381e+00,
          -8.09612274e+00, -1.11786477e-01, 2.86821032e+00,
          4.84227467e+00, -2.98429465e+00, 4.65892285e-01,
          2.54219675e+00, 4.70127535e+00, -4.50746918e+00,
          -4.51826960e-01, 2.87152123e+00, 7.77843654e-01,
          -7.25133300e-01, 3.11001807e-01, 4.30962712e-01,
          -9.68710065e-01, -1.42772722e+00, -1.24051070e+00,
          1.40806377e-01 ]
      - [ 1.23934197e+00, -8.08895826e-01, -8.48296061e-02,
          4.32010263e-01, 1.37096977e+00, -1.05998063e+00,
          7.25558251e-02, 4.95609134e-01, 2.21448684e+00,
          -4.50490475e+00, 5.52197360e-02, 1.00720227e+00,
          1.06352110e+01, -6.15162373e+00, 1.70922756e+00,
          3.88755298e+00, 4.48176098e+00, -2.03485084e+00,
          9.73849297e-01, 1.33586597e+00, 5.69599104e+00,
          -2.64009953e+00, 5.35538554e-01, 1.59506166e+00,
          3.09150600e+00, -3.13384748e+00, -6.53817892e-01,
          2.88922477e+00, -4.46799010e-01, -1.30825233e+00,
          -5.87645948e-01, 1.98475510e-01, 8.69283020e-01,
          -2.56706309e+00, -6.12387300e-01, 7.39714682e-01,
          7.18609285e+00, -1.67540789e+00, -4.35087532e-02,
          1.71692812e+00, 1.14269054e+00, -2.38297462e+00,
          2.38926917e-01, 6.55217886e-01, 4.43652916e+00,
          -9.29190063e+00, -1.93355456e-02, 2.75933695e+00,
          4.10871315e+00, -2.35813522e+00, 2.83616781e-01,
          1.95483053e+00, 5.69276905e+00, -5.36578131e+00,
          -1.23826611e+00, 3.33925486e+00, 8.45117927e-01,
          -7.79018939e-01, 3.28195065e-01, 5.45543075e-01,
          -8.31455708e-01, -1.46165740e+00, -1.13774896e+00,
          2.08052233e-01 ]
      - [ 2.37236595e+00, -1.42610192e+00, 3.08565259e-01,
          6.52207792e-01, 9.37189341e-01, -1.20528018e+00,
          1.32806957e-01, 4.09278274e-01, 2.09560609e+00,
          -6.62788057e+00, 1.34577557e-01, 1.25405228e+00,
          3.65176439e+00, -2.54353952e+00, -1.21824436e-01,
          1.16444468e+00, 2.26224446e+00, -4.70079947e+00,
          5.11291288e-02, 1.54115820e+00, 5.25987196e+00,
          -1.99645805e+00, -7.49602355e-03, 1.10258317e+00,
          -2.65610576e+00, -2.93046618e+00, -2.78763008e+00,
          7.62526095e-02, -4.49569196e-01, -5.95085561e-01,
          -5.15067935e-01, 4.40791883e-02, 9.83776867e-01,
          -1.39105058e+00, -2.07301259e-01, 4.64929074e-01,
          6.02214050e+00, -2.00422120e+00, 3.28233987e-02,
          1.44763541e+00, 1.32561672e+00, -4.15960407e+00,
          2.92885929e-01, 7.33915687e-01, 7.03416681e+00,
          -1.60333576e+01, -1.18157268e+00, 3.34392834e+00,
          1.88272262e+00, -3.82642508e+00, -6.11575902e-01,
          1.42705905e+00, 2.12524366e+00, -6.12485123e+00,
          -1.43898213e+00, 2.45530176e+00, 1.35939276e+00,
          6.95205152e-01, 9.72864985e-01, 1.36923477e-01,
          -3.35895091e-01, -1.39115107e+00, -9.74813640e-01,
          4.16899621e-01 ]
      - [ 2.84202576e+00, -1.45379424e-01, 5.43155491e-01,
          6.59938514e-01, 1.58836710e+00, -2.17948437e+00,
          4.66348268e-02, 5.29369116e-01, 1.21140897e+00,
          -8.06677914e+00, 2.02280268e-01, 1.47500086e+00,
          1.12013855e+01, -6.67686796e+00, -4.28774923e-01,
          2.62289047e+00, 5.06376076e+00, -4.16088247e+00,
          8.50363225e-02, 2.84418893e+00, 4.40750313e+00,
          -1.67580771e+00, 3.33484501e-01, 1.58662355e+00,
          3.12850022e+00, -3.12812328e+00, -9.24168825e-01,
          2.81762195e+00, -4.50141668e-01, -7.58304119e-01,
          -5.82575679e-01, 6.93495125e-02, 6.44830227e-01,
          -1.16808295e+00, -1.84838176e-01, 4.39487308e-01,
          5.07134295e+00, -2.00772357e+00, 9.42232087e-03,
          1.24537611e+00, 1.63565361e+00, -3.98475766e+00,
          1.30341589e-01, 8.01355243e-01, 8.26382542e+00,
          -8.15426540e+00, -3.89735967e-01, 2.91799355e+00,
          2.47762918e+00, -1.96134686e+00, -1.80022016e-01,
          1.35842073e+00, 4.42446089e+00, -6.50691891e+00,
          -6.03185952e-01, 2.47567916e+00, 1.05914867e+00,
          2.18531311e-01, 7.70192802e-01, 2.03082144e-01,
          -8.09059918e-01, -1.47198856e+00, -1.14012694e+00,
          2.33306229e-01 ]
      - [ 2.23765898e+00, -8.39074135e-01, 2.64899313e-01,
          6.64202750e-01, 8.71224344e-01, -1.43460190e+00,
          1.21321315e-02, 4.33970869e-01, 2.58996677e+00,
          -7.37122202e+00, -3.60990018e-02, 1.53744972e+00,
          9.84398079e+00, -7.60264730e+00, -3.47988009e-01,
          2.64279628e+00, 3.71023917e+00, -4.98518372e+00,
          5.75440586e-01, 2.21549034e+00, 7.32744980e+00,
          -2.10948086e+00, -5.46323806e-02, 1.96539247e+00,
          3.13468957e+00, -3.10716248e+00, -2.11557174e+00,
          1.94202435e+00, -4.68324661e-01, -7.12945700e-01,
          -5.79426527e-01, 6.59248158e-02, 2.60230470e+00,
          -1.17328930e+00, 3.24787013e-02, 1.00959074e+00,
          7.43495286e-01, -1.56994927e+00, -5.06898940e-01,
          5.69834888e-01, 1.08785617e+00, -1.72361568e-01,
          4.48518306e-01, 3.22692305e-01, 2.75359058e+00,
          -1.32532187e+01, -1.34982228e+00, 4.00873756e+00,
          4.27835274e+00, -3.81974411e+00, -2.49619097e-01,
          1.84607410e+00, 5.12090969e+00, -8.35605240e+00,
          -3.43653053e-01, 3.32959914e+00, 9.82325196e-01,
          -1.18427432e+00, 6.10184856e-02, 9.31206584e-01,
          -3.65434200e-01, -1.12280345e+00, -7.96056867e-01,
          2.76315421e-01 ]
      - [ 2.37997293e+00, -9.12427306e-01, 3.52327943e-01,
          5.28759003e-01, 4.98699963e-01, -9.49149907e-01,
          1.42014071e-01, 2.92810380e-01, 2.14884925e+00,
          -8.98871136e+00, 4.65333983e-02, 1.56889486e+00,
          8.91388798e+00, -3.42600918e+00, -1.82194188e-02,
          1.90145922e+00, 5.49927330e+00, -5.43135977e+00,
          1.79949522e-01, 2.05628800e+00, 6.43084097e+00,
          -3.02692533e+00, -3.31900418e-02, 1.59105444e+00,
          -2.73220205e+00, -3.09806514e+00, -2.88085318e+00,
          8.19446519e-02, -4.26438004e-01, -6.13178730e-01,
          -5.33070028e-01, 5.01612425e-02, 1.89751971e+00,
          -1.09545898e+00, -1.23108283e-01, 6.03997469e-01,
          6.75876570e+00, -2.30000067e+00, -6.17222264e-02,
          1.62028992e+00, 1.25268757e+00, -3.00653672e+00,
          1.84467241e-01, 6.69588983e-01, 3.48359132e+00,
          -4.03009367e+00, -2.87083030e-01, 2.00650024e+00,
          3.06951380e+00, -2.96064615e+00, -3.57428700e-01,
          1.79061651e+00, 4.04988146e+00, -5.86057234e+00,
          -4.13583040e-01, 2.37007189e+00, 9.18363929e-01,
          2.94955701e-01, 6.23329103e-01, 1.93849877e-01,
          -7.55661309e-01, -1.32026720e+00, -1.05634058e+00,
          1.75369620e-01 ]
      - [ 1.39755702e+00, -1.48554540e+00, 1.04310131e-02,
          5.88426352e-01, 6.95026696e-01, -9.39124405e-01,
          -1.99558046e-02, 3.73392582e-01, 1.94106531e+00,
          -4.05013418e+00, -2.23012976e-02, 9.87300456e-01,
          2.80138206e+00, -2.04995918e+00, 3.10254931e-01,
          9.09461081e-01, 2.18825626e+00, -5.53099298e+00,
          1.54170126e-01, 1.67149305e+00, 1.55365109e+00,
          -3.21852994e+00, -7.54062057e-01, 9.62823451e-01,
          -2.71854353e+00, -3.03712893e+00, -2.88632178e+00,
          8.23195800e-02, -4.92007077e-01, -5.70194662e-01,
          -5.33568323e-01, 1.78822987e-02, 3.70652020e-01,
          -1.03762424e+00, -1.98234409e-01, 2.99931467e-01,
          6.34391642e+00, -9.30218220e-01, -7.23766834e-02,
          1.27476776e+00, 1.01810491e+00, -1.74830806e+00,
          3.42626005e-01, 5.33416986e-01, 5.22780466e+00,
          -1.89478207e+01, -3.40882987e-01, 4.19486761e+00,
          2.65569973e+00, -3.99231005e+00, -7.15577781e-01,
          1.77116907e+00, 2.77564073e+00, -5.15344572e+00,
          -1.38488233e-01, 2.16737962e+00, 2.17003560e+00,
          6.13030016e-01, 1.19803262e+00, 4.96613681e-01,
          -7.82756448e-01, -1.38767469e+00, -1.09970462e+00,
          2.12273002e-01 ]
      - [ 2.04571438e+00, -1.18007386e+00, -3.55843343e-02,
          5.82276762e-01, 1.23269832e+00, -1.07088828e+00,
          -3.85550261e-02, 5.72231829e-01, 3.22501898e+00,
          -4.28347731e+00, 5.93973650e-03, 1.13683605e+00,
          6.91218185e+00, -6.19545031e+00, 5.53191304e-01,
          2.40240526e+00, 2.57150126e+00, -3.83657265e+00,
          4.40066934e-01, 1.00870550e+00, 5.59704733e+00,
          -2.08201838e+00, 5.58471382e-01, 1.83438551e+00,
          -2.75913525e+00, -3.02598929e+00, -2.93209052e+00,
          8.19887817e-02, -4.03575450e-01, -7.42244899e-01,
          -5.34362137e-01, 9.71898735e-02, 9.33544815e-01,
          -1.39192057e+00, -2.39410102e-01, 6.29955590e-01,
          6.52311897e+00, -2.12040973e+00, -5.02414629e-03,
          1.75037920e+00, 1.07624555e+00, -2.32787514e+00,
          1.21154241e-01, 5.94405711e-01, 9.27725983e+00,
          -5.57349586e+00, 2.12856203e-01, 3.02747655e+00,
          3.04005122e+00, -2.47988439e+00, 2.16144640e-02,
          1.61071205e+00, 2.24517965e+00, -5.66861868e+00,
          -2.59378046e-01, 1.88305020e+00, 2.11604548e+00,
          7.27945387e-01, 1.33521390e+00, 3.08627009e-01,
          -1.03606963e+00, -1.51580215e+00, -1.31390703e+00,
          1.61876246e-01 ]
      - [ 2.56255841e+00, -8.53668571e-01, 2.56422400e-01,
          7.18854129e-01, 2.08020568e+00, -6.08911800e+00,
          8.49488080e-02, 1.37013173e+00, 5.59571266e-01,
          -5.03709555e-01, 4.08725850e-02, 2.21887797e-01,
          8.63923740e+00, -8.88809681e+00, 5.30096237e-03,
          2.92036271e+00, 1.98355579e+00, -3.43456626e+00,
          -5.09603739e-01, 1.85420573e+00, 1.00192194e+01,
          -5.70349264e+00, 2.55218983e-01, 2.88522530e+00,
          5.32825947e-01, -5.20405293e-01, 7.96161667e-02,
          3.40194374e-01, -1.09490705e+00, -1.38683629e+00,
          -1.25892007e+00, 6.47275671e-02, 1.45584261e+00,
          -1.24413741e+00, 1.64454922e-01, 5.65099180e-01,
          1.86669493e+00, -4.04401970e+00, 1.59880236e-01,
          7.71990001e-01, 1.90564346e+00, -4.65913057e+00,
          -8.05556178e-02, 1.40288842e+00, 2.75352049e+00,
          -3.96441698e+00, 4.99249361e-02, 1.39029849e+00,
          2.70638537e+00, -5.08904982e+00, -6.69073641e-01,
          1.75599086e+00, 3.24304533e+00, -3.89611053e+00,
          7.50455022e-01, 1.69147360e+00, 3.72286707e-01,
          -8.56740922e-02, 1.16388865e-01, 1.79878712e-01,
          1.46383876e-02, -2.36589760e-01, -9.22106579e-02,
          7.96658918e-02 ]
      - [ 3.47239661e+00, -4.48414952e-01, 3.59797418e-01,
          6.33787990e-01, 2.62866259e+00, -5.30770779e+00,
          -7.52825364e-02, 1.22602177e+00, 1.26575077e+00,
          -9.58846867e-01, -6.19675666e-02, 4.58539099e-01,
          1.34676571e+01, -9.02309608e+00, -1.05773583e-01,
          3.48235393e+00, 3.27660036e+00, -3.79253078e+00,
          -4.27804053e-01, 2.10600686e+00, 1.35526209e+01,
          -6.62274408e+00, 2.31298283e-01, 3.11690617e+00,
          3.10104907e-01, -5.79815388e-01, -7.97458440e-02,
          2.07638890e-01, -1.01538670e+00, -1.30845416e+00,
          -1.23222113e+00, 5.99907860e-02, 1.85030568e+00,
          -1.71002507e+00, -6.07000887e-02, 5.79156339e-01,
          2.45873141e+00, -2.35058618e+00, -1.02841660e-01,
          7.61635780e-01, 2.25243044e+00, -4.82360172e+00,
          1.97340950e-01, 1.49496710e+00, 2.07830501e+00,
          -3.82997990e+00, -2.46747106e-01, 1.41172969e+00,
          4.19590664e+00, -5.35597897e+00, -4.78543937e-01,
          2.24703693e+00, 2.12378979e+00, -1.50798702e+00,
          1.13511586e+00, 8.23040485e-01, 2.94515461e-01,
          -8.54846314e-02, 7.27020353e-02, 1.27599820e-01,
          -2.55016804e-01, -6.08340442e-01, -4.16728228e-01,
          1.08935334e-01 ]
      - [ 1.76587224e+00, -1.14440227e+00, 6.37711119e-03,
          7.01386452e-01, 3.33059025e+00, -4.68003321e+00,
          -1.41149964e-02, 1.26434553e+00, 1.24455631e+00,
          -4.37106937e-01, -6.90716580e-02, 3.19320917e-01,
          9.43682003e+00, -1.00951643e+01, 7.41058707e-01,
          3.09955764e+00, 1.71826684e+00, -2.75765467e+00,
          -7.25958645e-01, 1.34495127e+00, 1.03799648e+01,
          -1.87385523e+00, 5.20956695e-01, 2.35828686e+00,
          2.26132703e+00, -2.63980818e+00, -4.02238995e-01,
          1.63823915e+00, -1.28467917e+00, -1.52459049e+00,
          -1.37796557e+00, 4.74390350e-02, 2.03759655e-01,
          -1.92637253e+00, -2.46275440e-01, 4.97723579e-01,
          2.52187324e+00, -2.10331607e+00, -1.35689542e-01,
          7.20525086e-01, 1.58096969e+00, -5.02621603e+00,
          1.61103562e-01, 1.25798571e+00, 1.19134295e+00,
          -2.54170632e+00, -8.73001277e-01, 1.19638050e+00,
          2.58832526e+00, -8.11649323e+00, -1.43943965e+00,
          2.83772850e+00, 3.08551574e+00, -1.80004489e+00,
          8.42561901e-01, 1.15748858e+00, 5.39184093e-01,
          -3.14455658e-01, 5.97132519e-02, 3.47181559e-01,
          -9.41745788e-02, -6.38680339e-01, -2.88380742e-01,
          1.67409793e-01 ]
      - [ 1.18026578e+00, -9.17465627e-01, -3.07369810e-02,
          5.33720851e-01, 1.28778398e+00, -4.99284363e+00,
          -5.56360707e-02, 1.07171738e+00, 1.92667389e+00,
          -3.94099772e-01, 1.52398157e-03, 4.39172149e-01,
          1.62022839e+01, -7.63523293e+00, 4.16808397e-01,
          3.81311607e+00, 2.09954786e+00, -1.90300679e+00,
          -4.60117996e-01, 1.03020060e+00, 1.29787350e+01,
          -4.26408720e+00, -2.52258986e-01, 2.62979174e+00,
          6.24781668e-01, -4.30280596e-01, -7.67482668e-02,
          2.50203043e-01, -8.33884716e-01, -1.36639154e+00,
          -1.18439245e+00, 1.40659675e-01, 4.71074998e-01,
          -2.05990028e+00, -3.81192058e-01, 4.30141062e-01,
          2.20120764e+00, -3.53954911e+00, -8.19261372e-02,
          9.11387503e-01, 1.76339400e+00, -4.39154243e+00,
          2.16708958e-01, 9.90018785e-01, 3.63752055e+00,
          -1.09723101e+01, -4.56723511e-01, 3.08907437e+00,
          3.30671716e+00, -7.39845753e+00, -3.86408865e-01,
          3.02837181e+00, 5.29066610e+00, -2.33053637e+00,
          1.37009740e+00, 2.18545437e+00, 5.14175475e-01,
          -9.50213596e-02, 1.45340741e-01, 2.17463776e-01,
          -2.29901001e-01, -7.84492433e-01, -5.01845896e-01,
          1.75584942e-01 ]
      - [ 1.69026291e+00, -8.81737769e-01, 2.45299214e-03,
          5.98257363e-01, 2.91278362e+00, -5.77444839e+00,
          2.17305068e-02, 1.29408062e+00, 3.42229247e+00,
          -1.21223652e+00, 1.00670502e-01, 6.78451896e-01,
          2.10744972e+01, -1.23065901e+01, -1.99886635e-01,
          5.01904345e+00, 1.17985783e+01, -2.43456411e+00,
          6.33784950e-01, 2.25954199e+00, 1.12661867e+01,
          -1.17809162e+01, -4.10387099e-01, 3.42502570e+00,
          6.81784004e-02, -3.84553760e-01, -1.28889576e-01,
          6.98244199e-02, -6.29171371e-01, -1.16997945e+00,
          -1.04430485e+00, 1.23468436e-01, 4.30274755e-01,
          -2.11353540e+00, -4.08559382e-01, 5.39489865e-01,
          2.18107438e+00, -5.21765947e+00, -1.62568182e-01,
          9.82996464e-01, 1.72867823e+00, -5.06992435e+00,
          2.12250486e-01, 1.27585578e+00, 1.98489952e+00,
          -5.01321888e+00, -3.24770570e-01, 1.56220531e+00,
          2.19421196e+00, -4.97849941e+00, 1.59792900e-02,
          1.75718331e+00, 3.65789890e+00, -4.84918308e+00,
          -3.21489871e-01, 2.34273481e+00, 2.89912075e-01,
          -8.11815783e-02, 6.13242686e-02, 1.35925338e-01,
          -1.98967487e-01, -5.36539912e-01, -3.59144866e-01,
          8.47593024e-02 ]
      - [ 1.06346941e+00, -1.38738215e+00, -1.56124845e-01,
          5.29748678e-01, 4.43386507e+00, -6.13338804e+00,
          -2.82850023e-03, 1.53801847e+00, 1.56981885e+00,
          -1.14621973e+00, 4.09945799e-03, 4.28398639e-01,
          7.26978111e+00, -1.16256580e+01, -2.23526940e-01,
          3.22750068e+00, 5.94014502e+00, -2.27491641e+00,
          2.74422705e-01, 2.02403164e+00, 1.08064013e+01,
          -1.01828728e+01, -2.05277786e-01, 2.88189816e+00,
          8.70634243e-02, -6.58361554e-01, -3.62610251e-01,
          1.75834939e-01, -1.14496481e+00, -1.43710494e+00,
          -1.25138652e+00, 5.80821037e-02, 3.69941384e-01,
          -2.23946810e+00, -6.52663648e-01, 5.70464015e-01,
          4.77821445e+00, -1.69868922e+00, -2.68353615e-03,
          1.32343817e+00, 1.08625793e+00, -2.67301250e+00,
          1.50394529e-01, 8.07325721e-01, 3.94780755e+00,
          -4.39853048e+00, -5.04581273e-01, 2.16469717e+00,
          4.96288443e+00, -4.55344200e+00, 1.35606647e-01,
          2.57101011e+00, 6.51598454e+00, -5.47991514e+00,
          1.20249562e-01, 2.93899894e+00, 1.10102117e+00, 3.52137864e-01,
          8.48285675e-01, 2.21525297e-01, -6.84614599e-01,
          -1.28625453e+00, -1.05069828e+00, 2.08788589e-01 ]
      - [ 1.72607732e+00, -3.74136776e-01, 2.70591885e-01,
          4.13352221e-01, 3.85489368e+00, -6.13635349e+00,
          2.70759948e-02, 1.50846827e+00, 6.45841777e-01,
          -7.09141612e-01, -5.20242192e-02, 2.41540805e-01,
          7.10447598e+00, -7.05005121e+00, 1.08486220e-01,
          2.30692458e+00, 1.74469030e+00, -3.62802124e+00,
          -2.63352722e-01, 1.44552433e+00, 1.10955734e+01,
          -7.48856115e+00, 2.41623148e-01, 2.78463316e+00,
          -2.97841448e-02, -6.96862996e-01, -3.86515409e-01,
          1.39407486e-01, -1.10891807e+00, -1.29887092e+00,
          -1.21242583e+00, 4.15889248e-02, 5.85119367e-01,
          -9.09530461e-01, -1.20790578e-01, 3.35576504e-01,
          5.05073023e+00, -1.33020627e+00, -1.71443447e-02,
          1.25452077e+00, 9.80748296e-01, -3.54363346e+00,
          1.95187405e-01, 7.54815638e-01, 4.67621231e+00,
          -5.56985855e+00, -8.33722472e-01, 2.32493258e+00,
          1.75480306e+00, -2.18081665e+00, -7.95002818e-01,
          1.09656620e+00, 2.31327915e+00, -5.83800030e+00,
          -1.35487986e+00, 2.51867270e+00, 1.06170464e+00,
          4.07129496e-01, 7.77671516e-01, 1.88767254e-01,
          -3.44643772e-01, -1.20499098e+00, -8.47662389e-01,
          3.18756938e-01 ]
      - [ 2.69072741e-01, -7.29101896e-01, -1.42663658e-01,
          2.90625989e-01, 2.10291195e+00, -4.08538103e+00,
          1.83001474e-01, 1.06036520e+00, 1.03980887e+00,
          -3.70733976e-01, 5.26877157e-02, 3.11577320e-01,
          5.11166430e+00, -5.56034422e+00, 1.90615878e-01,
          1.78543174e+00, 2.61665177e+00, -1.98799562e+00,
          -2.05088779e-01, 1.55836713e+00, 6.66192102e+00,
          -5.07199287e+00, -1.19395100e-01, 1.73536396e+00,
          2.79249579e-01, -1.83712795e-01, -1.02019589e-02,
          1.09494254e-01, -1.14346015e+00, -1.30680323e+00,
          -1.23190510e+00, 5.17625622e-02, 5.22059500e-01,
          -1.19399059e+00, -2.25049496e-01, 4.40553457e-01,
          3.81642795e+00, -1.19991744e+00, 7.61061385e-02,
          9.78592515e-01, 6.57761753e-01, -1.81467652e+00,
          8.13530311e-02, 4.34838712e-01, 8.51830959e+00,
          -3.49187207e+00, -3.53506088e-01, 2.38666320e+00,
          2.99260068e+00, -4.50750685e+00, -8.13906267e-02,
          2.36905718e+00, 3.28610253e+00, -4.44364786e+00,
          -1.30624428e-01, 2.08685660e+00, 1.10509491e+00,
          1.52847216e-01, 7.98636377e-01, 2.93251842e-01,
          -9.51690435e-01, -1.42732537e+00, -1.19104481e+00,
          1.35054514e-01 ]
      - [ 7.40777373e-01, -1.50289285e+00, -5.28440885e-02,
          6.11692011e-01, 4.23586273e+00, -6.34675598e+00,
          1.03655621e-01, 1.59144914e+00, 1.58504093e+00,
          -1.03268242e+00, 3.70525084e-02, 4.58949655e-01,
          1.20971489e+01, -1.36214352e+01, 3.66245210e-01,
          3.92490363e+00, 3.30653596e+00, -2.62338853e+00,
          -4.42297220e-01, 1.69308293e+00, 1.37692490e+01,
          -3.80540824e+00, 1.63792461e-01, 2.67405796e+00,
          8.67041171e-01, -5.47360718e-01, -6.55757785e-02,
          4.12705421e-01, -1.06001091e+00, -1.36981201e+00,
          -1.26831961e+00, 5.63658513e-02, 1.37892187e-01,
          -1.81881046e+00, -4.08332139e-01, 3.70700181e-01,
          4.28033972e+00, -1.00524282e+00, -2.36473903e-02,
          1.13060760e+00, 8.63931179e-01, -2.74527836e+00,
          1.39853075e-01, 6.48811400e-01, 2.43483019e+00,
          -8.44834137e+00, -8.81863594e-01, 2.10859704e+00,
          2.42116094e+00, -4.25798321e+00, -5.09210765e-01,
          1.91217005e+00, 3.93081403e+00, -6.74778938e+00,
          -5.02238750e-01, 2.90648508e+00, 9.76626158e-01,
          -3.68331283e-01, 5.26411235e-01, 4.53828841e-01,
          -6.12939358e-01, -1.41145992e+00, -1.08056355e+00,
          2.99978048e-01 ]
      - [ 1.58269346e+00, -3.23740959e-01, 8.18791986e-02,
          3.80095482e-01, 3.59698176e+00, -2.02088976e+00,
          -5.97982779e-02, 8.07814956e-01, 1.51059175e+00,
          -2.87706590e+00, -8.24491009e-02, 7.24437594e-01,
          9.58814144e+00, -3.99137497e+00, 3.56663734e-01,
          2.56032300e+00, 1.23206794e+00, -2.88951778e+00,
          -4.96241778e-01, 1.45118570e+00, 7.17156827e-01,
          -2.81217909e+00, -5.61867297e-01, 7.78579772e-01,
          -2.53639841e+00, -2.98994350e+00, -2.83606458e+00,
          1.33136019e-01, -6.01906538e-01, -8.99368644e-01,
          -6.85167015e-01, 8.81089792e-02, 1.58537936e+00,
          -1.97119188e+00, -8.14499259e-02, 6.25194848e-01,
          2.19618964e+00, -9.59295392e-01, -7.85881430e-02,
          7.44144857e-01, 1.70340776e+00, -3.63210964e+00,
          2.11862803e-01, 1.01030612e+00, 2.28227592e+00,
          -3.67097020e+00, -2.35838786e-01, 1.27595866e+00,
          1.43443298e+00, -6.33498096e+00, -6.40456796e-01,
          1.57777154e+00, 2.25623465e+00, -1.42118275e+00,
          5.26069224e-01, 8.18099618e-01, 5.99944651e-01, 3.73671472e-01,
          4.74283218e-01, 9.00015235e-02, -5.51205456e-01,
          -7.04649985e-01, -6.38146281e-01, 4.95989248e-02 ]
      - [ 1.21658635e+00, -3.14208746e-01, 2.20378116e-01,
          3.12771320e-01, 1.37263751e+00, -1.41141438e+00,
          9.76110771e-02, 5.50502777e-01, 1.41981244e+00,
          -3.86928463e+00, 1.24586441e-01, 9.29718375e-01,
          7.91126347e+00, -4.01386452e+00, 3.05978376e-02,
          2.15024018e+00, 2.34309673e+00, -2.15571260e+00,
          -3.97664100e-01, 1.25035274e+00, 2.02210832e+00,
          -1.86212635e+00, 2.51693353e-02, 1.43054366e+00,
          -2.97547150e+00, -3.12378693e+00, -3.03202820e+00,
          4.12073135e-02, -4.84290421e-01, -7.51499534e-01,
          -5.55449724e-01, 7.29158670e-02, 1.71497619e+00,
          -1.83544302e+00, 1.67700693e-01, 5.53080440e-01,
          4.18713999e+00, -2.15924597e+00, 1.22909807e-02,
          1.17150426e+00, 2.05608201e+00, -3.39198065e+00,
          -1.37496255e-02, 8.16173315e-01, 5.53278828e+00,
          -9.11357975e+00, -2.68810511e-01, 2.35825396e+00,
          3.26471376e+00, -4.65331984e+00, -5.78687727e-01,
          1.47534561e+00, 4.39371681e+00, -2.95388961e+00,
          3.33286226e-02, 1.90823340e+00, 6.00556374e-01, 4.69774231e-02,
          4.12521452e-01, 1.59050465e-01, -8.13590825e-01,
          -1.08403146e+00, -9.08185363e-01, 7.66205415e-02 ]
      - [ 1.34439862e+00, -4.08228427e-01, 2.58759886e-01,
          3.40217024e-01, 1.42455244e+00, -2.17522550e+00,
          1.64021954e-01, 7.25260973e-01, 1.13571489e+00,
          -4.16212702e+00, 2.04226896e-01, 9.67583358e-01,
          1.24837475e+01, -8.29154015e+00, 1.14430198e-02,
          3.72574210e+00, 2.85221577e+00, -2.88973761e+00,
          -3.14173669e-01, 1.76742995e+00, 1.89351571e+00,
          -1.26893461e+00, 4.61007416e-01, 1.19046795e+00,
          3.12822342e+00, -3.11457777e+00, -1.78832006e+00,
          2.43259144e+00, -7.06147730e-01, -1.15233755e+00,
          -8.12788069e-01, 1.22242302e-01, 1.46858001e+00,
          -1.77271247e+00, 1.99074388e-01, 5.68617523e-01,
          2.34162927e+00, -1.78389311e+00, 1.55978262e-01,
          9.89451349e-01, 1.65567231e+00, -3.47192168e+00,
          -9.37326103e-02, 8.86476576e-01, 2.68025017e+00,
          -6.15315962e+00, -5.33359870e-03, 1.42696989e+00,
          1.95141923e+00, -5.41522598e+00, -3.85418385e-01,
          1.58079314e+00, 2.70687962e+00, -3.76879787e+00,
          -3.35121930e-01, 1.86274600e+00, 8.01917553e-01,
          -1.32895306e-01, 3.80965739e-01, 2.88667381e-01,
          -9.53394115e-01, -1.15840030e+00, -1.07291579e+00,
          5.61571456e-02 ]
      - [ 1.17326486e+00, -5.66614509e-01, 1.14825582e-02,
          4.42663401e-01, 1.82680118e+00, -7.51622140e-01,
          -3.57740000e-02, 6.39725089e-01, 9.87547398e-01,
          -1.55477715e+00, -1.04710147e-01, 5.53677797e-01,
          2.75374985e+00, -8.22654963e-01, 3.30843359e-01,
          7.64902115e-01, 2.16120839e+00, -2.94731641e+00,
          -5.38618088e-01, 1.47909391e+00, 2.19011998e+00,
          -2.11606503e+00, -3.27885836e-01, 1.24959552e+00,
          3.14027095e+00, -3.12539577e+00, 1.40604034e-01,
          3.07540417e+00, -6.48460150e-01, -8.02948058e-01,
          -7.22005069e-01, 5.35669588e-02, 6.31363511e-01,
          -5.62485993e-01, 1.27774589e-02, 3.30124766e-01,
          5.54882956e+00, -1.14766359e+00, -1.98985577e-01,
          1.34922934e+00, 1.01036239e+00, -3.40893769e+00,
          1.67923063e-01, 9.61461902e-01, 2.99117923e+00,
          -4.63167953e+00, 1.24246262e-01, 1.39312160e+00,
          1.47448730e+00, -3.81471395e+00, -1.07163084e+00,
          1.32724774e+00, 2.97963762e+00, -1.45929182e+00,
          2.48758063e-01, 1.24865937e+00, 5.85641682e-01, 1.04465917e-01,
          3.28413308e-01, 1.19726911e-01, -9.76836264e-01,
          -1.13925123e+00, -1.01632321e+00, 4.25146855e-02 ]
      - [ 5.92690766e-01, -4.72070158e-01, -6.62833229e-02,
          2.84341574e-01, 4.96472478e-01, -1.61157382e+00,
          7.83012360e-02, 3.86696070e-01, 2.16703606e+00,
          -9.30728495e-01, -1.07295230e-01, 6.97475374e-01,
          2.67248011e+00, -1.85134339e+00, -3.42983812e-01,
          7.80422747e-01, 1.50756609e+00, -2.08631992e+00,
          1.93363696e-01, 8.23513627e-01, 2.27013373e+00,
          -1.61156309e+00, -3.59990522e-02, 1.18433881e+00,
          -9.30613801e-02, -2.55962044e-01, -1.96215734e-01,
          4.42031473e-02, -8.13440606e-02, -2.30384499e-01,
          -1.54926151e-01, 3.59649621e-02, 1.06310487e+00,
          -1.78906012e+00, -1.46637484e-01, 5.33189535e-01,
          3.87864685e+00, -1.55443013e+00, 1.15697704e-01,
          1.04309022e+00, 1.40117490e+00, -3.11565709e+00,
          -6.72397763e-02, 9.25012231e-01, 7.73050356e+00,
          -7.42559624e+00, 6.47384897e-02, 2.33609676e+00,
          4.20279789e+00, -3.73304415e+00, 2.34819517e-01,
          2.03631353e+00, 2.34476638e+00, -2.57876158e+00,
          -4.65474188e-01, 1.50796461e+00, 7.04966724e-01,
          2.91808069e-01, 5.86915553e-01, 1.22532450e-01,
          -5.43989539e-01, -8.41810882e-01, -6.26378715e-01,
          6.88369200e-02 ]
      - [ 7.75073647e-01, -5.48067510e-01, 3.37463230e-01,
          4.01179880e-01, 7.52714634e-01, -2.35048866e+00,
          -3.16036344e-01, 5.85294425e-01, 7.69571662e-01,
          -1.42016363e+00, -3.30796570e-01, 6.59550607e-01,
          1.57060540e+00, -1.49084222e+00, 1.59187615e-01,
          5.93977094e-01, 1.70491469e+00, -8.33665133e-01,
          1.93957224e-01, 6.67773008e-01, 1.68997121e+00,
          -2.09527993e+00, -5.79618096e-01, 1.30564761e+00,
          7.52516910e-02, -5.97960114e-01, -3.57319087e-01,
          2.06886441e-01, -2.57838935e-01, -8.52902770e-01,
          -7.03831255e-01, 1.99322551e-01, 1.54165030e+00,
