%YAML:1.0
---
opencv_ml_svm:
   format: 3
   svmType: C_SVC
   kernel:
      type: RBF
      gamma: 2.2500000000000003e-03
   C: 1.2500000000000000e+01
   term_criteria: { epsilon:1.1920928955078125e-07, iterations:1000 }
   var_count: 48
   class_count: 8
   class_labels: !!opencv-matrix
      rows: 8
      cols: 1
      dt: i
      data: [ 0, 1, 2, 3, 4, 5, 6, 7 ]
   sv_total: 349
   support_vectors:
      - [ -6.71999991e-01, 1.20200002e+00, 4.10000011e-02,
          3.37000012e-01, -5.71600008e+00, 3.48600006e+00,
          1.60000008e-02, 9.90999997e-01, -8.90999973e-01,
          1.29200006e+00, 2.40000002e-02, 3.58999997e-01, 7.78999984e-01,
          8.93999994e-01, 8.14000010e-01, 2.30000000e-02, 2.89000005e-01,
          4.77999985e-01, 3.65000010e-01, 5.90000004e-02,
          -1.07700002e+00, -8.73000026e-01, -9.70000029e-01,
          6.70000017e-02, -2.29999995e+00, 8.29999983e-01,
          -5.49999997e-02, 4.37000006e-01, -6.00000024e-01,
          5.54000020e-01, 9.99999978e-03, 1.81999996e-01,
          -4.46000010e-01, 1.17499995e+00, 6.00000005e-03,
          2.79000014e-01, 7.77000010e-01, 8.47000003e-01, 7.96000004e-01,
          1.70000009e-02, -2.77999997e-01, -1.27000004e-01,
          -1.94999993e-01, 4.69999984e-02, 1.20000001e-02,
          1.95999995e-01, 1.11000001e-01, 5.49999997e-02 ]
      - [ -1.32599998e+00, 1.79100001e+00, 2.50000004e-02,
          5.37999988e-01, -1.11399996e+00, 2.45099998e+00,
          3.09999995e-02, 5.22000015e-01, -5.12400007e+00,
          6.11000001e-01, 9.79999974e-02, 9.19000030e-01,
          -1.30799997e+00, -1.05499995e+00, -1.20500004e+00,
          7.50000030e-02, -2.57800007e+00, -2.26799989e+00,
          -2.43700004e+00, 8.90000015e-02, -5.59000015e-01,
          -1.12000003e-01, -3.51000011e-01, 1.60999998e-01,
          -3.74000001e+00, 1.61099994e+00, -1.99999996e-02,
          7.26000011e-01, -3.98099995e+00, 2.09299994e+00,
          4.39999998e-02, 8.19999993e-01, -4.30499983e+00,
          1.33399999e+00, 6.40000030e-02, 8.76999974e-01,
          -4.72000003e-01, -4.00999993e-01, -4.37999994e-01,
          2.09999997e-02, 2.70000011e-01, 4.67000008e-01, 3.70000005e-01,
          6.89999983e-02, 7.13000000e-01, 1.02400005e+00, 8.87000024e-01,
          1.23000003e-01 ]
      - [ -3.00000012e-01, 9.53000009e-01, 3.90000008e-02,
          2.16999993e-01, -1.45599997e+00, 1.14600003e+00,
          2.50000004e-02, 3.79999995e-01, -2.59599996e+00,
          1.16799998e+00, -7.80000016e-02, 6.62999988e-01,
          -2.77000010e-01, -7.69999996e-02, -2.03999996e-01,
          5.79999983e-02, -6.95999980e-01, -1.74999997e-01,
          -3.63999993e-01, 1.63000003e-01, -6.47000015e-01,
          -5.86000025e-01, -6.15000010e-01, 2.09999997e-02,
          -1.21099997e+00, 9.44000006e-01, -1.60000008e-02,
          2.73999989e-01, -1.27600002e+00, 4.69000012e-01,
          -1.00000005e-03, 2.19999999e-01, -9.43000019e-01,
          4.38500023e+00, -1.70000009e-02, 7.40999997e-01,
          -7.50000030e-02, 6.00000005e-03, -3.20000015e-02,
          2.89999992e-02, -1.89999994e-02, 2.31999993e-01,
          1.08000003e-01, 9.39999968e-02, -8.51999998e-01,
          -8.10999990e-01, -8.29999983e-01, 1.40000004e-02 ]
      - [ -7.69999981e-01, 1.71399999e+00, 4.80000004e-02,
          3.82999986e-01, -2.83599997e+00, 9.59999979e-01,
          -4.50000018e-02, 6.25999987e-01, -5.45699978e+00,
          1.89199996e+00, 1.30000003e-02, 1.22099996e+00,
          -8.93000007e-01, -7.36000001e-01, -7.83999979e-01,
          3.90000008e-02, -2.94400001e+00, -2.57500005e+00,
          -2.71700001e+00, 1.19999997e-01, -1.84200001e+00,
          -1.67900002e+00, -1.78299999e+00, 4.50000018e-02,
          -6.48999989e-01, 6.30999982e-01, -7.40000010e-02,
          2.16000006e-01, -8.51999998e-01, 3.39000010e+00,
          -3.40000018e-02, 9.78999972e-01, -2.10899997e+00,
          1.00699997e+00, 3.70000005e-02, 5.08000016e-01,
          -9.02999997e-01, -4.67999995e-01, -7.12000012e-01,
          1.19999997e-01, 6.88000023e-01, 9.94000018e-01, 8.19000006e-01,
          9.49999988e-02, 5.55000007e-01, 8.28000009e-01, 6.74000025e-01,
          9.60000008e-02 ]
      - [ -2.90100002e+00, 1.34099996e+00, -8.99999961e-03,
          9.90999997e-01, -5.88999987e-01, 8.10000002e-01,
          7.50000030e-02, 3.42000008e-01, -1.52900004e+00,
          7.76000023e-01, -1.40000001e-01, 5.56999981e-01,
          -1.08000003e-01, 1.62000000e-01, 1.70000009e-02,
          8.79999995e-02, 1.22000003e+00, 1.73599994e+00, 1.57299995e+00,
          1.77000001e-01, 1.48899996e+00, 1.74100006e+00, 1.60599995e+00,
          9.39999968e-02, -1.58099997e+00, 8.39999974e-01,
          -4.19999994e-02, 6.29999995e-01, -9.16999996e-01,
          1.87600005e+00, -1.66999996e-01, 7.12000012e-01,
          -1.08899999e+00, 1.57000005e+00, 9.39999968e-02,
          6.34000003e-01, -3.33000004e-01, 3.59999985e-02,
          -1.65000007e-01, 1.12999998e-01, -1.86899996e+00,
          2.95099998e+00, 1.89800000e+00, 8.84999990e-01,
          -1.88000000e+00, -1.47000003e+00, -1.67999995e+00,
          1.51999995e-01 ]
      - [ -1.34399998e+00, 2.93199992e+00, -2.19999999e-02,
          6.71000004e-01, -1.05799997e+00, 2.65899992e+00,
          4.00000019e-03, 5.88000000e-01, -1.54400003e+00,
          4.77999985e-01, 1.15999997e-01, 4.12000000e-01,
          -8.06999981e-01, -6.16999984e-01, -7.21000016e-01,
          5.09999990e-02, 2.53699994e+00, 2.86299992e+00, 2.66499996e+00,
          1.01000004e-01, 2.81299996e+00, 2.97199988e+00, 2.92700005e+00,
          3.90000008e-02, -4.16599989e+00, 1.91799998e+00,
          4.60000001e-02, 8.41000021e-01, -1.31599998e+00,
          3.53099990e+00, 4.80000004e-02, 6.06999993e-01,
          -2.98499990e+00, 1.12399995e+00, 1.08999997e-01,
          5.97999990e-01, -8.08000028e-01, -6.44999981e-01,
          -7.51999974e-01, 3.29999998e-02, -2.96499991e+00,
          -2.51300001e+00, -2.70199990e+00, 1.44999996e-01,
          2.51699996e+00, 2.73799992e+00, 2.64599991e+00, 7.80000016e-02 ]
      - [ -2.32699990e+00, 5.62500000e+00, 1.52999997e-01,
          1.23599994e+00, -4.03100014e+00, 2.01900005e+00,
          1.00000005e-03, 8.52999985e-01, -4.44099998e+00,
          1.41299999e+00, 6.19999990e-02, 8.71999979e-01,
          -1.02199996e+00, -8.30999970e-01, -9.49000001e-01,
          4.60000001e-02, -5.92999995e-01, -2.22000003e-01,
          -4.18000013e-01, 7.80000016e-02, 8.90999973e-01,
          1.27499998e+00, 1.00699997e+00, 9.00000036e-02,
          -4.16300011e+00, 2.15799999e+00, -1.59999996e-01,
          1.08899999e+00, -1.44900000e+00, 1.50399995e+00,
          2.19999999e-02, 4.39999998e-01, -8.27799988e+00,
          1.26300001e+00, 2.40000002e-02, 1.48800004e+00,
          -1.28699994e+00, -1.17200005e+00, -1.24199998e+00,
          3.29999998e-02, 7.54999995e-01, 1.36199999e+00, 9.91999984e-01,
          1.28999993e-01, 2.82000005e-01, 1.05200005e+00, 7.08000004e-01,
          1.93000004e-01 ]
      - [ -1.23899996e+00, 2.77900004e+00, 7.50000030e-02,
          6.32000029e-01, -1.23000002e+00, 2.81500006e+00,
          2.70000007e-02, 6.46000028e-01, -5.77199984e+00,
          9.90999997e-01, -4.69999984e-02, 1.10300004e+00,
          -1.15900004e+00, -9.89000022e-01, -1.06700003e+00,
          4.30000015e-02, -2.14899993e+00, -1.94099998e+00,
          -2.04399991e+00, 6.19999990e-02, -1.71599996e+00,
          -1.31299996e+00, -1.51400006e+00, 1.36999995e-01,
          -3.90300012e+00, 8.24999988e-01, -9.39999968e-02,
          6.91999972e-01, -1.87300003e+00, 3.66400003e+00, 0.,
          6.89000010e-01, -5.39099979e+00, 9.16000009e-01,
          -2.99999993e-02, 1.07000005e+00, -1.19299996e+00,
          -1.09200001e+00, -1.14499998e+00, 3.29999998e-02,
          1.27199996e+00, 1.76499999e+00, 1.64800000e+00, 1.01000004e-01,
          7.51999974e-01, 1.19299996e+00, 9.64999974e-01, 1.04000002e-01 ]
      - [ -1.64800000e+00, 2.48300004e+00, 3.20000015e-02,
          5.95000029e-01, -2.35200000e+00, 1.81599998e+00,
          1.30000003e-02, 5.15999973e-01, -9.67000008e-01,
          1.78799999e+00, 3.50000001e-02, 3.63999993e-01, 6.63999975e-01,
          7.78999984e-01, 7.14999974e-01, 1.99999996e-02, 2.13000000e-01,
          3.38999987e-01, 2.68999994e-01, 3.70000005e-02,
          -9.85000014e-01, -8.09000015e-01, -9.06000018e-01,
          5.90000004e-02, -2.61999989e+00, 1.39400005e+00,
          -5.90000004e-02, 5.37000000e-01, -3.61899996e+00,
          4.58400011e+00, 1.89999994e-02, 9.67999995e-01,
          -7.72000015e-01, 1.56500006e+00, 3.59999985e-02,
          3.97000015e-01, 6.83000028e-01, 8.33999991e-01, 7.28999972e-01,
          2.50000004e-02, -3.05000007e-01, -1.29999995e-01,
          -2.01000005e-01, 5.79999983e-02, -1.89999994e-02,
          2.44000003e-01, 1.23000003e-01, 9.20000002e-02 ]
      - [ -7.57000029e-01, -1.16999999e-01, -3.86000007e-01,
          2.02999994e-01, 2.30000004e-01, 1.37800002e+00, 6.06000006e-01,
          2.46999994e-01, -1.57099998e+00, -9.91999984e-01,
          -1.34200001e+00, 1.65999994e-01, -5.90000004e-02,
          2.64999986e-01, 1.60000008e-02, 6.49999976e-02,
          -3.97000015e-01, 2.29399991e+00, -2.68999994e-01,
          3.68999988e-01, 1.83000004e+00, 2.40899992e+00, 2.27200007e+00,
          1.88999996e-01, -4.06799984e+00, 6.61000013e-01,
          -3.47000003e-01, 8.89999986e-01, -8.01099968e+00,
          3.24499989e+00, 1.73999995e-01, 1.95500004e+00,
          -2.07800007e+00, 4.40899992e+00, -5.82000017e-01,
          1.34300005e+00, -1.46800005e+00, 8.15999985e-01,
          -4.62000012e-01, 7.63999999e-01, -1.27100003e+00,
          3.00699997e+00, 4.12000000e-01, 6.21999979e-01, 9.20000017e-01,
          3.13899994e+00, 2.79099989e+00, 5.35000026e-01 ]
      - [ -1.17600000e+00, 2.80599999e+00, 7.50000030e-02,
          6.63999975e-01, -6.94000006e-01, 2.03600001e+00,
          8.99999961e-03, 4.58000004e-01, -7.05200005e+00,
          1.30700004e+00, -2.40000002e-02, 1.19700003e+00,
          -1.12199998e+00, -6.98000014e-01, -8.98000002e-01,
          1.63000003e-01, -1.89400005e+00, -1.21000004e+00,
          -1.47200000e+00, 1.67999998e-01, -1.51600003e+00,
          -6.76999986e-01, -9.53000009e-01, 2.70000011e-01,
          -3.61199999e+00, 8.73000026e-01, -8.20000023e-02,
          6.94999993e-01, -1.71099997e+00, 4.19500017e+00,
          -7.00000022e-03, 6.88000023e-01, -5.21000004e+00,
          8.02999973e-01, -3.99999991e-02, 9.91999984e-01,
          -1.10500002e+00, -6.49999976e-01, -8.53999972e-01,
          1.58000007e-01, 8.48999977e-01, 1.33099997e+00, 1.13100004e+00,
          1.04999997e-01, 2.02999994e-01, 7.26999998e-01, 4.25000012e-01,
          1.45999998e-01 ]
      - [ -4.39999998e-01, 9.07000005e-01, 2.30000000e-02,
          2.43000001e-01, -1.74600005e+00, 1.25999999e+00, 0.,
          4.18000013e-01, -4.78900003e+00, 9.66000021e-01,
          -4.99999989e-03, 9.84000027e-01, -5.47999978e-01,
          -4.58999991e-01, -4.95999992e-01, 1.89999994e-02,
          2.72799993e+00, 2.99499989e+00, 2.91700006e+00, 8.39999989e-02,
          -2.41000009e+00, -2.34200001e+00, -2.37599993e+00,
          1.49999997e-02, -1.34700000e+00, 1.16499996e+00,
          -3.40000018e-02, 3.54999989e-01, -1.80499995e+00,
          7.21899986e+00, 8.99999961e-03, 1.33099997e+00,
          -2.64700007e+00, 2.98000008e-01, 7.00000022e-03,
          4.69999999e-01, -1.34300005e+00, -1.04700005e+00,
          -1.24199998e+00, 7.99999982e-02, 5.99999987e-02,
          9.99000013e-01, 3.12999994e-01, 3.33000004e-01,
          -3.10500002e+00, 3.10400009e+00, 1.42200005e+00,
          2.30999994e+00 ]
      - [ -1.99500000e+00, 5.27500010e+00, 4.60000001e-02,
          8.90999973e-01, -1.25600004e+00, 2.79900002e+00,
          -1.30000003e-02, 5.07000029e-01, -1.15860004e+01,
          1.17700005e+00, 3.20000015e-02, 1.69900000e+00,
          -1.13699996e+00, -1.00999999e+00, -1.07799995e+00,
          4.89999987e-02, -1.62500000e+00, -1.09899998e+00,
          -1.37300003e+00, 1.99000001e-01, -9.59999979e-01,
          -7.26000011e-01, -8.64000022e-01, 6.70000017e-02,
          -4.88999987e+00, 2.60299993e+00, -6.19999990e-02,
          9.04999971e-01, -9.81999993e-01, 1.62199998e+00, 0.,
          3.54999989e-01, -8.48700047e+00, 1.79499996e+00,
          -7.00000022e-03, 1.51199996e+00, -1.15900004e+00,
          -1.01600003e+00, -1.09399998e+00, 5.49999997e-02,
          1.28699994e+00, 1.71899998e+00, 1.50999999e+00, 1.65999994e-01,
          8.14999998e-01, 9.63000000e-01, 8.85999978e-01, 3.09999995e-02 ]
      - [ -1.66100001e+00, 4.39799976e+00, -3.50000001e-02,
          8.57999980e-01, -1.50999999e+00, 5.46199989e+00,
          4.00000019e-03, 9.45999980e-01, -4.23699999e+00,
          5.97000003e-01, 6.89999983e-02, 6.48999989e-01,
          -1.09300005e+00, -8.59000027e-01, -1.00600004e+00,
          5.40000014e-02, -3.12599993e+00, 3.13800001e+00,
          -2.43000001e-01, 3.03399992e+00, 2.96499991e+00,
          3.10899997e+00, 3.03800011e+00, 3.90000008e-02,
          -8.34700012e+00, 3.07200003e+00, 2.09999997e-02,
          1.52900004e+00, -1.34200001e+00, 3.51200008e+00,
          2.40000002e-02, 6.98000014e-01, -1.86199999e+00,
          1.39999998e+00, 1.22000001e-01, 4.93999988e-01,
          -1.12899995e+00, -8.69000018e-01, -1.00999999e+00,
          8.69999975e-02, 2.66000009e+00, 3.14000010e+00, 2.97799993e+00,
          1.19999997e-01, 2.22099996e+00, 2.29900002e+00, 2.26500010e+00,
          1.70000009e-02 ]
      - [ -5.37000000e-01, 6.11000001e-01, 3.09999995e-02,
          1.67999998e-01, -1.58200002e+00, 1.00699997e+00,
          4.99999989e-03, 3.30000013e-01, -5.05999982e-01,
          2.76200008e+00, 2.09999997e-02, 6.38999999e-01,
          -1.00000001e-01, 4.80000004e-02, -5.09999990e-02,
          4.30000015e-02, 2.25999996e-01, 4.90000010e-01, 3.38999987e-01,
          5.99999987e-02, 2.00000009e-03, 5.49999997e-02, 4.19999994e-02,
          1.40000004e-02, -2.17300010e+00, 3.65999997e-01,
          -5.79999983e-02, 3.95999998e-01, -2.11299992e+00,
          8.05000007e-01, -2.80000009e-02, 4.14000005e-01,
          -3.10700011e+00, 7.09999979e-01, -4.89999987e-02,
          7.65999973e-01, -6.12999976e-01, -3.93000007e-01,
          -5.09999990e-01, 7.00000003e-02, -4.69999999e-01,
          8.79999995e-02, -2.98999995e-01, 2.02999994e-01,
          -4.05999988e-01, -2.91000009e-01, -3.49999994e-01,
          3.99999991e-02 ]
      - [ -2.57999986e-01, 1.15999997e-01, -1.79999992e-02,
          1.11000001e-01, -1.50999993e-01, 4.90999997e-01,
          7.50000030e-02, 1.87999994e-01, -4.93000001e-01,
          3.03999990e-01, -1.19000003e-01, 2.09999993e-01,
          -1.32299995e+00, -1.15999997e+00, -1.23399997e+00,
          5.00000007e-02, -2.73600006e+00, -1.20400000e+00,
          -2.23799992e+00, 5.61999977e-01, -2.10200000e+00,
          -7.40000010e-01, -1.59899998e+00, 5.00000000e-01,
          -4.37999994e-01, 2.50000000e-01, -1.00000001e-01,
          2.03999996e-01, -7.07000017e-01, 4.37000006e-01,
          7.00000003e-02, 3.31999987e-01, -4.46999997e-01,
          7.83999979e-01, 1.19000003e-01, 3.16000015e-01,
          -8.41000021e-01, -6.06999993e-01, -7.20000029e-01,
          5.79999983e-02, 2.45900011e+00, 2.96099997e+00, 2.80900002e+00,
          1.29999995e-01, -3.14100003e+00, 3.13700008e+00,
          9.57000017e-01, 2.78600001e+00 ]
      - [ -7.08000004e-01, 1.67999995e+00, 2.70000007e-02,
          3.51000011e-01, -6.83000028e-01, 1.63800001e+00,
          2.30000000e-02, 4.35000002e-01, -1.86300004e+00,
          7.68999994e-01, 4.00000019e-03, 3.40999991e-01,
          -8.80999982e-01, -7.32999980e-01, -8.24999988e-01,
          4.60000001e-02, -1.76199996e+00, -1.63800001e+00,
          -1.72200000e+00, 2.89999992e-02, -2.25999999e+00,
          -2.02999997e+00, -2.11299992e+00, 4.89999987e-02,
          -1.41499996e+00, 4.00000006e-01, -1.60000008e-02,
          2.93000013e-01, -6.07999980e-01, 1.89800000e+00,
          1.99999996e-02, 4.56999987e-01, -1.36300004e+00,
          2.46999994e-01, 0., 2.44000003e-01, -8.80999982e-01,
          -7.82000005e-01, -8.37000012e-01, 3.29999998e-02,
          1.79299998e+00, 1.91700006e+00, 1.83700001e+00, 2.30000000e-02,
          1.41199994e+00, 1.67799997e+00, 1.49899995e+00, 5.99999987e-02 ]
      - [ -7.34000027e-01, 1.64199996e+00, 2.70000007e-02,
          3.38999987e-01, -6.29999995e-01, 1.23199999e+00,
          1.89999994e-02, 3.23000014e-01, -1.48399997e+00,
          5.35000026e-01, -1.00000005e-03, 3.14000010e-01,
          -8.02999973e-01, -6.99999988e-01, -7.64999986e-01,
          2.89999992e-02, -1.74800003e+00, -1.63399994e+00,
          -1.69700003e+00, 2.99999993e-02, -2.19300008e+00,
          -2.05599999e+00, -2.09100008e+00, 2.60000005e-02,
          -1.18799996e+00, 3.35000008e-01, -1.99999996e-02,
          2.46000007e-01, -5.41999996e-01, 1.72800004e+00,
          1.09999999e-02, 4.12000000e-01, -9.01000023e-01,
          2.70999998e-01, -9.99999978e-03, 2.25999996e-01,
          -8.20999980e-01, -7.36999989e-01, -7.83999979e-01,
          2.19999999e-02, 1.68499994e+00, 1.76900005e+00, 1.73000002e+00,
          1.40000004e-02, 1.32799995e+00, 1.50399995e+00, 1.38399994e+00,
          3.70000005e-02 ]
      - [ -1.52999997e-01, 2.94999987e-01, 0., 1.43999994e-01,
          -6.89000010e-01, 4.00999993e-01, -1.00000005e-03,
          2.94999987e-01, -3.60000014e-01, 2.66000003e-01,
          -1.70000009e-02, 1.44999996e-01, -1.38199997e+00,
          -8.79000008e-01, -1.21000004e+00, 1.88999996e-01,
          -1.94799995e+00, -1.29100001e+00, -1.70000005e+00,
          2.11999997e-01, -2.07699990e+00, -1.69299996e+00,
          -1.90699995e+00, 1.48000002e-01, -2.79000014e-01,
          3.26000005e-01, -5.00000007e-02, 1.91000000e-01,
          -3.05000007e-01, 6.57999992e-01, 1.30999997e-01,
          3.12999994e-01, -1.00899994e+00, 4.65999991e-01,
          -1.89999994e-02, 3.31999987e-01, -1.21200001e+00,
          -7.54999995e-01, -1.04400003e+00, 1.70000002e-01,
          7.48000026e-01, 1.68499994e+00, 1.31900001e+00, 3.58000010e-01,
          3.86000007e-01, 1.69000006e+00, 1.15699995e+00, 5.17000020e-01 ]
      - [ -4.55000013e-01, 1.23300004e+00, 4.50000018e-02,
          3.14999998e-01, -1.65799999e+00, 6.56000018e-01,
          -1.79999992e-02, 4.26999986e-01, -3.50600004e+00,
          9.48000014e-01, 3.90000008e-02, 8.47999990e-01,
          -9.64999974e-01, -8.64000022e-01, -9.17999983e-01,
          3.20000015e-02, -2.45499992e+00, -1.85099995e+00,
          -2.18199992e+00, 1.96999997e-01, -1.65199995e+00,
          -1.33899999e+00, -1.56200004e+00, 8.20000023e-02,
          -3.68999988e-01, 5.27000010e-01, -2.99999993e-02,
          1.66999996e-01, -7.65999973e-01, 2.20900011e+00,
          -7.99999982e-02, 6.66000009e-01, -1.54400003e+00,
          7.86000013e-01, 3.59999985e-02, 3.82999986e-01,
          -3.95999998e-01, -1.40000001e-01, -2.68999994e-01,
          8.79999995e-02, 8.60000014e-01, 1.05999994e+00, 9.53000009e-01,
          7.00000003e-02, -3.13899994e+00, 3.13299990e+00,
          8.50000024e-01, 2.95000005e+00 ]
      - [ -1.13000000e+00, 1.21300006e+00, -2.89999992e-02,
          4.28000003e-01, -5.44600010e+00, 2.24799991e+00,
          5.49999997e-02, 1.23500001e+00, -2.60400009e+00,
          2.77500010e+00, 1.40000001e-01, 6.15000010e-01,
          -5.55999994e-01, -2.24000007e-01, -4.58000004e-01,
          1.03000000e-01, -8.08000028e-01, -4.67000008e-01,
          -6.01000011e-01, 1.08000003e-01, -1.16600001e+00,
          -8.34999979e-01, -1.00800002e+00, 7.69999996e-02,
          -1.00999999e+00, 6.38000011e-01, -7.50000030e-02,
          2.46999994e-01, -2.48600006e+00, 5.73600006e+00,
          -1.20000001e-02, 1.32000005e+00, -6.25699997e+00,
          1.99500000e+00, 3.50000001e-02, 9.62000012e-01,
          -4.11000013e-01, -1.81999996e-01, -2.61999995e-01,
          7.29999989e-02, 8.06999981e-01, 1.08099997e+00, 9.76000011e-01,
          8.29999968e-02, 2.15000004e-01, 4.60000008e-01, 3.51000011e-01,
          6.10000007e-02 ]
      - [ -1.78799999e+00, 4.28599977e+00, 7.10000023e-02,
          8.60000014e-01, -3.17400002e+00, 4.47700024e+00,
          2.09999997e-02, 8.73000026e-01, -7.73099995e+00,
          2.39400005e+00, -3.79999988e-02, 1.44099998e+00,
          -1.13600004e+00, -9.53000009e-01, -1.06299996e+00,
          5.79999983e-02, -1.60599995e+00, -1.11500001e+00,
          -1.31099999e+00, 1.48000002e-01, -8.70000005e-01,
          -6.83000028e-01, -7.96999991e-01, 4.69999984e-02,
          -5.21600008e+00, 2.57200003e+00, -9.39999968e-02,
          9.82999980e-01, -1.51300001e+00, 3.64400005e+00,
          8.00000038e-03, 6.47000015e-01, -8.07400036e+00,
          1.79999995e+00, -5.60000017e-02, 1.61399996e+00,
          -1.19200003e+00, -1.00100005e+00, -1.12500000e+00,
          6.49999976e-02, 1.12899995e+00, 1.68599999e+00, 1.30999994e+00,
          2.03999996e-01, 7.09999979e-01, 9.44999993e-01, 7.96999991e-01,
          7.80000016e-02 ]
      - [ -2.09999993e-01, 1.80999994e-01, 1.49999997e-02,
          7.80000016e-02, -2.59999990e-01, 4.26999986e-01,
          9.70000029e-02, 1.72999993e-01, -5.46999991e-01,
          3.14999998e-01, -8.39999989e-02, 2.63999999e-01,
          -1.42600000e+00, -1.20099998e+00, -1.29600000e+00,
          6.89999983e-02, -3.03999996e+00, -1.25300002e+00,
          -2.38599992e+00, 6.28000021e-01, -2.36100006e+00,
          -7.59999990e-01, -1.77600002e+00, 5.74000001e-01,
          -4.07000005e-01, 1.85000002e-01, -8.50000009e-02,
          1.96999997e-01, -6.30999982e-01, 2.52999991e-01,
          2.40000002e-02, 2.61000007e-01, -3.60000014e-01,
          4.63000000e-01, 6.19999990e-02, 1.79000005e-01,
          -9.72000003e-01, -6.77999973e-01, -7.58000016e-01,
          5.90000004e-02, 2.40700006e+00, 2.99300003e+00, 2.85800004e+00,
          1.69000000e-01, -3.12599993e+00, 3.13499999e+00,
          -8.19999993e-01, 2.85200000e+00 ]
      - [ -1.04999995e+00, -2.10999995e-01, -4.67999995e-01,
          1.33000001e-01, -1.45700002e+00, 5.19999981e-01,
          -4.79000002e-01, 3.03000003e-01, 1.60999998e-01,
          2.57599998e+00, 8.32000017e-01, 4.46999997e-01,
          -9.62000012e-01, -8.13000023e-01, -8.96000028e-01,
          4.39999998e-02, 1.55799997e+00, 2.15000010e+00, 1.76199996e+00,
          1.80999994e-01, 1.73099995e+00, 2.19000006e+00, 1.91700006e+00,
          1.38999999e-01, -1.45700002e+00, 2.29000002e-01,
          -6.30000010e-02, 2.91000009e-01, -5.36000013e-01,
          1.19000006e+00, 1.60000008e-02, 2.61999995e-01,
          -6.32000029e-01, 1.86699998e+00, 6.70000017e-02,
          3.75000000e-01, 2.19999999e-02, 2.38000005e-01, 1.64000005e-01,
          4.80000004e-02, -5.12000024e-01, -4.05000001e-01,
          -4.49000001e-01, 3.20000015e-02, -6.89999983e-02,
          1.43000007e-01, 5.90000004e-02, 5.00000007e-02 ]
      - [ -9.85000014e-01, 1.64100003e+00, 2.50000004e-02,
          4.12999988e-01, -6.87699986e+00, 3.93899989e+00,
          -2.50000004e-02, 1.38300002e+00, -8.46500015e+00,
          2.48699999e+00, 6.40000030e-02, 1.32700002e+00,
          -9.35000002e-01, -7.17999995e-01, -8.48999977e-01,
          3.79999988e-02, -2.91100001e+00, -2.52200007e+00,
          -2.70600009e+00, 1.28999993e-01, -1.90100002e+00,
          -1.66199994e+00, -1.78999996e+00, 7.10000023e-02,
          -7.99000025e-01, 6.67999983e-01, -8.69999975e-02,
          2.75000006e-01, -1.99100006e+00, 7.33699989e+00,
          -6.49999976e-02, 1.50199997e+00, -4.46299982e+00,
          5.82000017e-01, 1.70000009e-02, 6.98000014e-01,
          -8.28000009e-01, -4.42999989e-01, -6.66000009e-01,
          1.30999997e-01, 7.86000013e-01, 1.12600005e+00, 9.30000007e-01,
          1.25000000e-01, -2.96499991e+00, -2.76900005e+00,
          -2.87299991e+00, 6.89999983e-02 ]
      - [ -1.72399998e+00, 3.89499998e+00, 4.10000011e-02,
          7.44000018e-01, -1.21099997e+00, 3.52999997e+00,
          2.00000009e-03, 5.56999981e-01, -9.36200047e+00,
          2.05399990e+00, 1.20000001e-02, 1.43700004e+00,
          -1.02699995e+00, -9.43000019e-01, -9.92999971e-01,
          2.19999999e-02, -1.43499994e+00, -1.02199996e+00,
          -1.18099999e+00, 1.63000003e-01, -7.99000025e-01,
          -5.88999987e-01, -6.94000006e-01, 5.90000004e-02,
          -3.44899988e+00, 1.95000005e+00, -5.99999987e-02,
          7.53000021e-01, -6.47000015e-01, 1.64199996e+00,
          6.00000005e-03, 2.87000000e-01, -8.05599976e+00,
          1.47500002e+00, -2.30000000e-02, 1.42100000e+00,
          -1.04999995e+00, -9.90999997e-01, -1.01800001e+00,
          1.49999997e-02, 1.05700004e+00, 1.54299998e+00, 1.25899994e+00,
          1.95999995e-01, 5.78000009e-01, 7.95000017e-01, 6.66999996e-01,
          7.10000023e-02 ]
      - [ -3.74000013e-01, 1.05900002e+00, 6.10000007e-02,
          2.46000007e-01, -1.42400002e+00, 7.74800014e+00,
          3.29999998e-02, 1.36000001e+00, -2.13899994e+00,
          5.50000012e-01, -1.40000004e-02, 4.42999989e-01,
          -1.13900006e+00, -8.09000015e-01, -9.95999992e-01,
          1.25000000e-01, -7.82000005e-01, -3.99999991e-02,
          -4.85000014e-01, 2.61999995e-01, -1.31500006e+00,
          -6.46000028e-01, -1.03900003e+00, 2.40999997e-01,
          -1.36899996e+00, 4.74000007e-01, 2.00000009e-03,
          2.94000000e-01, -4.47200012e+00, 1.95700002e+00,
          2.09999997e-02, 9.19000030e-01, -2.22499990e+00,
          1.90900004e+00, -4.99999989e-03, 4.88000005e-01,
          -1.42499995e+00, -1.26600003e+00, -1.35000002e+00,
          4.30000015e-02, 1.12399995e+00, 1.89199996e+00, 1.60599995e+00,
          1.50000006e-01, 4.44999993e-01, 1.23000002e+00, 9.35999990e-01,
          1.55000001e-01 ]
      - [ -6.57999992e-01, 9.27999973e-01, -1.00000005e-03,
          2.77999997e-01, -3.88599992e+00, 1.27400005e+00,
          8.99999961e-03, 8.57999980e-01, -1.20599997e+00,
          1.13699996e+00, -1.79999992e-02, 3.24000001e-01,
          -1.33700001e+00, -1.21899998e+00, -1.28100002e+00,
          2.89999992e-02, -1.96800005e+00, -1.64900005e+00,
          -1.84599996e+00, 1.15999997e-01, -2.17400002e+00,
          -1.85399997e+00, -2.03900003e+00, 1.08999997e-01,
          -6.94000006e-01, 2.19999999e-01, -6.70000017e-02,
          1.87000006e-01, -1.19500005e+00, 5.55499983e+00,
          3.59999985e-02, 1.23099995e+00, -5.08000016e-01,
          5.35000026e-01, -8.00000038e-03, 1.99000001e-01,
          -1.36399996e+00, -9.27999973e-01, -1.15199995e+00,
          1.67999998e-01, 5.38999975e-01, 1.27300000e+00, 1.09099996e+00,
          2.08000004e-01, -2.89999992e-02, 6.43000007e-01,
          4.81999993e-01, 1.86000004e-01 ]
      - [ -3.67000014e-01, 7.07000017e-01, 9.99999978e-03,
          2.66999990e-01, -1.73999995e-01, 4.62000012e-01,
          1.30000003e-02, 1.28999993e-01, -9.17999983e-01,
          1.29999995e-01, -1.22000001e-01, 2.50000000e-01,
          -2.86000013e-01, -1.38999999e-01, -2.34999999e-01,
          4.19999994e-02, -6.10000007e-02, 1.07000001e-01,
          5.49999997e-02, 6.49999976e-02, -2.38999993e-01,
          -1.15000002e-01, -1.38999999e-01, 1.89999994e-02,
          -1.21300006e+00, 5.73000014e-01, -3.30000013e-01,
          4.04000014e-01, -9.89999995e-02, 5.17000020e-01,
          1.67999998e-01, 1.65999994e-01, -9.31999981e-01,
          5.99999987e-02, -2.61000007e-01, 2.93000013e-01,
          -3.45999986e-01, 8.10000002e-02, -1.07000001e-01,
          1.50999993e-01, -2.23000005e-01, -4.10000011e-02,
          -7.90000036e-02, 2.80000009e-02, -4.81000006e-01,
          8.57999980e-01, 4.85000014e-01, 4.05999988e-01 ]
      - [ -1.49500000e+00, 4.41099977e+00, 5.99999987e-02,
          8.19999993e-01, -1.36800003e+00, 3.27300000e+00,
          2.30000000e-02, 6.63999975e-01, -6.44199991e+00,
          2.07200003e+00, -1.79999992e-02, 1.33399999e+00,
          -1.24000001e+00, -1.03299999e+00, -1.16600001e+00,
          7.29999989e-02, -1.79700005e+00, -1.43099999e+00,
          -1.66600001e+00, 8.29999968e-02, -1.32900000e+00,
          -9.22999978e-01, -1.12899995e+00, 1.49000004e-01,
          -5.37500000e+00, 2.59699988e+00, -7.59999976e-02,
          9.57000017e-01, -1.36500001e+00, 3.04500008e+00,
          2.30000000e-02, 5.45000017e-01, -1.05749998e+01,
          1.60399997e+00, -2.09999997e-02, 1.58899999e+00,
          -1.28100002e+00, -1.07400000e+00, -1.21399999e+00,
          7.29999989e-02, 1.68700004e+00, 1.89699996e+00, 1.82099998e+00,
          3.79999988e-02, 9.91999984e-01, 1.49500000e+00, 1.27999997e+00,
          1.69000000e-01 ]
      - [ -5.28999984e-01, 1.41900003e+00, 2.89999992e-02,
          3.75000000e-01, -2.20199990e+00, 1.55299997e+00,
          -8.00000038e-03, 5.55000007e-01, -1.33099997e+00,
          7.16000021e-01, 3.00000003e-03, 3.75999987e-01,
          -1.28299999e+00, -1.08099997e+00, -1.21899998e+00,
          4.89999987e-02, -1.33200002e+00, -5.69999993e-01,
          -9.12000000e-01, 1.36000007e-01, -1.27199996e+00,
          -4.95000005e-01, -8.10000002e-01, 1.87999994e-01,
          -1.50699997e+00, 3.72000009e-01, -5.29999994e-02,
          3.19999993e-01, -2.13400006e+00, 7.14999974e-01,
          -2.80000009e-02, 5.13000011e-01, -1.88300002e+00,
          4.46000010e-01, 2.89999992e-02, 4.25999999e-01,
          -1.14999998e+00, -9.49999988e-01, -1.11099994e+00,
          5.20000011e-02, 4.69000012e-01, 1.12000000e+00, 7.49000013e-01,
          1.62000000e-01, -1.31299996e+00, -1.01699996e+00,
          -1.09099996e+00, 7.40000010e-02 ]
      - [ -6.93000019e-01, 8.46000016e-01, 1.08000003e-01,
          2.29000002e-01, -3.00999999e-01, 1.98000002e+00,
          -7.10000023e-02, 3.31999987e-01, -6.56000018e-01,
          2.55200005e+00, -3.99999991e-02, 6.15999997e-01,
          -4.26999986e-01, -2.56999999e-01, -3.88999999e-01,
          3.79999988e-02, -2.86899996e+00, -2.45300007e+00,
          -2.60599995e+00, 1.23999998e-01, -3.14000010e+00,
          3.13700008e+00, -9.87999976e-01, 2.93499994e+00,
          -1.58999994e-01, 6.07999980e-01, -8.00000038e-03,
          1.18000001e-01, -7.96000004e-01, 4.65000004e-01,
          3.00000003e-03, 1.56000003e-01, -4.26999986e-01,
          1.77999997e+00, 3.50000001e-02, 4.85000014e-01, 3.91999990e-01,
          4.37000006e-01, 4.07999992e-01, 8.00000038e-03,
          -2.38000005e-01, -2.19999999e-02, -1.81999996e-01,
          6.80000037e-02, -6.93000019e-01, -6.12999976e-01,
          -6.71000004e-01, 1.60000008e-02 ]
      - [ -2.11999989e+00, 3.27600002e+00, 3.20000015e-02,
          7.08999991e-01, -1.34599996e+00, 4.43100023e+00,
          1.70000009e-02, 7.14999974e-01, -3.70799994e+00,
          2.08500004e+00, 8.99999961e-03, 6.70000017e-01,
          -9.36999977e-01, -7.94000030e-01, -8.65000010e-01,
          5.29999994e-02, -1.29100001e+00, -1.20400000e+00,
          -1.25500000e+00, 2.80000009e-02, -1.90100002e+00,
          -1.65900004e+00, -1.73800004e+00, 4.89999987e-02,
          -3.33999991e+00, 2.96000004e+00, -3.90000008e-02,
          8.39999974e-01, -5.66999972e-01, 2.76900005e+00,
          1.79999992e-02, 5.04999995e-01, -5.98899984e+00,
          3.62800002e+00, -7.00000022e-03, 1.02100003e+00,
          -1.01600003e+00, -8.30999970e-01, -9.25000012e-01,
          7.19999969e-02, 1.34099996e+00, 1.45099998e+00, 1.40600002e+00,
          4.10000011e-02, 1.08200002e+00, 1.27699995e+00, 1.14499998e+00,
          4.69999984e-02 ]
      - [ -1.61399996e+00, 2.47700000e+00, 3.81999999e-01,
          8.09000015e-01, -4.32800007e+00, 6.01399994e+00,
          1.20000001e-02, 1.95200002e+00, -9.81000006e-01,
          2.56100011e+00, 2.37000003e-01, 5.70999980e-01,
          -1.36600006e+00, -4.72000003e-01, -8.61000001e-01,
          2.70999998e-01, -7.90000036e-02, 2.15700006e+00,
          1.14600003e+00, 7.32999980e-01, -1.30599999e+00,
          3.51999998e-01, -2.63000011e-01, 5.21000028e-01,
          -3.48799992e+00, 6.24000013e-01, -9.16999996e-01,
          7.63999999e-01, -1.45000005e+00, 4.75699997e+00,
          3.23000014e-01, 1.69799995e+00, -1.39800000e+00,
          6.69000030e-01, 1.15000002e-01, 5.36000013e-01,
          -1.17900002e+00, -7.39000022e-01, -1.02100003e+00,
          1.42000005e-01, -1.05400002e+00, 2.18700004e+00,
          1.41600001e+00, 6.15000010e-01, -1.07799995e+00,
          1.41000003e-01, -5.04999995e-01, 4.32999998e-01 ]
      - [ -2.26999998e+00, 2.65300012e+00, 5.49999997e-02,
          6.99000001e-01, -1.20400000e+00, 2.09699988e+00, 0.,
          5.00000000e-01, -2.68700004e+00, 8.59000027e-01,
          3.79999988e-02, 5.42999983e-01, -1.08099997e+00,
          -9.90999997e-01, -1.03699994e+00, 2.70000007e-02,
          -1.75300002e+00, -1.46300006e+00, -1.57299995e+00,
          1.04999997e-01, -1.64199996e+00, -1.45400000e+00,
          -1.54700005e+00, 3.59999985e-02, -3.60999990e+00,
          2.70400000e+00, -8.39999989e-02, 8.73000026e-01,
          -1.65900004e+00, 4.71600008e+00, 2.70000007e-02,
          8.27000022e-01, -3.15599990e+00, 1.07599998e+00,
          1.60000008e-02, 5.65999985e-01, -1.07200003e+00,
          -9.45999980e-01, -1., 4.69999984e-02, 1.27300000e+00,
          1.52900004e+00, 1.39300001e+00, 9.20000002e-02, 6.33000016e-01,
          1.00300002e+00, 7.14999974e-01, 8.69999975e-02 ]
      - [ -1.25300002e+00, 3.35299993e+00, -2.30000000e-02,
          7.78999984e-01, -1.59899998e+00, 4.86100006e+00,
          -1.60000008e-02, 8.62999976e-01, -2.65700006e+00,
          4.88999993e-01, 9.49999988e-02, 4.51999992e-01,
          -1.02900004e+00, -8.69000018e-01, -9.84000027e-01,
          3.20000015e-02, -3.13700008e+00, 3.12700009e+00,
          7.35000014e-01, 2.86800003e+00, 2.91899991e+00, 3.07900000e+00,
          2.98000002e+00, 3.90000008e-02, -6.77899981e+00,
          2.01099992e+00, 1.60000008e-02, 1.44400001e+00,
          -4.72000003e-01, 2.21199989e+00, 2.09999997e-02,
          4.25999999e-01, -8.42000008e-01, 1.05400002e+00,
          1.30999997e-01, 2.80999988e-01, -1.04100001e+00,
          -7.78999984e-01, -9.63000000e-01, 7.80000016e-02,
          -3.13599992e+00, 3.12800002e+00, 1.07000001e-01,
          2.96600008e+00, 2.31399989e+00, 2.54299998e+00, 2.41700006e+00,
          7.19999969e-02 ]
      - [ -5.22000015e-01, 1.37300003e+00, -1.09999999e-02,
          2.54999995e-01, -2.92700005e+00, 1.14699996e+00,
          1.40000004e-02, 5.88000000e-01, -1.37500000e+00,
          6.17999971e-01, 2.70000007e-02, 3.03999990e-01,
          -1.34599996e+00, -1.12600005e+00, -1.22099996e+00,
          5.00000007e-02, -2.57200003e+00, -1.71500003e+00,
          -2.17700005e+00, 1.82999998e-01, -2.73900008e+00,
          -1.87300003e+00, -2.35400009e+00, 1.80999994e-01,
          -5.47999978e-01, 3.56000006e-01, -7.80000016e-02,
          2.10999995e-01, -9.02000010e-01, 5.56099987e+00,
          5.90000004e-02, 1.12899995e+00, -1.42600000e+00,
          2.23000005e-01, -3.20000015e-02, 2.19999999e-01,
          -1.38900006e+00, -7.03000009e-01, -1.05100000e+00,
          2.56000012e-01, 1.13300002e+00, 1.75600004e+00, 1.47500002e+00,
          1.91000000e-01, 4.16999996e-01, 1.02699995e+00, 7.36999989e-01,
          1.78000003e-01 ]
      - [ -2.04999995e+00, 4.05900002e+00, 5.01999974e-01,
          1.29299998e+00, -4.33699989e+00, 7.40500021e+00,
          -1.86000004e-01, 2.11299992e+00, -1.66299999e+00,
          1.10500002e+00, 2.40999997e-01, 6.01000011e-01,
          -1.25399995e+00, -3.98999989e-01, -8.59000027e-01,
          2.19999999e-01, 1.08000003e-01, 2.13199997e+00, 1.10800004e+00,
          7.20000029e-01, -1.37699997e+00, 3.52999985e-01,
          -3.56999993e-01, 5.72000027e-01, -2.11599994e+00,
          1.16999996e+00, 1.23999998e-01, 7.86000013e-01,
          -1.58599997e+00, 4.11800003e+00, -1.38999999e-01,
          1.19900000e+00, -3.12000006e-01, 3.81999999e-01,
          1.60000008e-02, 2.17999995e-01, -1.33800006e+00,
          -9.19000030e-01, -1.11800003e+00, 1.31999999e-01,
          -1.08099997e+00, 1.08899999e+00, 6.71000004e-01,
          3.51999998e-01, -1.19099998e+00, -7.97999978e-01,
          -1.03900003e+00, 1.36000007e-01 ]
      - [ -7.00000003e-02, 5.42999983e-01, 1.31999999e-01,
          1.08000003e-01, -5.40000021e-01, 1.86000004e-01,
          -4.39999998e-02, 1.81999996e-01, -6.89000010e-01,
          2.41999999e-01, 4.00000019e-03, 2.01000005e-01,
          -1.53600001e+00, -8.93999994e-01, -1.28799999e+00,
          1.80000007e-01, -1.57799995e+00, 1.62800002e+00,
          -1.20999999e-01, 1.40400004e+00, -3.05200005e+00,
          5.93999982e-01, -1.36699998e+00, 1.61099994e+00,
          -4.04000014e-01, 1.94000006e-01, -7.40000010e-02,
          1.16999999e-01, -8.84999990e-01, 1.01000004e-01,
          -2.18999997e-01, 1.82999998e-01, -6.98000014e-01,
          3.68999988e-01, 2.50000004e-02, 1.92000002e-01,
          -1.28400004e+00, -3.72999996e-01, -6.14000022e-01,
          2.34999999e-01, -6.21999979e-01, -2.31999993e-01,
          -4.02000010e-01, 1.30999997e-01, -2.28000000e-01,
          3.00999999e-01, 3.09999995e-02, 1.19999997e-01 ]
      - [ -1.85200000e+00, 1.12139997e+01, 1.29999995e-01,
          2.78800011e+00, -4.53000009e-01, 2.02300000e+00,
          4.25999999e-01, 5.15999973e-01, -2.60700011e+00,
          5.96400023e+00, 2.73999989e-01, 1.66499996e+00,
          -1.37999997e-01, 7.90000036e-02, -7.00000022e-03,
          5.90000004e-02, 1.50000000e+00, 2.16300011e+00, 1.78799999e+00,
          1.97999999e-01, 1.51400006e+00, 1.78600001e+00, 1.63900006e+00,
          5.79999983e-02, -7.76200008e+00, 1.59200001e+00,
          2.38999993e-01, 1.61000001e+00, -1.95099998e+00,
          1.15799999e+00, 2.60000005e-02, 5.55000007e-01,
          -2.11999989e+00, 2.48000002e+00, -4.81000006e-01,
          9.63000000e-01, -2.52000004e-01, -1.45999998e-01,
          -2.01000005e-01, 2.60000005e-02, -1.57900000e+00,
          1.74300003e+00, 1.48599994e+00, 4.51999992e-01,
          -1.79400003e+00, -1.57900000e+00, -1.71500003e+00,
          4.80000004e-02 ]
      - [ -2.63999999e-01, 7.96999991e-01, 3.79999988e-02,
          2.04999998e-01, -2.84699988e+00, 5.35400009e+00,
          3.20000015e-02, 1.14699996e+00, -3.91400003e+00,
          9.30999994e-01, 3.70000005e-02, 7.59000003e-01,
          -1.30999994e+00, -9.12000000e-01, -1.18799996e+00,
          1.36000007e-01, -2.26900005e+00, -1.20700002e+00,
          -1.55700004e+00, 2.39999995e-01, 1.96599996e+00,
          3.03099990e+00, 2.71300006e+00, 2.38999993e-01,
          -3.15700006e+00, 5.95000029e-01, -3.29999998e-02,
          5.15999973e-01, -7.06899977e+00, 9.21999991e-01,
          7.00000022e-03, 1.15799999e+00, -1.17200005e+00,
          6.26999974e-01, 5.29999994e-02, 2.43000001e-01,
          -8.23000014e-01, -6.52000010e-01, -7.36999989e-01,
          5.60000017e-02, -2.48999998e-01, 9.70000029e-02,
          -8.00000038e-03, 1.05999999e-01, -2.48399997e+00,
          -2.05800009e+00, -2.22799993e+00, 1.23999998e-01 ]
      - [ 1.49000004e-01, 9.58000004e-01, 3.84999990e-01, 2.02000007e-01,
          -1.30999997e-01, 4.85000014e-01, 2.30000004e-01,
          1.34000003e-01, -3.51999998e-01, 4.95999992e-01,
          1.40000004e-02, 2.28000000e-01, -7.99999982e-02,
          1.15999997e-01, 8.00000038e-03, 6.70000017e-02, 3.31999987e-01,
          4.35000002e-01, 3.79999995e-01, 3.40000018e-02,
          -5.83999991e-01, -3.44999999e-01, -4.85000014e-01,
          7.59999976e-02, -1.05999999e-01, 7.46999979e-01,
          3.17999989e-01, 1.59999996e-01, -4.95999992e-01,
          1.23999998e-01, -2.82000005e-01, 1.80999994e-01,
          -5.97999990e-01, 5.97000003e-01, -6.00000005e-03,
          4.00999993e-01, -7.12000012e-01, -4.19000000e-01,
          -5.32999992e-01, 1.03000000e-01, -1.83399999e+00,
          -1.59899998e+00, -1.69000006e+00, 7.29999989e-02,
          -3.98000002e-01, 3.20000015e-02, -1.65000007e-01,
          1.43000007e-01 ]
      - [ -6.17999971e-01, 1.98899996e+00, 5.20000011e-02,
          4.33999985e-01, -4.72999990e-01, 1.14300001e+00,
          1.99999996e-02, 2.30000004e-01, -2.24300003e+00,
          3.72000009e-01, -1.09999999e-02, 3.91000003e-01,
          -7.02000022e-01, -6.15000010e-01, -6.52000010e-01,
          2.89999992e-02, -9.49999988e-01, -7.96999991e-01,
          -9.02000010e-01, 3.99999991e-02, -1.36899996e+00,
          -1.24899995e+00, -1.31599998e+00, 3.20000015e-02,
          -1.97800004e+00, 4.21000004e-01, -3.79999988e-02,
          3.79000008e-01, -7.00999975e-01, 1.37300003e+00,
          1.99999996e-02, 3.72999996e-01, -1.72599995e+00,
          3.24999988e-01, -8.00000038e-03, 3.42000008e-01,
          -7.73000002e-01, -7.22000003e-01, -7.45000005e-01,
          1.89999994e-02, 1.05299997e+00, 1.13000000e+00, 1.09500003e+00,
          1.60000008e-02, 6.65000021e-01, 8.64000022e-01, 7.35000014e-01,
          4.60000001e-02 ]
      - [ -3.63000005e-01, 8.28000009e-01, 6.00000005e-03,
          2.18999997e-01, -3.24799991e+00, 6.20000005e-01,
          8.99999961e-03, 5.64999998e-01, -1.03699994e+00,
          9.80000019e-01, 1.20000001e-02, 2.44000003e-01,
          -1.43400002e+00, -1.31900001e+00, -1.37699997e+00,
          3.29999998e-02, -1.16499996e+00, -5.36000013e-01,
          -9.81999993e-01, 1.63000003e-01, -1.71099997e+00,
          -1.07200003e+00, -1.51900005e+00, 1.72000006e-01,
          -5.40000021e-01, 5.80999970e-01, -6.89999983e-02,
          2.26999998e-01, -1.04600000e+00, 6.04899979e+00,
          2.19999999e-02, 1.19099998e+00, -1.60000002e+00,
          3.97000015e-01, -2.50000004e-02, 2.70000011e-01,
          -1.37199998e+00, -8.00000012e-01, -1.11600006e+00,
          1.95999995e-01, 9.48000014e-01, 1.42600000e+00, 1.28299999e+00,
          1.19999997e-01, 4.35999990e-01, 8.61999989e-01, 7.41999984e-01,
          1.03000000e-01 ]
      - [ -5.80999970e-01, 1.47599995e+00, 7.00000022e-03,
          3.05999994e-01, -2.47000003e+00, 1.05999994e+00,
          2.40000002e-02, 4.58999991e-01, -6.37400007e+00,
          1.58800006e+00, 5.70000000e-02, 1.11000001e+00,
          -5.24999976e-01, -4.42000002e-01, -4.90999997e-01,
          2.60000005e-02, 2.80599999e+00, 3.06299996e+00, 2.91499996e+00,
          9.60000008e-02, -2.36599994e+00, -2.30200005e+00,
          -2.34200001e+00, 1.70000009e-02, -6.70000017e-01,
          3.84000003e-01, -5.90000004e-02, 1.78000003e-01,
          -8.18000019e-01, 3.16899991e+00, -2.40000002e-02,
          8.34999979e-01, -1.79999995e+00, 3.07999998e-01,
          5.99999987e-02, 3.63000005e-01, -1.35000002e+00,
          -9.48000014e-01, -1.10599995e+00, 1.35000005e-01,
          -2.60000005e-02, 7.73999989e-01, 4.25000012e-01,
          3.30000013e-01, -3.14000010e+00, 3.13000011e+00,
          3.47000003e-01, 2.82900000e+00 ]
      - [ -1.58000007e-01, 8.33000004e-01, 8.99999961e-03,
          1.75999999e-01, -8.98999989e-01, 4.46000010e-01,
          8.00000038e-03, 1.94000006e-01, -6.38999999e-01,
          1.67200005e+00, -3.70000005e-02, 4.42999989e-01,
          1.36000007e-01, 2.63000011e-01, 1.84000000e-01, 3.20000015e-02,
          -2.91000009e-01, -9.89999995e-02, -2.11999997e-01,
          7.59999976e-02, -5.12000024e-01, -4.76999998e-01,
          -4.86999989e-01, 8.99999961e-03, -1.49500000e+00,
          3.49999994e-01, -6.30000010e-02, 2.93000013e-01,
          -2.60200000e+00, 2.16300011e+00, -2.09999997e-02,
          5.17000020e-01, -3.55399990e+00, 6.57999992e-01,
          -5.79999983e-02, 8.97000015e-01, -3.17999989e-01,
          3.90000008e-02, -1.70000002e-01, 1.05999999e-01,
          2.06000000e-01, 8.22000027e-01, 4.60000008e-01, 2.09999993e-01,
          -5.00000000e-01, -4.21000004e-01, -4.65000004e-01,
          2.60000005e-02 ]
      - [ -2.90100002e+00, 7.98400021e+00, 2.14000002e-01,
          1.72200000e+00, -5.88999987e-01, 1.21700001e+00,
          1.80999994e-01, 4.53999996e-01, -1.52900004e+00,
          3.66799998e+00, 7.00000003e-02, 9.29000020e-01,
          -1.08000003e-01, 1.62000000e-01, 3.20000015e-02,
          9.00000036e-02, 1.22000003e+00, 1.84800005e+00, 1.56599998e+00,
          1.85000002e-01, 1.49300003e+00, 1.74100006e+00, 1.62800002e+00,
          7.80000016e-02, -1.58099997e+00, 8.39999974e-01,
          4.19999994e-02, 6.89999998e-01, -9.16999996e-01,
          1.87600005e+00, -9.20000002e-02, 7.21000016e-01,
          -1.08899999e+00, 1.57000005e+00, 8.99999961e-03,
          6.52999997e-01, -3.33000004e-01, 3.59999985e-02,
          -1.80000007e-01, 1.08000003e-01, -1.87000000e+00,
          2.81699991e+00, 1.66999996e+00, 7.00999975e-01,
          -1.87000000e+00, -1.47000003e+00, -1.60300004e+00,
          1.09999999e-01 ]
      - [ -4.93000001e-01, 1.80499995e+00, 2.19999999e-02,
          3.75000000e-01, -8.31400013e+00, 8.59000027e-01,
          1.04000002e-01, 1.32799995e+00, -8.73000026e-01,
          4.21000004e-01, 1.00000005e-03, 2.26999998e-01,
          -1.48000002e+00, -1.28100002e+00, -1.36600006e+00,
          5.70000000e-02, -3.13400006e+00, 3.04999995e+00,
          -8.00000038e-03, 2.48499990e+00, 1.30499995e+00,
          3.11999989e+00, 2.15400004e+00, 6.85000002e-01,
          -1.03900003e+00, 8.99999976e-01, -1.29999995e-01,
          2.66000003e-01, -2.41899991e+00, 9.97500038e+00,
          -6.30000010e-02, 1.76100004e+00, -2.09100008e+00,
          1.32400000e+00, 8.60000029e-02, 4.92000014e-01,
          -1.52499998e+00, -1.05100000e+00, -1.27999997e+00,
          1.71000004e-01, 9.20000002e-02, 2.68000007e+00, 1.43799996e+00,
          5.92000008e-01, -3.01999986e-01, 2.32200003e+00,
          9.95999992e-01, 5.92999995e-01 ]
      - [ -5.58000028e-01, 2.73699999e+00, 4.69999984e-02,
          5.32999992e-01, -4.18000013e-01, 1.04999995e+00,
          8.99999961e-03, 2.56000012e-01, -5.78999996e+00,
          8.36000025e-01, -3.40000018e-02, 9.21999991e-01,
          -7.42999971e-01, -5.77000022e-01, -6.65000021e-01,
          5.60000017e-02, -1.36399996e+00, -1.10599995e+00,
          -1.25800002e+00, 7.19999969e-02, -7.42999971e-01,
          -5.96000016e-01, -6.66000009e-01, 3.50000001e-02,
          -3.82800007e+00, 2.89000005e-01, -8.79999995e-02,
          5.78999996e-01, -3.57800007e+00, 3.13000011e+00,
          -4.00000019e-03, 7.53000021e-01, -4.26000023e+00,
          1.27900004e+00, -2.30000000e-02, 9.53999996e-01,
          -6.66000009e-01, -5.07000029e-01, -5.92000008e-01,
          4.60000001e-02, 8.75000000e-01, 1.26499999e+00, 1.12699997e+00,
          1.08000003e-01, 2.96999991e-01, 5.35000026e-01, 4.25000012e-01,
          5.60000017e-02 ]
      - [ -1.76999998e+00, 4.08500004e+00, 2.60000005e-02,
          7.02000022e-01, -2.31100011e+00, 9.43000019e-01,
          -8.99999961e-03, 4.58999991e-01, -6.68200016e+00,
          4.09600019e+00, 7.00000022e-03, 1.35200000e+00,
          -5.98999977e-01, -5.50000012e-01, -5.80999970e-01,
          1.09999999e-02, -2.95600009e+00, -2.79399991e+00,
          -2.88800001e+00, 3.50000001e-02, -2.75900006e+00,
          -2.68600011e+00, -2.71399999e+00, 1.79999992e-02,
          -1.73899996e+00, 6.84000015e-01, -1.56000003e-01,
          3.86999995e-01, -2.43400002e+00, 9.82900047e+00,
          1.16999999e-01, 2.01200008e+00, -4.07399988e+00,
          6.76999986e-01, 1.00000005e-03, 7.68999994e-01,
          -1.28699994e+00, -5.31000018e-01, -9.95999992e-01,
          2.61000007e-01, 4.83999997e-01, 1.18400002e+00, 9.77999985e-01,
          2.16999993e-01, 4.58000004e-01, 1.05499995e+00, 9.04999971e-01,
          1.85000002e-01 ]
      - [ -4.60000001e-02, 3.44999999e-01, 7.19999969e-02,
          9.30000022e-02, -1.49000004e-01, 3.61000001e-01,
          6.59999996e-02, 1.15999997e-01, -4.16000009e-01,
          2.86000013e-01, -3.59999985e-02, 1.47000000e-01,
          2.09999997e-02, 2.43000001e-01, 1.59999996e-01, 7.29999989e-02,
          -4.14999992e-01, -2.56999999e-01, -3.07000011e-01,
          4.30000015e-02, -4.35999990e-01, -2.36000001e-01,
          -3.56000006e-01, 6.89999983e-02, -8.20000023e-02,
          5.78999996e-01, 2.47999996e-01, 1.99000001e-01,
          -3.12000006e-01, 2.50000000e-01, -3.00000003e-03,
          1.62000000e-01, -5.65999985e-01, 2.52000004e-01,
          -1.23000003e-01, 2.82999992e-01, -4.42000002e-01,
          1.43999994e-01, -1.64000005e-01, 1.80000007e-01,
          9.89999995e-02, 7.94000030e-01, 4.30999994e-01, 1.87999994e-01,
          -7.28999972e-01, 9.89999995e-02, -3.91999990e-01,
          3.28000009e-01 ]
      - [ -6.06999993e-01, 1.60500002e+00, 4.39999998e-02,
          3.52999985e-01, -1.31500006e+00, 1.59000003e+00,
          2.30000000e-02, 3.93000007e-01, -2.36999989e+00,
          5.32000005e-01, 2.60000005e-02, 6.21999979e-01,
          -7.68000007e-01, -6.15000010e-01, -6.95999980e-01,
          5.49999997e-02, 1.83200002e+00, 2.36700010e+00, 2.17899990e+00,
          1.99000001e-01, 2.44000006e+00, 2.67799997e+00, 2.55299997e+00,
          8.69999975e-02, -1.72399998e+00, 2.64999986e-01,
          -3.90000008e-02, 3.44000012e-01, -1.79299998e+00,
          8.41000021e-01, -6.49999976e-02, 3.72000009e-01,
          -3.29800010e+00, 4.49999988e-01, 5.40000014e-02,
          7.18999982e-01, -9.41999972e-01, -8.02999973e-01,
          -8.75000000e-01, 3.40000018e-02, -2.16400003e+00,
          -2.01500010e+00, -2.08999991e+00, 5.20000011e-02,
          1.86199999e+00, 2.48900008e+00, 2.18300009e+00, 1.80000007e-01 ]
      - [ -6.46000028e-01, 1.62800002e+00, 4.60000001e-02,
          3.42000008e-01, -7.39300013e+00, 1.37100005e+00,
          3.99999991e-02, 1.32900000e+00, -9.17999983e-01,
          4.02999997e-01, 5.70000000e-02, 2.25999996e-01,
          -1.22500002e+00, -7.99000025e-01, -1.00500000e+00,
          1.51999995e-01, 1.84300005e+00, 2.56699991e+00, 2.26099992e+00,
          1.15999997e-01, -3.05599999e+00, -2.25300002e+00,
          -2.50200009e+00, 1.31999999e-01, -1.00300002e+00,
          6.23000026e-01, -2.54999995e-01, 2.96000004e-01,
          -1.12199998e+00, 6.42700005e+00, -1.51999995e-01,
          1.35200000e+00, -2.42000008e+00, 5.31000018e-01,
          1.28999993e-01, 5.41999996e-01, -1.55499995e+00,
          -1.16400003e+00, -1.30999994e+00, 9.89999995e-02,
          -2.35999990e+00, 2.96300006e+00, 7.40000010e-02,
          1.71000004e+00, -2.08599997e+00, 1.71000004e+00,
          -5.50000012e-01, 1.53900003e+00 ]
      - [ -1.23399997e+00, 2.26699996e+00, 1.31999999e-01,
          6.06999993e-01, -1.63300002e+00, 8.01999986e-01,
          1.99999996e-02, 4.44999993e-01, -3.74799991e+00,
          6.48999989e-01, 2.19999999e-02, 8.39999974e-01,
          -1.02199996e+00, -8.87000024e-01, -9.81999993e-01,
          3.70000005e-02, -8.34999979e-01, -4.46000010e-01,
          -6.57000005e-01, 9.20000002e-02, 7.54999995e-01,
          1.36000001e+00, 1.00600004e+00, 1.73999995e-01,
          -2.77200007e+00, 1.10200000e+00, -1.33000001e-01,
          6.80000007e-01, -1.56299996e+00, 8.01999986e-01,
          3.40000018e-02, 3.51999998e-01, -4.64400005e+00,
          5.15999973e-01, 9.99999978e-03, 9.22999978e-01,
          -1.20200002e+00, -1.03799999e+00, -1.12500000e+00,
          5.40000014e-02, 5.46000004e-01, 9.31999981e-01, 7.40000010e-01,
          1.25000000e-01, 2.89999992e-02, 5.42999983e-01, 3.28999996e-01,
          1.50999993e-01 ]
      - [ -7.13999987e-01, 2.19300008e+00, 2.09999997e-02,
          4.92000014e-01, -8.98000002e-01, 8.28000009e-01,
          -1.00000005e-03, 2.56000012e-01, -3.74300003e+00,
          8.79000008e-01, 7.00000022e-03, 7.95000017e-01,
          -6.60000026e-01, -6.00000024e-01, -6.25000000e-01,
          1.49999997e-02, -2.55299997e+00, -2.43099999e+00,
          -2.51200008e+00, 2.70000007e-02, -2.38899994e+00,
          -2.29299998e+00, -2.31999993e+00, 2.60000005e-02,
          -1.63000000e+00, 7.18999982e-01, -5.20000011e-02,
          3.12000006e-01, -1.16199994e+00, 2.46900010e+00, 0.,
          4.23999995e-01, -4.76999998e+00, 8.90999973e-01,
          -4.69999984e-02, 1.07500005e+00, -4.26999986e-01,
          -1.50999993e-01, -3.21000010e-01, 7.40000010e-02,
          3.88999999e-01, 8.42999995e-01, 5.42999983e-01, 1.52999997e-01,
          -1.55000001e-01, -6.89999983e-02, -1.18000001e-01,
          2.99999993e-02 ]
      - [ -1.14900005e+00, 2.79600000e+00, 2.60000005e-02,
          6.62000000e-01, -2.01900005e+00, 1.30100000e+00,
          2.19999999e-02, 4.51999992e-01, -2.38400006e+00,
          5.97999990e-01, 1.03000000e-01, 7.00999975e-01,
          -1.13999999e+00, -1.03600001e+00, -1.10599995e+00,
          1.99999996e-02, -1.01499999e+00, -6.19000018e-01,
          -8.71999979e-01, 1.04000002e-01, -8.66999984e-01,
          -4.65999991e-01, -6.53999984e-01, 1.27000004e-01,
          -2.44600010e+00, 1.09200001e+00, -1.40000004e-02,
          5.79999983e-01, -1.45400000e+00, 6.97000027e-01,
          -8.00000038e-03, 3.47000003e-01, -2.72499990e+00,
          5.49000025e-01, 9.89999995e-02, 6.57000005e-01,
          -9.84000027e-01, -8.56999993e-01, -9.41999972e-01,
          2.80000009e-02, 5.24999976e-01, 9.29000020e-01, 7.40999997e-01,
          1.28999993e-01, -1.25500000e+00, -1.10899997e+00,
          -1.19700003e+00, 4.10000011e-02 ]
      - [ -2.33999997e-01, 7.69999996e-02, -1.30000003e-02,
          5.99999987e-02, -3.93999994e-01, 5.88999987e-01,
          1.31999999e-01, 2.00000003e-01, -3.50000001e-02,
          5.84999979e-01, 1.33000001e-01, 1.23000003e-01,
          -5.63000023e-01, -3.40000004e-01, -4.26999986e-01,
          5.60000017e-02, -1.05999999e-01, 9.49999988e-02,
          -2.09999997e-02, 5.00000007e-02, 0., 7.99999982e-02,
          2.50000004e-02, 2.89999992e-02, -6.56000018e-01,
          5.04999995e-01, -7.99999982e-02, 2.00000003e-01,
          -2.57999992e+00, 6.72700024e+00, -1.89999994e-02,
          1.57099998e+00, -5.21000028e-01, 2.92300010e+00,
          5.18000007e-01, 8.02999973e-01, -1.47500002e+00, 0.,
          -5.41000009e-01, 5.23000002e-01, -2.64800000e+00,
          4.46000010e-01, -2.56000012e-01, 1.07500005e+00,
          -2.88100004e+00, -1.65000007e-01, -7.41999984e-01,
          9.49999988e-01 ]
      - [ -4.60999995e-01, 2.55299997e+00, -1.89999994e-02,
          6.66000009e-01, -3.04900002e+00, 7.87999988e-01,
          9.79999974e-02, 6.52999997e-01, -1.63499999e+00,
          2.84500003e+00, 3.70000005e-02, 6.10000014e-01,
          -7.73000002e-01, -5.63000023e-01, -6.51000023e-01,
          6.89999983e-02, 3.12999994e-01, 5.59000015e-01, 4.51000005e-01,
          7.90000036e-02, -2.80000009e-02, 3.84000003e-01,
          1.74999997e-01, 1.53999999e-01, -3.51500010e+00,
          5.77000022e-01, 1.40000004e-02, 7.68000007e-01,
          -2.21799994e+00, 1.16299999e+00, 6.10000007e-02,
          4.86999989e-01, -8.01999986e-01, 1.41700006e+00,
          8.00000038e-03, 3.23000014e-01, -8.42999995e-01,
          -5.68000019e-01, -6.80999994e-01, 9.89999995e-02,
          -7.23999977e-01, -5.12000024e-01, -6.29999995e-01,
          7.59999976e-02, -1.04600000e+00, -6.80000007e-01,
          -8.56000006e-01, 1.40000001e-01 ]
      - [ -1.50600004e+00, 4.19600010e+00, 2.46999994e-01,
          1.58700001e+00, -8.88000011e-01, 1.03699994e+00,
          -2.79000014e-01, 5.04999995e-01, -7.95000017e-01,
          4.49000001e-01, -2.30000000e-02, 2.86000013e-01,
          -7.59000003e-01, -2.75999993e-01, -6.11999989e-01,
          1.65000007e-01, -2.09000006e-01, 1.42900002e+00,
          2.40000002e-02, 2.61000007e-01, 1.42900002e+00, 2.05699992e+00,
          1.73399997e+00, 1.91000000e-01, -3.96300006e+00,
          1.83200002e+00, -3.97000015e-01, 1.61600006e+00,
          -1.40499997e+00, 5.91000021e-01, -3.26000005e-01,
          5.03000021e-01, -8.93000007e-01, 8.51999998e-01,
          4.49000001e-01, 3.79999995e-01, -7.23999977e-01,
          -5.77000022e-01, -6.60000026e-01, 3.50000001e-02,
          -2.10700011e+00, -1.05999994e+00, -1.72200000e+00,
          2.09000006e-01, -1.40699995e+00, -9.38000023e-01,
          -1.12300003e+00, 1.49000004e-01 ]
      - [ -1.44299996e+00, 2.06699991e+00, -3.05000007e-01,
          1.22000003e+00, -1.77800000e+00, 1.12100005e+00,
          -3.70000005e-02, 5.41999996e-01, -2.66199994e+00,
          8.89999986e-01, 6.49999976e-02, 6.85999990e-01,
          -3.45999986e-01, 2.32999995e-01, -1.43999994e-01,
          1.25000000e-01, -1.23800004e+00, 1.66799998e+00,
          -7.40000010e-01, 3.70999992e-01, 1.39499998e+00,
          1.66799998e+00, 1.49800003e+00, 8.29999968e-02,
          -2.11400008e+00, 3.03999990e-01, -8.22000027e-01,
          5.74999988e-01, -3.10000002e-01, 1.62000000e+00,
          6.62000000e-01, 5.61999977e-01, -1.43099999e+00,
          9.89000022e-01, -2.89999992e-02, 5.74999988e-01,
          -8.47999990e-01, 6.77999973e-01, -1.34000003e-01,
          4.05000001e-01, -1.01600003e+00, 6.99999988e-01,
          -2.80000001e-01, 6.10000014e-01, -1.74600005e+00,
          6.99999988e-01, -8.24000001e-01, 9.17999983e-01 ]
      - [ -1.57700002e+00, 3.31900001e+00, 5.60000017e-02,
          8.47000003e-01, -2.37199998e+00, 1.53400004e+00,
          9.99999978e-03, 6.14000022e-01, -4.56099987e+00,
          1.20700002e+00, 1.23000003e-01, 9.30000007e-01,
          -1.16999996e+00, -9.35000002e-01, -1.08500004e+00,
          5.09999990e-02, -8.61000001e-01, -3.93999994e-01,
          -6.66000009e-01, 1.77000001e-01, 6.81999981e-01,
          9.77999985e-01, 8.78000021e-01, 7.29999989e-02,
          -3.67799997e+00, 2.24699998e+00, -1.09999999e-01,
          9.22999978e-01, -9.63999987e-01, 1.45200002e+00,
          4.00000019e-03, 3.21999997e-01, -5.46999979e+00,
          9.99000013e-01, 1.47000000e-01, 1.21899998e+00,
          -1.29299998e+00, -1.11099994e+00, -1.19299996e+00,
          7.10000023e-02, 7.36999989e-01, 1.41199994e+00, 1.12199998e+00,
          1.38999999e-01, 3.58000010e-01, 1.08700001e+00, 6.61000013e-01,
          2.10999995e-01 ]
      - [ -1.69200003e+00, 3.71799994e+00, -4.80000004e-02,
          8.52999985e-01, -1.01699996e+00, 3.43799996e+00,
          3.20000015e-02, 6.99000001e-01, -3.09699988e+00,
          1.24300003e+00, 8.69999975e-02, 5.98999977e-01,
          -9.30000007e-01, -6.75000012e-01, -8.13000023e-01,
          5.70000000e-02, 2.79699993e+00, 3.12400007e+00, 2.91100001e+00,
          8.39999989e-02, 2.97300005e+00, 3.12500000e+00, 3.04800010e+00,
          2.60000005e-02, -4.62099981e+00, 2.09200001e+00,
          4.60000001e-02, 1.05299997e+00, -1.55799997e+00,
          5.34999990e+00, 2.40000002e-02, 8.60000014e-01,
          -5.13999987e+00, 1.27400005e+00, 7.99999982e-02,
          8.24999988e-01, -9.91999984e-01, -7.59000003e-01,
          -8.64000022e-01, 7.10000023e-02, -3.08100009e+00,
          3.14100003e+00, -2.56800008e+00, 1.43900001e+00,
          2.41899991e+00, 2.61700010e+00, 2.52800012e+00, 7.00000003e-02 ]
      - [ -5.97000003e-01, 3.79000008e-01, -1.49999997e-02,
          1.80000007e-01, -1.12300003e+00, 7.85000026e-01,
          -1.79999992e-02, 2.61000007e-01, -5.97000003e-01,
          3.44499993e+00, 2.89999992e-02, 7.76000023e-01,
          -2.07000002e-01, -7.10000023e-02, -1.44999996e-01,
          3.50000001e-02, 3.44000012e-01, 7.31000006e-01, 4.60999995e-01,
          1.00000001e-01, 1.70000009e-02, 1.49000004e-01, 8.39999989e-02,
          3.09999995e-02, -2.35700011e+00, 5.27999997e-01,
          2.01000005e-01, 4.79999989e-01, -2.27999997e+00,
          1.23300004e+00, -6.89999983e-02, 4.56000000e-01,
          -3.82299995e+00, 6.48999989e-01, -2.77999997e-01,
          9.24000025e-01, -6.62000000e-01, -5.46999991e-01,
          -5.92999995e-01, 2.70000007e-02, -9.44000006e-01,
          -2.09000006e-01, -7.77999997e-01, 2.39999995e-01,
          2.02500010e+00, 2.25300002e+00, 2.14899993e+00, 6.10000007e-02 ]
      - [ -1.18599999e+00, 2.31999993e+00, 2.60000005e-02,
          4.35999990e-01, -4.30100012e+00, 1.89100003e+00,
          4.60000001e-02, 7.44000018e-01, -3.24499989e+00,
          1.11899996e+00, -1.79999992e-02, 7.08000004e-01,
          -5.12000024e-01, -2.52000004e-01, -3.79999995e-01,
          9.30000022e-02, -7.36999989e-01, -1.71000004e-01,
          -4.74000007e-01, 2.31999993e-01, -5.23000002e-01,
          -4.62000012e-01, -5.04000008e-01, 1.89999994e-02,
          -8.98000002e-01, 2.56000012e-01, -4.99999989e-03,
          2.10999995e-01, -6.25000000e-01, 1.17900002e+00,
          4.99999989e-03, 2.34999999e-01, -8.75000000e-01,
          2.62800002e+00, 0., 6.37000024e-01, -5.99999987e-02,
          -6.00000005e-03, -3.59999985e-02, 1.09999999e-02,
          8.39999989e-02, 2.46999994e-01, 1.74999997e-01, 5.40000014e-02,
          -8.67999971e-01, -8.29999983e-01, -8.41000021e-01,
          1.30000003e-02 ]
      - [ -2.46999994e-01, 2.01000005e-01, 4.60000001e-02,
          8.29999968e-02, -2.19999999e-01, 4.51999992e-01,
          2.09999997e-02, 1.14000000e-01, -3.03000003e-01,
          1.39900005e+00, 2.89999992e-02, 4.14999992e-01, 3.40000004e-01,
          4.90000010e-01, 3.93999994e-01, 4.10000011e-02,
          -6.30000010e-02, 3.86999995e-01, 2.07000002e-01,
          1.66999996e-01, -2.02000007e-01, -1.41000003e-01,
          -1.84000000e-01, 1.49999997e-02, -1.02100003e+00,
          7.78999984e-01, -1.42000005e-01, 2.82999992e-01,
          -5.46999991e-01, 1.67999995e+00, -4.60000001e-02,
          4.86999989e-01, -4.86000001e-01, 2.44899988e+00,
          -1.89999994e-02, 6.39999986e-01, -5.33999979e-01,
          -4.14000005e-01, -4.60000008e-01, 3.59999985e-02,
          2.06200004e+00, 2.83200002e+00, 2.36400008e+00, 2.70000011e-01,
          2.68400002e+00, 2.97199988e+00, 2.79900002e+00, 9.89999995e-02 ]
      - [ -3.31999987e-01, 1.51600003e+00, 4.19999994e-02,
          2.86000013e-01, -2.76699996e+00, 1.69000006e+00,
          -4.30000015e-02, 5.47999978e-01, -1.71000004e+00,
          4.00000006e-01, -1.00000005e-03, 4.79999989e-01,
          -9.43000019e-01, -8.27000022e-01, -8.74000013e-01,
          2.30000000e-02, 2.01300001e+00, 2.26300001e+00, 2.16799998e+00,
          6.89999983e-02, 2.28099990e+00, 2.49499989e+00, 2.42799997e+00,
          4.69999984e-02, -1.66100001e+00, 1.78000003e-01,
          -3.40000018e-02, 3.07999998e-01, -2.13199997e+00,
          1.20799994e+00, -2.30000000e-02, 4.14999992e-01,
          -2.97799993e+00, 5.23999989e-01, 1.99999996e-02,
          6.76999986e-01, -9.43000019e-01, -8.19000006e-01,
          -8.65999997e-01, 2.89999992e-02, -2.36800003e+00,
          -1.97399998e+00, -2.23699999e+00, 1.29999995e-01,
          1.93700004e+00, 2.14000010e+00, 2.04500008e+00, 5.60000017e-02 ]
      - [ -1.24300003e+00, 2.02800012e+00, 7.00000022e-03,
          3.67000014e-01, -1.88699996e+00, 1.75500000e+00,
          4.00000019e-03, 4.35000002e-01, -1.27800000e+00,
          4.21500015e+00, -3.09999995e-02, 8.13000023e-01,
          1.11000001e-01, 2.09999993e-01, 1.60999998e-01, 2.89999992e-02,
          -3.45999986e-01, -1.93000004e-01, -2.77000010e-01,
          3.70000005e-02, -5.70999980e-01, -5.27999997e-01,
          -5.38999975e-01, 9.99999978e-03, -1.23500001e+00,
          4.58000004e-01, -9.09999982e-02, 2.91000009e-01,
          -4.25000000e+00, 2.65100002e+00, 1.60000008e-02,
          7.65999973e-01, -4.59499979e+00, 9.44999993e-01,
          -8.10000002e-02, 1.08700001e+00, -2.14000002e-01,
          1.96999997e-01, -5.60000017e-02, 1.36999995e-01,
          2.17999995e-01, 9.73999977e-01, 5.21000028e-01, 2.86000013e-01,
          -5.50000012e-01, -4.79999989e-01, -5.23000002e-01,
          2.09999997e-02 ]
      - [ -4.11000013e-01, 9.96999979e-01, 1.26000002e-01,
          2.00000003e-01, -7.77000010e-01, 6.95999980e-01,
          -1.92000002e-01, 3.49000007e-01, -9.06000018e-01,
          1.87399995e+00, -1.42000005e-01, 5.95000029e-01,
          -5.15999973e-01, -2.36000001e-01, -3.88999999e-01,
          7.00000003e-02, -2.98699999e+00, -2.53900003e+00,
          -2.70400000e+00, 1.12999998e-01, -3.03900003e+00,
          8.90999973e-01, -1.84000000e-01, 1.68599999e+00,
          -7.86000013e-01, 6.05000019e-01, -1.89999994e-02,
          2.04999998e-01, -1.73000002e+00, 2.61199999e+00,
          3.29999998e-02, 5.49000025e-01, -7.92999983e-01,
          3.43300009e+00, 3.90000008e-02, 8.45000029e-01, 4.79000002e-01,
          5.51999986e-01, 5.03000021e-01, 1.89999994e-02,
          -3.40000004e-01, -1.16999999e-01, -2.80999988e-01,
          5.90000004e-02, 1.20999999e-01, 2.59999990e-01, 1.48000002e-01,
          4.10000011e-02 ]
      - [ -5.23999989e-01, 1.68599999e+00, 4.30000015e-02,
          4.21999991e-01, -1.60000002e+00, 8.71999979e-01,
          1.00000005e-03, 3.51999998e-01, -1.67900002e+00,
          4.37000006e-01, 4.00000019e-03, 4.70999986e-01,
          -1.28600001e+00, -1.21099997e+00, -1.26800001e+00,
          1.79999992e-02, -1.28100002e+00, -8.29999983e-01,
          -1.02800000e+00, 1.22000001e-01, -1.23199999e+00,
          -5.21000028e-01, -9.36999977e-01, 1.87000006e-01,
          -1.73699999e+00, 1.43999994e-01, -4.80000004e-02,
          3.35000008e-01, -1.78199995e+00, 1.26600003e+00,
          -1.20000001e-02, 4.11000013e-01, -2.11299992e+00,
          4.83999997e-01, 1.79999992e-02, 4.90999997e-01,
          -1.18299997e+00, -1.03400004e+00, -1.13000000e+00,
          3.40000018e-02, 6.39999986e-01, 1.08800006e+00, 8.42999995e-01,
          1.29999995e-01, -1.11399996e+00, -8.50000024e-01,
          -9.67999995e-01, 5.99999987e-02 ]
      - [ -5.18999994e-01, 1.75999999e+00, 5.09999990e-02,
          3.93000007e-01, -1.09099996e+00, 6.05000019e-01,
          3.00000003e-03, 2.47999996e-01, -1.63100004e+00,
          4.35000002e-01, -2.60000005e-02, 4.44000006e-01,
          -1.20899999e+00, -1.12800002e+00, -1.17200005e+00,
          1.89999994e-02, -1.00800002e+00, -7.02000022e-01,
          -8.60000014e-01, 6.80000037e-02, 5.64000010e-01,
          9.90999997e-01, 7.39000022e-01, 1.01000004e-01,
          -1.69700003e+00, 2.03999996e-01, -5.29999994e-02,
          3.40999991e-01, -1.59800005e+00, 6.35999978e-01,
          -8.99999961e-03, 3.45999986e-01, -1.72000003e+00,
          3.91000003e-01, -6.00000005e-03, 4.02999997e-01,
          -1.01600003e+00, -9.26999986e-01, -9.90999997e-01,
          1.79999992e-02, 5.31000018e-01, 7.17999995e-01, 6.05000019e-01,
          3.79999988e-02, 2.86000013e-01, 4.58999991e-01, 3.75000000e-01,
          4.50000018e-02 ]
      - [ -9.26999986e-01, 2.58500004e+00, 5.49999997e-02,
          5.69000006e-01, -7.25000024e-01, 1.61300004e+00,
          8.99999961e-03, 3.75999987e-01, -5.22100019e+00,
          1.00199997e+00, -3.20000015e-02, 1.00600004e+00,
          -1.15600002e+00, -9.57000017e-01, -1.04400003e+00,
          6.80000037e-02, -2.14400005e+00, -1.63900006e+00,
          -2.02600002e+00, 1.16999999e-01, -1.59399998e+00,
          -1.23399997e+00, -1.47599995e+00, 8.60000029e-02,
          -3.67300010e+00, 6.86999977e-01, -7.10000023e-02,
          6.01000011e-01, -2.40599990e+00, 2.69799995e+00,
          -2.00000009e-03, 7.03000009e-01, -4.06699991e+00,
          7.82000005e-01, -1.09999999e-02, 8.29999983e-01,
          -1.16799998e+00, -1.06700003e+00, -1.11300004e+00,
          3.59999985e-02, 1.09700000e+00, 1.76699996e+00, 1.58700001e+00,
          1.71000004e-01, 5.13000011e-01, 9.55999970e-01, 8.18000019e-01,
          8.69999975e-02 ]
      - [ -4.83999997e-01, -8.50000009e-02, -3.17999989e-01,
          1.03000000e-01, -4.53000009e-01, 2.38000005e-01,
          -8.10000002e-02, 2.04999998e-01, -9.90000010e-01,
          3.88999999e-01, -3.08999985e-01, 4.25000012e-01,
          -1.46899998e+00, -1.24899995e+00, -1.32200003e+00,
          5.40000014e-02, 7.96999991e-01, 3.08599997e+00, 1.95500004e+00,
          9.20000017e-01, -3.13800001e+00, 3.12899995e+00,
          1.10099995e+00, 2., -7.40000010e-02, 6.21999979e-01,
          1.89999998e-01, 1.52999997e-01, -6.99999988e-01,
          1.42799997e+00, 9.79999974e-02, 6.39999986e-01,
          -1.18599999e+00, 4.00000006e-01, -7.40999997e-01,
          4.26999986e-01, -1.09899998e+00, -6.43999994e-01,
          -8.99999976e-01, 1.25000000e-01, -2.97499990e+00,
          -1.86600006e+00, -2.47099996e+00, 4.12999988e-01,
          -3.13100004e+00, 3.13899994e+00, -5.68000019e-01,
          2.81500006e+00 ]
      - [ -1.01199996e+00, 2.12299991e+00, 3.99999991e-02,
          4.90000010e-01, -5.28299999e+00, 5.10300016e+00,
          2.40000002e-02, 1.07200003e+00, -9.25999999e-01,
          2.30399990e+00, 2.40000002e-02, 4.35000002e-01, 7.69999981e-01,
          9.08999979e-01, 8.19000006e-01, 2.19999999e-02, 2.80999988e-01,
          4.37999994e-01, 3.45999986e-01, 4.39999998e-02,
          -1.12199998e+00, -9.33000028e-01, -1.01900005e+00,
          6.19999990e-02, -2.84899998e+00, 1.59200001e+00,
          -5.00000007e-02, 6.16999984e-01, -1.13399994e+00,
          1.51300001e+00, 9.99999978e-03, 3.38999987e-01,
          -8.02999973e-01, 1.94400001e+00, 9.99999978e-03,
          4.25000012e-01, 7.97999978e-01, 8.69000018e-01, 8.06999981e-01,
          1.40000004e-02, -3.00000012e-01, -1.88999996e-01,
          -2.40999997e-01, 2.99999993e-02, 5.99999987e-02,
          2.08000004e-01, 1.43000007e-01, 4.50000018e-02 ]
      - [ -1.28699994e+00, 1.65600002e+00, 9.99999978e-03,
          4.30000007e-01, -9.45999980e-01, 3.61000001e-01,
          3.29999998e-02, 2.23000005e-01, -4.11899996e+00,
          1.21300006e+00, 6.10000007e-02, 8.66999984e-01,
          -4.60000008e-01, -3.37000012e-01, -4.04000014e-01,
          4.39999998e-02, -5.55999994e-01, -4.04000014e-01,
          -4.69999999e-01, 5.49999997e-02, -5.38999975e-01,
          -4.07000005e-01, -4.79000002e-01, 3.70000005e-02,
          -2.11999989e+00, 1.43299997e+00, -1.89999994e-02,
          5.15999973e-01, -1.64999998e+00, 1.59000003e+00,
          -8.99999961e-03, 3.65999997e-01, -5.96700001e+00,
          9.89000022e-01, 8.29999968e-02, 9.30000007e-01,
          -9.63999987e-01, -8.96000028e-01, -9.27999973e-01,
          2.09999997e-02, 1.71800005e+00, 1.92999995e+00, 1.82599998e+00,
          6.70000017e-02, 6.34999990e-01, 7.58000016e-01, 6.84000015e-01,
          3.29999998e-02 ]
      - [ 2.79000014e-01, 1.24399996e+00, 7.55999982e-01, 3.38000000e-01,
          -2.09999993e-01, 8.79000008e-01, 4.16000009e-01,
          2.66000003e-01, -1.15600002e+00, 3.88000011e-01,
          -3.89999986e-01, 3.88000011e-01, 2.43000001e-01,
          6.11000001e-01, 4.62000012e-01, 1.04999997e-01,
          -3.09200001e+00, 3.12700009e+00, 1.22899997e+00,
          2.67899990e+00, -1.32599998e+00, -3.61000001e-01,
          -6.40999973e-01, 3.03000003e-01, -2.08000004e-01,
          1.11800003e+00, 5.01999974e-01, 3.42000008e-01,
          -1.92000002e-01, 1.59000003e+00, 5.79999983e-01,
          5.29999971e-01, -4.65999991e-01, 7.35000014e-01,
          1.88999996e-01, 4.05000001e-01, -4.67999995e-01,
          4.50000018e-02, -2.43000001e-01, 1.50000006e-01,
          -2.42300010e+00, -1.83399999e+00, -2.17300010e+00,
          1.87000006e-01, -4.86999989e-01, 5.20000011e-02,
          -2.23000005e-01, 1.31999999e-01 ]
      - [ -2.84000009e-01, 1.28000006e-01, -3.00000003e-03,
          1.12000003e-01, -3.14999998e-01, 3.10200000e+00,
          6.20000005e-01, 7.40000010e-01, -7.18999982e-01,
          1.04799998e+00, -6.00000005e-03, 5.74000001e-01,
          -1.47000000e-01, 1.33700001e+00, 7.31999993e-01,
          5.47999978e-01, -2.66999990e-01, 9.79999974e-02,
          -1.70000009e-02, 9.60000008e-02, -4.92000014e-01,
          3.88000011e-01, 7.00000022e-03, 2.50000000e-01,
          -1.41000003e-01, 2.47999996e-01, -4.00000019e-03,
          9.79999974e-02, -9.68999982e-01, 1.92700005e+00,
          -3.09999995e-02, 6.38000011e-01, -2.98000008e-01,
          1.26900005e+00, 2.63000011e-01, 4.14000005e-01,
          -1.20299995e+00, 3.89999986e-01, -6.30000010e-02,
          5.37000000e-01, -2.00000003e-01, 6.10000007e-02,
          -8.10000002e-02, 9.49999988e-02, -6.43000007e-01,
          -3.74000013e-01, -4.88000005e-01, 7.99999982e-02 ]
      - [ -1.04999997e-01, 2.22000003e-01, 1.79999992e-02,
          6.40000030e-02, -2.17999995e-01, 3.03999990e-01,
          -1.00000005e-03, 8.20000023e-02, -2.04999998e-01,
          6.80000037e-02, 1.70000009e-02, 5.09999990e-02,
          -4.83999997e-01, -4.11000013e-01, -4.32999998e-01,
          1.79999992e-02, -2.56699991e+00, -2.49799991e+00,
          -2.51999998e+00, 1.99999996e-02, -2.89299989e+00,
          -2.87700009e+00, -2.88400006e+00, 4.00000019e-03,
          -5.45000017e-01, 7.10000023e-02, -8.29999968e-02,
          1.35000005e-01, -2.16999993e-01, 1.34000003e-01,
          -3.59999985e-02, 6.80000037e-02, -2.29000002e-01,
          1.99000001e-01, -2.30000000e-02, 9.20000002e-02,
          -3.00000012e-01, -1.12000003e-01, -1.92000002e-01,
          4.50000018e-02, 8.75999987e-01, 9.10000026e-01, 8.96000028e-01,
          9.99999978e-03, 2.66999990e-01, 4.05999988e-01, 3.35999995e-01,
          3.59999985e-02 ]
      - [ -1.54900002e+00, 3.95400000e+00, 5.70000000e-02,
          7.13000000e-01, -3.93999994e-01, 9.67999995e-01,
          2.60000005e-02, 2.11999997e-01, -8.93000031e+00,
          1.88199997e+00, 1.40000004e-02, 1.40300000e+00,
          -6.71999991e-01, -4.62000012e-01, -6.01000011e-01,
          6.10000007e-02, -1.11899996e+00, -8.85999978e-01,
          -9.72000003e-01, 7.00000003e-02, -4.83000010e-01,
          -3.12999994e-01, -4.18000013e-01, 3.99999991e-02,
          -3.62700009e+00, 1.49100006e+00, -5.90000004e-02,
          6.99000001e-01, -8.79000008e-01, 1.00500000e+00,
          1.79999992e-02, 2.77000010e-01, -6.20599985e+00,
          1.45700002e+00, -3.09999995e-02, 1.29799998e+00,
          -6.95999980e-01, -5.31000018e-01, -6.43999994e-01,
          5.20000011e-02, 9.13999975e-01, 1.15799999e+00, 9.94000018e-01,
          8.20000023e-02, 3.17000002e-01, 4.70999986e-01, 4.12000000e-01,
          3.79999988e-02 ]
      - [ -5.27000010e-01, 8.88999999e-01, 3.09999995e-02,
          2.59999990e-01, -1.21300006e+00, 8.16999972e-01,
          3.00000003e-03, 3.58000010e-01, -4.36999989e+00,
          1.08500004e+00, 8.79999995e-02, 8.88000011e-01,
          -1.01499999e+00, -9.11000013e-01, -9.71000016e-01,
          3.59999985e-02, -2.12599993e+00, -1.64199996e+00,
          -1.98699999e+00, 1.42000005e-01, -1.45000005e+00,
          -1.04600000e+00, -1.24899995e+00, 9.20000002e-02,
          -3.86000007e-01, 4.77999985e-01, -5.49999997e-02,
          1.50000006e-01, -6.52000010e-01, 2.14599991e+00,
          -6.49999976e-02, 6.48999989e-01, -1.60599995e+00,
          3.98000002e-01, 6.80000037e-02, 3.54000002e-01,
          -1.53999999e-01, 7.10000023e-02, -3.99999991e-02,
          8.60000029e-02, 9.61000025e-01, 1.11500001e+00, 1.04400003e+00,
          5.40000014e-02, 4.23000008e-01, 6.20999992e-01, 5.33999979e-01,
          6.80000037e-02 ]
      - [ -5.47999978e-01, 8.05000007e-01, 3.09999995e-02,
          2.84999996e-01, -5.95599985e+00, 1.27100003e+00,
          -1.60000008e-02, 1.02400005e+00, -3.89700007e+00,
          2.18499994e+00, 8.00000038e-03, 7.02000022e-01,
          -1.36000001e+00, -9.63000000e-01, -1.18900001e+00,
          1.38999999e-01, -8.64000022e-01, -2.30000000e-02,
          -4.28999990e-01, 2.28000000e-01, -1.07099998e+00,
          -1.62000000e-01, -6.26999974e-01, 2.54000008e-01,
          -4.56000000e-01, 5.47999978e-01, -5.49999997e-02,
          1.69000000e-01, -1.94700003e+00, 6.54600000e+00,
          -6.00000005e-03, 1.27600002e+00, -5.49200010e+00,
          2.38899994e+00, 3.70000005e-02, 9.58000004e-01,
          -8.80999982e-01, -4.00000006e-01, -6.85000002e-01,
          1.70000002e-01, 4.37999994e-01, 9.12999988e-01, 7.09999979e-01,
          1.41000003e-01, 3.68000001e-01, 7.00999975e-01, 5.95000029e-01,
          9.00000036e-02 ]
      - [ -5.83999991e-01, 1.97800004e+00, 1.60000008e-02,
          4.81000006e-01, -1.18499994e+00, 4.74000007e-01,
          -4.99999989e-03, 2.08000004e-01, -3.77600002e+00,
          1.21500003e+00, 3.00000003e-03, 7.63999999e-01,
          -7.00999975e-01, -6.28000021e-01, -6.54999971e-01,
          2.19999999e-02, -2.57399988e+00, -2.42100000e+00,
          -2.51300001e+00, 3.50000001e-02, -2.38499999e+00,
          -2.28399992e+00, -2.31500006e+00, 2.70000007e-02,
          -1.57599998e+00, 7.78999984e-01, -4.69999984e-02,
          3.10000002e-01, -1.57799995e+00, 1.32000005e+00,
          8.99999961e-03, 3.84999990e-01, -3.54299998e+00,
          8.11999977e-01, -5.00000007e-02, 9.21999991e-01,
          -4.74000007e-01, -2.07000002e-01, -3.79999995e-01,
          7.69999996e-02, 3.68000001e-01, 8.39999974e-01, 5.37000000e-01,
          1.63000003e-01, -2.07000002e-01, -1.47000000e-01,
          -1.75999999e-01, 1.89999994e-02 ]
      - [ -2.08100009e+00, 3.44400001e+00, 0., 7.73000002e-01,
          -6.20999992e-01, 1.50699997e+00, 2.70000007e-02,
          4.32000011e-01, -2.73699999e+00, 1.08099997e+00,
          9.30000022e-02, 5.61999977e-01, -1.33899999e+00,
          -9.67999995e-01, -1.22899997e+00, 1.09999999e-01,
          -3.13499999e+00, 3.13199997e+00, -1.22099996e+00,
          2.68700004e+00, -2.46000004e+00, -2.23000002e+00,
          -2.38000011e+00, 6.80000037e-02, -5.18800020e+00,
          3.02099991e+00, 0., 1.10399997e+00, -6.71999991e-01,
          2.31299996e+00, 2.99999993e-02, 4.51999992e-01,
          -1.79299998e+00, 9.78999972e-01, 4.69999984e-02,
          3.74000013e-01, -1.41799998e+00, -1.17499995e+00,
          -1.32700002e+00, 7.90000036e-02, -3.09699988e+00,
          3.13800001e+00, 1.04499996e+00, 2.57100010e+00,
          -3.12199998e+00, 3.12199998e+00, 9.75000024e-01,
          2.68300009e+00 ]
      - [ -6.05000019e-01, 1.45500004e+00, 1.49999997e-02,
          2.75999993e-01, -1.65400004e+00, 1.02699995e+00,
          4.00000019e-03, 3.35999995e-01, -4.46999979e+00,
          1.36600006e+00, -4.19999994e-02, 8.69000018e-01,
          -2.31000006e-01, -9.99999978e-03, -1.36999995e-01,
          7.99999982e-02, -6.81999981e-01, -3.05999994e-01,
          -4.81000006e-01, 1.51999995e-01, 4.50000018e-02,
          7.80000016e-02, 5.90000004e-02, 8.00000038e-03,
          -2.02800012e+00, 4.18000013e-01, 7.00000022e-03,
          3.68999988e-01, -1.37100005e+00, 1.04299998e+00,
          1.09999999e-02, 3.40999991e-01, -3.24600005e+00,
          1.33099997e+00, 1.40000004e-02, 6.43999994e-01,
          -5.65999985e-01, -5.05999982e-01, -5.37999988e-01,
          1.30000003e-02, 2.62800002e+00, 2.76300001e+00, 2.68700004e+00,
          4.30000015e-02, 2.27999997e+00, 2.36199999e+00, 2.30800009e+00,
          2.80000009e-02 ]
      - [ -1.97300005e+00, 2.77900004e+00, -9.99999978e-03,
          5.88000000e-01, -8.41000021e-01, 4.86199999e+00,
          -1.56000003e-01, 9.49999988e-01, -1.04600000e+00,
          3.46700001e+00, -6.10000007e-02, 8.90999973e-01,
          -6.72999978e-01, -4.46000010e-01, -5.77000022e-01,
          4.60000001e-02, -3.03999996e+00, -2.42700005e+00,
          -2.70499992e+00, 2.23000005e-01, 1.19599998e+00,
          1.48800004e+00, 1.36099994e+00, 1.07000001e-01,
          -3.77500010e+00, 2.39000010e+00, -7.99999982e-02,
          7.31000006e-01, -1.13300002e+00, 7.60999978e-01,
          6.30000010e-02, 2.75000006e-01, -8.66999984e-01,
          4.05700016e+00, 4.00000019e-03, 7.40000010e-01, 3.72000009e-01,
          5.09000003e-01, 4.05000001e-01, 3.90000008e-02,
          -2.24999994e-01, 8.69999975e-02, -1.09999999e-01,
          6.89999983e-02, 2.24000007e-01, 3.79999995e-01, 2.75999993e-01,
          5.00000007e-02 ]
      - [ -1.90999997e+00, 6.38000011e-01, -9.79999974e-02,
          4.60999995e-01, -1.38800001e+00, 8.34200001e+00,
          5.97000003e-01, 1.80999994e+00, -9.59999979e-01,
          5.86199999e+00, 8.09000015e-01, 1.70299995e+00,
          -9.30999994e-01, 1.16199994e+00, 7.99999982e-02,
          6.19000018e-01, -1.81700003e+00, 2.98999995e-01,
          -9.49999988e-01, 8.00999999e-01, 2.22000003e-01,
          1.56200004e+00, 5.14999986e-01, 4.44999993e-01, 1.79999992e-02,
          3.12999994e-01, 1.97999999e-01, 6.30000010e-02,
          -1.74999997e-01, 3.00999999e-01, 1.00000001e-01,
          1.15999997e-01, -1.65000007e-01, 1.97999999e-01,
          4.69999984e-02, 1.05999999e-01, -6.61000013e-01,
          -2.00000003e-01, -5.04999995e-01, 1.31999999e-01,
          -1.08899999e+00, 1.19500005e+00, 8.75999987e-01,
          3.17999989e-01, -1.08899999e+00, -3.98999989e-01,
          -6.89000010e-01, 2.29000002e-01 ]
      - [ -9.84000027e-01, 1.27900004e+00, 6.89999983e-02,
          2.96000004e-01, -2.45700002e+00, 6.77299976e+00,
          8.99999961e-03, 1.33800006e+00, -4.83900023e+00,
          1.32799995e+00, 7.00000022e-03, 8.04000020e-01,
          -9.71000016e-01, -5.23999989e-01, -8.10000002e-01,
          1.30999997e-01, -8.25999975e-01, -3.10000002e-01,
          -5.86000025e-01, 1.33000001e-01, -3.02399993e+00,
          -2.54699993e+00, -2.80200005e+00, 1.18000001e-01,
          -1.33500004e+00, 5.55000007e-01, -6.40000030e-02,
          3.17999989e-01, -7.97399998e+00, 2.48000002e+00,
          -2.19999999e-02, 1.49000001e+00, -1.07299995e+00,
          6.17999971e-01, 4.89999987e-02, 2.93000013e-01,
          -1.42200005e+00, -1.26800001e+00, -1.33500004e+00,
          4.80000004e-02, -3.09599996e+00, 3.11800003e+00,
          1.21300006e+00, 1.10200000e+00, -1.57500005e+00,
          9.50999975e-01, -7.54999995e-01, 7.31999993e-01 ]
      - [ -4.67999995e-01, 5.07000029e-01, 0., 2.02999994e-01,
          -1.01499999e+00, 2.22300005e+00, 3.99999991e-02,
          4.07999992e-01, -6.30999982e-01, 4.55000019e+00,
          -7.80000016e-02, 9.22999978e-01, -2.40999997e-01,
          -1.30000003e-02, -1.80000007e-01, 6.59999996e-02,
          3.38000000e-01, 7.79999971e-01, 5.58000028e-01, 1.73999995e-01,
          -6.00000005e-03, 2.21000001e-01, 1.27000004e-01,
          8.20000023e-02, -3.55299997e+00, 5.10999978e-01,
          2.70000007e-02, 5.96000016e-01, -2.37199998e+00,
          1.35200000e+00, -3.59999985e-02, 4.79999989e-01,
          -4.14799976e+00, 8.04000020e-01, 1.31999999e-01,
          1.04600000e+00, -5.86000025e-01, -4.49000001e-01,
          -5.13000011e-01, 3.99999991e-02, -5.88000000e-01,
          5.09999990e-02, -2.73999989e-01, 2.59999990e-01,
          2.30999994e+00, 2.41700006e+00, 2.37100005e+00, 2.89999992e-02 ]
      - [ -6.71999991e-01, 2.28200006e+00, 3.70000005e-02,
          4.42000002e-01, -6.64200020e+00, 4.86100006e+00,
          1.30000003e-02, 1.30400002e+00, -8.10700035e+00,
          1.08700001e+00, 3.40000018e-02, 1.24000001e+00,
          -4.92000014e-01, -3.58000010e-01, -4.46999997e-01,
          3.79999988e-02, 2.65799999e+00, 2.95400000e+00, 2.79999995e+00,
          1.00000001e-01, -2.41899991e+00, -2.32900000e+00,
          -2.37299991e+00, 1.89999994e-02, -8.66999984e-01,
          1.06799996e+00, -1.25000000e-01, 3.61000001e-01,
          -2.82900000e+00, 1.07110004e+01, -9.00000036e-02,
          1.86800003e+00, -3.37299991e+00, 9.22999978e-01,
          1.30999997e-01, 5.98999977e-01, -1.53400004e+00,
          -9.71000016e-01, -1.28400004e+00, 2.16999993e-01,
          -2.23699999e+00, 1.00100005e+00, 1.12000003e-01,
          9.16000009e-01, -3.07399988e+00, 3.12899995e+00,
          -4.21000004e-01, 2.44400001e+00 ]
      - [ -1.05599999e+00, 6.97000027e-01, 1.23000003e-01,
          2.19999999e-01, -7.97999978e-01, 2.92199993e+00,
          1.99999996e-02, 8.10000002e-01, -1.01300001e+00,
          1.76499999e+00, -8.00000038e-03, 5.65999985e-01,
          -3.56000006e-01, 3.14999998e-01, -1.07000001e-01,
          2.79000014e-01, -3.11899996e+00, 3.13299990e+00,
          -3.98999989e-01, 2.94400001e+00, -3.10299993e+00,
          -2.92000008e+00, -3.00600004e+00, 6.49999976e-02,
          -7.88999975e-01, 7.48000026e-01, -4.99999989e-03,
          2.31999993e-01, -1.05799997e+00, 5.87000012e-01,
          1.49999997e-02, 2.31999993e-01, -7.68999994e-01,
          2.43400002e+00, 1.89999994e-02, 6.21999979e-01, 3.29999998e-02,
          1.29999995e-01, 7.19999969e-02, 2.99999993e-02,
          -7.31999993e-01, -5.58000028e-01, -6.88000023e-01,
          3.79999988e-02, 1.41000003e-01, 2.04999998e-01, 1.72999993e-01,
          1.60000008e-02 ]
      - [ -2.94000000e-01, 8.52999985e-01, 2.57999986e-01,
          3.49999994e-01, -5.50999999e-01, 4.62000012e-01,
          -1.19000003e-01, 3.17000002e-01, -1.57400000e+00,
          7.50000030e-02, -6.54999971e-01, 5.97000003e-01,
          -1.32799995e+00, -1.07000001e-01, -6.70000017e-01,
          4.05000001e-01, -3.12899995e+00, 3.14100003e+00,
          -2.28000000e-01, 1.95400000e+00, -3.09299994e+00,
          4.65000004e-01, -1.29200006e+00, 1.45799994e+00,
          -3.17000002e-01, 3.72999996e-01, 8.10000002e-02,
          1.79000005e-01, -2.77999997e+00, 6.40299988e+00,
          -1.14000000e-01, 1.46300006e+00, -3.17000002e-01,
          3.30100012e+00, 5.87000012e-01, 7.58000016e-01,
          -1.49199998e+00, -4.99999989e-03, -6.23000026e-01,
          4.48000014e-01, -3.03299999e+00, 3.00600004e+00,
          -1.96399999e+00, 1.54100001e+00, -2.94300008e+00,
          -5.20000011e-02, -5.89999974e-01, 9.07000005e-01 ]
      - [ -6.15000010e-01, 3.70999992e-01, 1.16999999e-01,
          2.11999997e-01, -2.66000003e-01, 8.14000010e-01,
          1.87000006e-01, 3.58999997e-01, -5.51999986e-01,
          3.54999989e-01, 5.29999994e-02, 2.40999997e-01,
          -6.58999979e-01, -4.21999991e-01, -5.23999989e-01,
          7.50000030e-02, -2.45499992e+00, -8.19000006e-01,
          -2.29900002e+00, 2.54999995e-01, -1.11199999e+00,
          -8.19000006e-01, -9.90999997e-01, 7.99999982e-02,
          -3.69499993e+00, 1.48300004e+00, -2.45000005e-01,
          1.47899997e+00, -2.23200011e+00, 2.63700008e+00,
          1.71000004e-01, 1.15400004e+00, -1.40999997e+00,
          7.50999987e-01, 7.99999982e-02, 4.39000010e-01,
          -1.28100002e+00, -4.79000002e-01, -6.76999986e-01,
          2.80999988e-01, -2.51699996e+00, 4.19999994e-02,
          -2.06299996e+00, 5.54000020e-01, -1.27800000e+00,
          4.19999994e-02, -1.05400002e+00, 3.05999994e-01 ]
      - [ -9.78999972e-01, 1.57599998e+00, 4.69999984e-02,
          4.76999998e-01, -2.49099994e+00, 9.11000013e-01,
          -2.99999993e-02, 5.88999987e-01, -1.98300004e+00,
          5.96000016e-01, 1.25000000e-01, 5.56999981e-01,
          -1.14400005e+00, -8.14999998e-01, -1.05100000e+00,
          7.29999989e-02, -1.04700005e+00, -4.69000012e-01,
          -8.24999988e-01, 1.80000007e-01, 4.67999995e-01,
          8.06999981e-01, 6.89000010e-01, 1.04999997e-01,
          -2.21700001e+00, 1.10099995e+00, -6.10000007e-02,
          5.83999991e-01, -3.25600004e+00, 8.33000004e-01,
          6.00000005e-03, 5.79999983e-01, -2.08400011e+00,
          8.14999998e-01, 1.05999999e-01, 6.37000024e-01,
          -1.19099998e+00, -1.00699997e+00, -1.13300002e+00,
          4.30000015e-02, 4.67999995e-01, 9.35000002e-01, 7.44000018e-01,
          1.01999998e-01, -3.00999999e-01, 3.65000010e-01,
          1.30000003e-02, 2.02000007e-01 ]
      - [ -1.09999999e-01, 1.60000008e-02, -4.60000001e-02,
          3.50000001e-02, -1.42000005e-01, 1.20999999e-01,
          1.60000008e-02, 6.49999976e-02, -2.70000007e-02,
          3.50000001e-02, 4.00000019e-03, 1.60000008e-02,
          -1.45000005e+00, -1.42600000e+00, -1.43799996e+00,
          7.00000022e-03, 1.61300004e+00, 1.93499994e+00, 1.76900005e+00,
          8.60000029e-02, 1.50000000e+00, 1.75800002e+00, 1.63499999e+00,
          6.89999983e-02, -2.56999999e-01, 6.76999986e-01,
          2.96999991e-01, 2.29000002e-01, -4.95000005e-01,
          1.32900000e+00, 8.50000009e-02, 4.76000011e-01,
          -5.46000004e-01, 5.74999988e-01, 1.30999997e-01,
          3.07000011e-01, -9.76999998e-01, -1.92000002e-01,
          -4.60999995e-01, 2.17999995e-01, -6.15999997e-01,
          -2.84000009e-01, -4.04000014e-01, 7.59999976e-02,
          -3.81999999e-01, -8.99999961e-03, -1.14000000e-01,
          8.29999968e-02 ]
      - [ -8.09000015e-01, 2.28299999e+00, 2.89999992e-02,
          5.40000021e-01, -1.40499997e+00, 5.35000026e-01,
          -2.40000002e-02, 3.23000014e-01, -4.86999989e+00,
          1.46800005e+00, 1.60000008e-02, 9.75000024e-01,
          -7.14999974e-01, -6.14000022e-01, -6.43999994e-01,
          2.19999999e-02, -2.56399989e+00, -2.38899994e+00,
          -2.50699997e+00, 3.99999991e-02, -2.37899995e+00,
          -2.26200008e+00, -2.31299996e+00, 2.40000002e-02,
          -1.44799995e+00, 8.80999982e-01, -5.40000014e-02,
          3.12000006e-01, -1.50100005e+00, 1.96700001e+00,
          -7.00000022e-03, 5.10999978e-01, -3.97600007e+00,
          9.44999993e-01, -4.60000001e-02, 1.00800002e+00,
          -3.79000008e-01, -1.12999998e-01, -2.91999996e-01,
          7.00000003e-02, 3.79999995e-01, 8.65999997e-01, 5.41999996e-01,
          1.50000006e-01, -2.96999991e-01, -2.13000000e-01,
          -2.56999999e-01, 2.60000005e-02 ]
      - [ -5.15999973e-01, 2.58400011e+00, 3.40000004e-01,
          8.32000017e-01, -9.62000012e-01, 2.22900009e+00,
          -2.07000002e-01, 7.42999971e-01, -1.34300005e+00,
          4.09000009e-01, -3.09999995e-02, 3.49999994e-01,
          -1.06700003e+00, -1.01999998e-01, -6.26999974e-01,
          3.91999990e-01, -2.08000004e-01, 3.08299994e+00,
          1.42700005e+00, 1.23199999e+00, -6.93000019e-01,
          7.63999999e-01, -1.87999994e-01, 3.82999986e-01,
          -1.43599999e+00, -5.29999994e-02, -4.19999987e-01,
          4.04000014e-01, -6.01999998e-01, 2.09999993e-01,
          -2.31999993e-01, 2.22000003e-01, -7.83999979e-01,
          5.66999972e-01, -1.30000003e-02, 4.02000010e-01,
          -8.24999988e-01, -4.37999994e-01, -5.58000028e-01,
          1.08000003e-01, 6.25999987e-01, 1.22300005e+00, 8.33999991e-01,
          2.03999996e-01, -3.70000005e-01, 9.33000028e-01,
          1.49000004e-01, 4.76999998e-01 ]
      - [ -1.64699996e+00, 2.11400008e+00, 7.00000022e-03,
          5.60999990e-01, -1.57400000e+00, 6.01000011e-01,
          3.50000001e-02, 3.21000010e-01, -5.80200005e+00,
          1.78199995e+00, 4.80000004e-02, 1.04200006e+00, 4.60000001e-02,
          1.80999994e-01, 1.15999997e-01, 3.99999991e-02,
          -7.96000004e-01, -5.82000017e-01, -6.85999990e-01,
          7.59999976e-02, -3.40000004e-01, -1.29999995e-01,
          -2.02999994e-01, 5.49999997e-02, -2.69199991e+00,
          2.05800009e+00, -1.40000004e-02, 7.00999975e-01,
          -1.05499995e+00, 1.79499996e+00, 3.29999998e-02,
          3.77000004e-01, -5.47399998e+00, 2.58200002e+00,
          5.90000004e-02, 1.11800003e+00, -5.15999973e-01,
          -3.21000010e-01, -4.41000015e-01, 5.40000014e-02,
          1.27100003e+00, 1.43799996e+00, 1.36099994e+00, 4.69999984e-02,
          2.98000008e-01, 7.59999990e-01, 6.20999992e-01, 1.43000007e-01 ]
      - [ -4.69999999e-01, 2.88700008e+00, 5.09999990e-02,
          5.45000017e-01, -6.75999999e-01, 2.21499991e+00,
          1.60000008e-02, 3.89999986e-01, -4.26599979e+00,
          9.85000014e-01, -3.09999995e-02, 8.76999974e-01,
          -7.16000021e-01, -5.46000004e-01, -6.43999994e-01,
          5.49999997e-02, -1.35699999e+00, -1.10000002e+00,
          -1.23899996e+00, 6.80000037e-02, -6.52000010e-01,
          -5.28999984e-01, -6.03999972e-01, 3.79999988e-02,
          -3.45499992e+00, 3.40999991e-01, -7.69999996e-02,
          5.66999972e-01, -2.30599999e+00, 2.20199990e+00,
          2.19999999e-02, 6.37000024e-01, -4.89900017e+00,
          1.27100003e+00, -3.70000005e-02, 9.63000000e-01,
          -6.52999997e-01, -5.12000024e-01, -5.79999983e-01,
          3.99999991e-02, 9.07000005e-01, 1.23699999e+00, 1.07400000e+00,
          8.90000015e-02, 3.42000008e-01, 5.23000002e-01, 4.21000004e-01,
          4.50000018e-02 ]
      - [ -5.79999983e-01, 1.90900004e+00, 1.70000009e-02,
          4.51000005e-01, -1.71300006e+00, 4.95000005e-01,
          -1.40000004e-02, 3.07000011e-01, -5.19700003e+00,
          1.05299997e+00, 8.99999961e-03, 8.43999982e-01,
          -6.94000006e-01, -6.09000027e-01, -6.38000011e-01,
          2.19999999e-02, -2.54299998e+00, -2.41100001e+00,
          -2.49600005e+00, 2.89999992e-02, -2.34699988e+00,
          -2.25600004e+00, -2.29800010e+00, 1.70000009e-02,
          -1.00999999e+00, 5.04999995e-01, -4.50000018e-02,
          2.39999995e-01, -9.36999977e-01, 1.80999994e+00,
          1.49999997e-02, 3.81000012e-01, -3.44000006e+00,
          8.94999981e-01, -4.60000001e-02, 8.41000021e-01,
          -4.93999988e-01, -2.01000005e-01, -3.72000009e-01,
          8.50000009e-02, 3.75999987e-01, 7.91000009e-01, 5.36000013e-01,
          1.43000007e-01, -2.43000001e-01, -1.48000002e-01,
          -2.04999998e-01, 3.29999998e-02 ]
      - [ -8.14000010e-01, 7.88999975e-01, -3.12000006e-01,
          3.95000011e-01, -9.73999977e-01, 3.72999996e-01,
          -2.22000003e-01, 4.09000009e-01, -8.08000028e-01,
          9.72000003e-01, -1.89999994e-02, 5.04999995e-01,
          -8.65000010e-01, -6.52999997e-01, -7.26999998e-01,
          5.49999997e-02, -3.60000014e-01, 1.60999998e-01,
          -3.70000005e-02, 1.74999997e-01, -3.47999990e-01,
          4.23999995e-01, 1.36000007e-01, 2.82000005e-01,
          -1.58299994e+00, 1.93000004e-01, -3.93000007e-01,
          4.11000013e-01, -4.30999994e-01, 4.90000010e-01,
          3.50000001e-02, 2.45000005e-01, -6.90999985e-01,
          5.60000017e-02, -2.50000000e-01, 1.80000007e-01,
          -2.14000002e-01, 3.88000011e-01, 1.23000003e-01,
          2.04999998e-01, -4.51999992e-01, 1.09300005e+00,
          2.29000002e-01, 5.46000004e-01, -2.87999988e-01,
          1.38800001e+00, 2.61999995e-01, 6.43999994e-01 ]
      - [ -3.95000011e-01, 6.66999996e-01, 1.12000003e-01,
          2.66999990e-01, -4.39999998e-01, 5.28999984e-01,
          1.63000003e-01, 2.22000003e-01, -3.10999990e-01,
          5.83000004e-01, 1.12000003e-01, 2.34999999e-01, 3.74000013e-01,
          1.41400003e+00, 9.50999975e-01, 2.24999994e-01,
          -1.55400002e+00, 2.02500010e+00, 1.18799996e+00,
          9.06000018e-01, -1.04200006e+00, -1.63000003e-01,
          -8.84999990e-01, 2.31999993e-01, -1.10800004e+00,
          2.11999997e-01, -3.01999986e-01, 2.50000000e-01,
          -1.00100005e+00, 5.40000021e-01, 2.23000005e-01,
          3.16000015e-01, -6.44999981e-01, 9.12999988e-01,
          4.32999998e-01, 3.58999997e-01, -8.20999980e-01,
          1.10800004e+00, 2.11999997e-01, 6.01999998e-01,
          -1.56700003e+00, 9.50999975e-01, -1.37000000e+00,
          3.95999998e-01, 4.23000008e-01, 1.01600003e+00, 7.50000000e-01,
          2.02000007e-01 ]
      - [ -5.15999973e-01, 1.60099995e+00, 3.79999988e-02,
          3.10999990e-01, -3.82699990e+00, 2.29699993e+00,
          -1.40000004e-02, 6.97000027e-01, -3.70400000e+00,
          1.09300005e+00, -3.40000018e-02, 8.36000025e-01,
          -2.96999991e-01, -8.79999995e-02, -2.21000001e-01,
          4.60000001e-02, -6.48999989e-01, -1.72000006e-01,
          -3.74000013e-01, 1.51999995e-01, -6.80000007e-01,
          -6.29999995e-01, -6.51000023e-01, 1.60000008e-02,
          -9.59999979e-01, 2.19999999e-01, -2.00000009e-03,
          2.07000002e-01, -6.75000012e-01, 7.25000024e-01,
          -6.00000005e-03, 1.72999993e-01, -7.72000015e-01,
          5.13399982e+00, -1.40000004e-02, 8.00999999e-01,
          -9.00000036e-02, -2.70000007e-02, -6.19999990e-02,
          1.60000008e-02, -1.00000005e-03, 1.37999997e-01,
          6.19999990e-02, 3.99999991e-02, -8.29999983e-01,
          -7.91000009e-01, -8.08000028e-01, 1.49999997e-02 ]
      - [ -8.55000019e-01, 2.12899995e+00, 1.79999992e-02,
          4.25000012e-01, -1.30100000e+00, 9.49999988e-01,
          -6.00000005e-03, 3.79000008e-01, -4.83099985e+00,
          1.90699995e+00, 4.39999998e-02, 1.14100003e+00,
          -9.21000004e-01, -7.08999991e-01, -7.68000007e-01,
          5.00000007e-02, -2.93000007e+00, -2.54900002e+00,
          -2.77200007e+00, 1.27000004e-01, -1.87199998e+00,
          -1.65199995e+00, -1.81400001e+00, 5.90000004e-02,
          -6.77999973e-01, 5.89999974e-01, -5.60000017e-02,
          2.11999997e-01, -8.14999998e-01, 2.39199996e+00,
          -7.10000023e-02, 7.97999978e-01, -1.97000003e+00,
          4.28000003e-01, 7.40000010e-02, 3.88000011e-01,
          -9.15000021e-01, -4.74000007e-01, -6.93000019e-01,
          1.56000003e-01, 8.08000028e-01, 1.03400004e+00, 9.39000010e-01,
          8.20000023e-02, 6.21999979e-01, 8.22000027e-01, 7.25000024e-01,
          6.49999976e-02 ]
      - [ -1.09300005e+00, 8.27000022e-01, 3.59999985e-02,
          2.82000005e-01, -1.55400002e+00, 1.06799996e+00,
          -6.00000005e-03, 3.45999986e-01, -7.99000025e-01,
          3.56699991e+00, 1.31999999e-01, 9.29000020e-01, 3.23000014e-01,
          4.07000005e-01, 3.68000001e-01, 1.79999992e-02, 4.99999989e-03,
          2.28000000e-01, 6.80000037e-02, 4.19999994e-02,
          -1.07599998e+00, -1.01800001e+00, -1.06299996e+00,
          1.20000001e-02, -2.70700002e+00, 2.48000002e+00,
          -3.59999985e-02, 6.37000024e-01, -1.19700003e+00,
          4.18200016e+00, 1.33000001e-01, 9.44999993e-01,
          -2.23799992e+00, 4.90399981e+00, 1.94000006e-01,
          1.09399998e+00, -6.48999989e-01, -3.93000007e-01,
          -5.60000002e-01, 6.19999990e-02, 2.16100001e+00,
          2.73000002e+00, 2.59999990e+00, 1.19999997e-01,
          -1.10099995e+00, -8.62999976e-01, -9.73999977e-01,
          4.69999984e-02 ]
      - [ -1.01000004e-01, 2.40999997e-01, 9.09999982e-02,
          9.20000002e-02, -6.15000010e-01, 3.65000010e-01,
          -1.36999995e-01, 2.39999995e-01, -3.00000012e-01,
          5.28999984e-01, 3.20000015e-02, 2.23000005e-01,
          -1.03299999e+00, -4.79000002e-01, -6.63999975e-01,
          1.62000000e-01, -1.49899995e+00, -7.26999998e-01,
          -8.39999974e-01, 1.57000005e-01, -1.00199997e+00,
          -3.89999986e-01, -5.18999994e-01, 1.58999994e-01,
          -6.10000007e-02, 7.10000023e-02, 1.30000003e-02,
