%YAML:1.0
---
opencv_ml_svm:
   format: 3
   svmType: C_SVC
   kernel:
      type: RBF
      gamma: 2.2500000000000003e-03
   C: 1.2500000000000000e+01
   term_criteria: { epsilon:1.1920928955078125e-07, iterations:1000 }
   var_count: 64
   class_count: 2
   class_labels: !!opencv-matrix
      rows: 2
      cols: 1
      dt: i
      data: [ 0, 1 ]
   sv_total: 102
   support_vectors:
      - [ 5.66430092e-02, -1.44852772e-01, -4.17847298e-02,
          7.37065822e-02, 1.36510924e-01, -1.21372320e-01,
          -1.51310000e-03, 8.97638872e-02, 2.99036533e-01,
          -2.95810074e-01, 2.91620567e-02, 1.66940674e-01,
          9.77018237e-01, -9.77627516e-01, -3.78497392e-02,
          9.73964214e-01, 2.01659918e-01, -2.14463890e-01,
          -2.57665571e-03, 1.97092399e-01, 3.00333239e-02,
          -3.20610707e-03, 9.59326327e-03, 9.48892999e-03,
          1.68345720e-02, -4.03516069e-02, -2.27989610e-02,
          1.41967246e-02, 4.32175308e-01, 3.24126482e-01, 3.95924479e-01,
          2.85462122e-02, 1.24730393e-01, -2.45808065e-01,
          -3.63218114e-02, 1.15967356e-01, 3.12274069e-01,
          -1.05346665e-01, 6.62911907e-02, 9.45099294e-02,
          1.98046967e-01, -2.44281933e-01, -2.43770778e-02,
          1.26957461e-01, 9.97066140e-01, 9.86259520e-01, 9.91234004e-01,
          4.33717808e-03, 8.83857608e-02, -2.12316979e-02,
          5.35757914e-02, 3.55368964e-02, -4.50244211e-02,
          -1.40005276e-01, -1.04797289e-01, 3.32575701e-02,
          2.87068427e-01, 9.31673646e-02, 2.11381674e-01, 6.79949448e-02,
          3.52688730e-02, -1.80769518e-01, -1.08443871e-01,
          6.83595836e-02 ]
      - [ 1.01388797e-01, -1.41136736e-01, 6.67177886e-03,
          6.49720132e-02, 1.36510924e-01, -1.21372320e-01,
          2.54586022e-02, 8.09344873e-02, 1.90330416e-01,
          -2.95810074e-01, 6.61260402e-03, 1.45810783e-01,
          9.77018237e-01, -9.74355876e-01, 4.30174172e-01,
          8.74829590e-01, 2.01659918e-01, -2.22715199e-01,
          -9.67762619e-02, 1.83889955e-01, 1.69953350e-02,
          -3.20610707e-03, 6.94451341e-03, 6.05807640e-03,
          -1.80461407e-02, -4.03516069e-02, -2.67148763e-02,
          7.86683336e-03, 4.49859649e-01, 3.81745964e-01, 4.17838693e-01,
          1.78185292e-02, 1.24730393e-01, -2.45808065e-01,
          -4.28069197e-02, 1.19049445e-01, 2.66051203e-01,
          -1.05346665e-01, 3.24735194e-02, 9.20851901e-02,
          2.10157096e-01, -2.44281933e-01, 1.74119249e-02,
          1.50233552e-01, 9.96812701e-01, 9.82000172e-01, 9.88390625e-01,
          3.77320708e-03, 8.83857608e-02, 2.14103460e-02, 7.18734264e-02,
          1.83736347e-02, -7.14272708e-02, -1.40005276e-01,
          -1.20956756e-01, 1.82214752e-02, 2.87068427e-01,
          1.41817436e-01, 2.40645245e-01, 3.81635055e-02,
          -4.67450097e-02, -1.81330219e-01, -1.48777902e-01,
          3.85502316e-02 ]
      - [ 1.41195536e-01, -9.52822492e-02, 3.70401815e-02,
          5.38179278e-02, 1.36510924e-01, -1.24257959e-01,
          3.06814481e-02, 7.98085928e-02, 1.90330416e-01,
          -2.95810074e-01, 3.83173837e-03, 1.45349964e-01,
          9.77018237e-01, -9.74355876e-01, 6.63623154e-01,
          7.14349329e-01, 2.01659918e-01, -2.28325859e-01,
          -1.47387415e-01, 1.51866630e-01, 1.49097871e-02,
          -3.20610707e-03, 6.70245709e-03, 5.75867807e-03,
          -5.10026095e-03, -4.03516069e-02, -2.57963128e-02,
          8.89291242e-03, 4.61358815e-01, 3.97112489e-01, 4.25626844e-01,
          1.93242151e-02, 1.24730393e-01, -2.45808065e-01,
          -2.59353053e-02, 1.24979064e-01, 2.66051203e-01,
          -9.50065926e-02, 1.99620780e-02, 9.36102197e-02,
          2.10157096e-01, -2.44281933e-01, 1.92540735e-02,
          1.51190892e-01, 9.94751453e-01, 9.78522480e-01, 9.86450672e-01,
          3.44284507e-03, 8.83857608e-02, 4.15902995e-02, 7.76352361e-02,
          8.95259157e-03, -9.33403149e-02, -1.40005276e-01,
          -1.26285300e-01, 1.01398770e-02, 2.87068427e-01,
          1.87047556e-01, 2.48998210e-01, 2.45516151e-02,
          -8.37310702e-02, -1.88357323e-01, -1.63786888e-01,
          2.14861799e-02 ]
      - [ 4.11055624e-01, -2.08300397e-01, 6.55303150e-02,
          1.38937801e-01, 5.27266383e-01, -3.80564809e-01,
          -7.88778067e-03, 1.89857244e-01, 3.98706049e-01,
          -2.12975353e-01, 8.77347067e-02, 1.42702669e-01,
          5.14297009e-01, 4.13778782e-01, 4.80854571e-01, 2.78463773e-02,
          -6.91274881e-01, -7.69907296e-01, -7.14638889e-01,
          2.03093663e-02, 3.31843823e-01, 1.92839339e-01, 2.43904442e-01,
          5.04829697e-02, -1.66008496e+00, -2.02980828e+00,
          -1.73688591e+00, 1.12754315e-01, 5.84438324e-01,
          4.11572188e-01, 4.95062262e-01, 6.51946738e-02, 2.27118712e-02,
          -1.98718742e-01, -6.24554120e-02, 5.61104380e-02,
          4.58745927e-01, -2.18594626e-01, -2.99096853e-03,
          1.38225794e-01, 3.82266432e-01, -2.90721327e-01,
          1.17718782e-02, 1.74101129e-01, 5.51890790e-01, 4.59309518e-01,
          4.98519033e-01, 2.32539792e-02, -6.86252773e-01,
          -7.46784866e-01, -7.18645036e-01, 1.23187611e-02,
          -1.39574856e-01, -2.37311527e-01, -1.68840826e-01,
          2.80187987e-02, 1.83501422e+00, 1.57728636e+00, 1.68071032e+00,
          5.91667071e-02, 6.47678912e-01, 5.09179354e-01, 5.99456191e-01,
          4.99261282e-02 ]
      - [ 3.09175819e-01, -2.41903022e-01, 8.55984390e-02,
          1.39762104e-01, 3.22857946e-01, -3.80127043e-01,
          -3.34437974e-02, 1.65075764e-01, 7.80127347e-01,
          8.24131072e-02, 3.99425447e-01, 1.51562527e-01, 2.84529299e-01,
          2.09894910e-01, 2.39493310e-01, 2.44579967e-02,
          -6.30318940e-01, -6.89291000e-01, -6.70982003e-01,
          1.71767008e-02, 4.77479994e-02, -3.07498500e-02,
          2.29603387e-02, 2.35688034e-02, -1.34654963e+00,
          -1.52428067e+00, -1.46814597e+00, 5.20953946e-02,
          4.14867193e-01, 2.29850173e-01, 2.93554574e-01, 5.88097945e-02,
          5.30139446e-01, -1.63213417e-01, 1.84704691e-01,
          1.89621449e-01, 9.84323919e-01, 2.77186900e-01, 5.67640603e-01,
          2.05017924e-01, 7.32982755e-01, -1.58667006e-02,
          2.00575709e-01, 1.54725686e-01, 7.12371111e-01, 6.37002289e-01,
          6.59457326e-01, 1.79790612e-02, -5.83382785e-01,
          -6.33782923e-01, -6.22529864e-01, 1.24995979e-02,
          -2.95010090e-01, -3.90220821e-01, -3.59071970e-01,
          2.88763605e-02, 1.68463778e+00, 1.50159991e+00, 1.61628807e+00,
          5.06714731e-02, 8.30505252e-01, 6.82332039e-01, 7.31928766e-01,
          3.94037925e-02 ]
      - [ 2.92681485e-01, -1.54141411e-01, 9.81252734e-03,
          1.03889398e-01, 5.44550121e-01, -1.91244200e-01,
          3.55676562e-02, 1.27206206e-01, 4.78513002e-01,
          -4.91584808e-01, -8.31721257e-03, 1.88596085e-01,
          1.12516367e+00, -6.26078844e-01, 8.07511806e-02,
          4.00685728e-01, 6.59636259e-01, -6.05496883e-01,
          4.50848490e-02, 3.66905212e-01, 4.34097052e-01,
          -2.30715290e-01, 1.01619832e-01, 1.44489765e-01,
          -2.69614244e+00, -2.78389549e+00, -2.75201225e+00,
          2.83527095e-02, -4.97074753e-01, -5.83946228e-01,
          -5.41779399e-01, 2.32184939e-02, 3.13060373e-01,
          -5.96168220e-01, -6.45336555e-03, 1.65039271e-01,
          5.08708775e-01, -4.09998626e-01, -4.92359558e-03,
          2.06234232e-01, 3.15648884e-01, -8.45909834e-01,
          -5.51959053e-02, 2.99968779e-01, 1.80986321e+00,
          -2.23031569e+00, -3.15509886e-01, 6.31839633e-01,
          5.66107690e-01, -1.14299977e+00, -2.89719820e-01,
          4.22582388e-01, 6.59409106e-01, -5.13145626e-01,
          1.61357373e-01, 2.70719498e-01, 5.07528603e-01, 4.22903359e-01,
          4.73170906e-01, 2.28822939e-02, -6.25779748e-01,
          -7.30849922e-01, -6.80524468e-01, 3.61154601e-02 ]
      - [ 3.56672406e-01, -1.48353159e-01, 3.67763080e-03,
          1.20406613e-01, 6.74549341e-01, -1.23680048e-01,
          3.52125019e-02, 1.31795689e-01, 4.58546698e-01,
          -7.22086489e-01, -3.60486144e-03, 2.21072122e-01,
          1.55207169e+00, -1.16329157e+00, 6.24536611e-02,
          5.02741992e-01, 1.01379943e+00, -9.98369157e-01,
          6.44962788e-02, 4.88406897e-01, 4.78914499e-01,
          -3.60300660e-01, 5.72694987e-02, 1.99227840e-01,
          -2.69836020e+00, -2.80894709e+00, -2.77055120e+00,
          3.36781107e-02, -5.42457163e-01, -6.24055028e-01,
          -5.75252473e-01, 2.40045302e-02, 2.09696695e-01,
          -5.72072625e-01, 2.02445459e-04, 1.48535341e-01,
          7.56545186e-01, -4.76593643e-01, 1.03888884e-02,
          2.74229795e-01, 4.56940025e-01, -1.10486305e+00,
          -1.19036296e-02, 4.15328771e-01, 7.33854651e-01,
          -1.83103216e+00, -3.78675550e-01, 6.13822937e-01,
          6.87604189e-01, -1.59707582e+00, -4.21855718e-01,
          6.38274729e-01, 6.14735425e-01, -1.11614561e+00,
          -5.13552055e-02, 4.52608556e-01, 6.02760613e-01,
          3.95686299e-01, 4.86559600e-01, 7.93837383e-02,
          -5.64843714e-01, -7.69034207e-01, -6.91274703e-01,
          7.03283623e-02 ]
      - [ 6.35760009e-01, -3.67683738e-01, 8.28942377e-03,
          1.80703625e-01, 4.89332795e-01, -4.72224593e-01,
          4.95588519e-02, 1.59246951e-01, 5.04732192e-01,
          -8.75966370e-01, -1.67166051e-02, 2.72651285e-01,
          9.13655937e-01, -6.58327043e-01, 1.29566118e-01,
          3.17263275e-01, 7.02503324e-01, -6.12169147e-01,
          7.54328370e-02, 3.75362962e-01, 4.43215221e-01,
          -3.29405397e-01, 3.21322456e-02, 1.97093278e-01,
          -2.67577958e+00, -2.78894353e+00, -2.73193336e+00,
          3.08242738e-02, -5.32842636e-01, -5.99800169e-01,
          -5.67460597e-01, 1.81324631e-02, 3.02762717e-01,
          -6.16134942e-01, 4.04591952e-03, 1.52330473e-01,
          5.28688252e-01, -4.09921378e-01, -2.18461305e-02,
          2.51431525e-01, 4.25101638e-01, -8.36966753e-01,
          -1.68410353e-02, 3.21968019e-01, 9.66499865e-01,
          -2.52282786e+00, -4.23604578e-01, 6.32445335e-01,
          8.26149285e-01, -1.39806890e+00, -3.16924840e-01,
          5.95604837e-01, 1.01271546e+00, -5.59992254e-01,
          9.69201848e-02, 3.47161531e-01, 5.73923290e-01, 4.32047814e-01,
          5.12626767e-01, 4.04222794e-02, -5.43521404e-01,
          -7.07635999e-01, -6.32387877e-01, 4.75564599e-02 ]
      - [ 2.88844883e-01, -2.08714142e-01, 2.42720038e-04,
          1.25389531e-01, 5.44177651e-01, -3.62783551e-01,
          4.40764986e-02, 1.79664373e-01, 3.46407115e-01,
          -4.64838088e-01, -8.83754808e-03, 1.70320883e-01,
          1.13638568e+00, -8.81211221e-01, 3.03466357e-02,
          4.68723446e-01, 7.35699832e-01, -5.74271441e-01,
          1.02382906e-01, 3.18225950e-01, 3.72243613e-01,
          -2.08250284e-01, 5.65148704e-02, 1.63691834e-01,
          -2.67897749e+00, -2.77465963e+00, -2.73192525e+00,
          2.74580065e-02, -5.68714738e-01, -6.34236515e-01,
          -5.95152974e-01, 1.70387067e-02, 1.73263386e-01,
          -2.96321720e-01, -8.06547236e-03, 1.06392361e-01,
          4.95435804e-01, -4.15270686e-01, -1.09525584e-02,
          1.98119089e-01, 3.33456486e-01, -6.31742001e-01,
          -2.87714582e-02, 2.70265996e-01, 3.62561911e-01,
          -1.52734995e+00, -3.82170171e-01, 3.68382066e-01,
          4.28030103e-01, -1.09515548e+00, -1.94131017e-01,
          4.25687551e-01, 5.04113674e-01, -2.74604380e-01,
          4.38634530e-02, 1.82360515e-01, 5.01360774e-01, 4.12697315e-01,
          4.66117799e-01, 2.66692825e-02, -5.77839434e-01,
          -7.43220150e-01, -6.62922978e-01, 5.23615405e-02 ]
      - [ 1.42440513e-01, -1.27443060e-01, -3.85261304e-03,
          7.39379227e-02, 2.15100199e-01, -6.80586278e-01,
          5.86195663e-02, 1.66753888e-01, 6.00217640e-01,
          -2.99504101e-01, 1.46571472e-02, 1.85334772e-01,
          6.13376141e-01, -6.54627025e-01, -1.76487956e-02,
          3.64202738e-01, 5.83442986e-01, -4.32477593e-01,
          1.29718646e-01, 2.73489952e-01, 7.40200400e-01,
          -4.38839078e-01, -2.79950239e-02, 3.35469216e-01,
          -6.58677742e-02, -1.48346767e-01, -1.10337630e-01,
          2.26732288e-02, 1.95011303e-01, 1.04198940e-01, 1.51947826e-01,
          2.63520740e-02, 2.61611164e-01, -8.99773419e-01,
          -1.82775240e-02, 1.80507898e-01, 7.02897847e-01,
          -4.79542881e-01, -3.78354788e-02, 2.24941671e-01,
          3.51939350e-01, -1.16949761e+00, -1.55803636e-02,
          4.10151273e-01, 1.26363385e+00, -2.09205174e+00,
          -3.62556458e-01, 5.36272407e-01, 3.18011701e-01,
          -2.42297721e+00, -4.96779919e-01, 7.37425566e-01,
          1.45887017e-01, -7.84589529e-01, -2.30764374e-01,
          2.43805245e-01, 6.97245300e-01, 4.39888746e-01, 5.47504067e-01,
          1.01888798e-01, -4.85105485e-01, -7.00615704e-01,
          -5.86984634e-01, 7.76287541e-02 ]
      - [ 3.87821317e-01, -1.31870806e-01, 9.59349871e-02,
          1.29585728e-01, 1.36112124e-01, -7.51347482e-01,
          -1.16926469e-01, 1.63914993e-01, 8.64911377e-01,
          -4.12803978e-01, 2.68800426e-02, 2.71685094e-01,
          6.65008664e-01, -4.81323481e-01, -1.53199676e-02,
          3.42697471e-01, 4.07087654e-01, -5.07496655e-01,
          -2.97231060e-02, 2.33929172e-01, 6.11371219e-01,
          -5.91797829e-01, 8.16539302e-02, 3.58778954e-01,
          -9.38396901e-02, -1.45682663e-01, -1.19107358e-01,
          1.46279726e-02, -1.19480537e-02, -9.90963206e-02,
          -4.39843871e-02, 2.29198989e-02, 1.96059555e-01,
          -5.99252701e-01, 1.59548633e-02, 1.58070207e-01,
          5.41150868e-01, -5.77161729e-01, 1.54034318e-02,
          2.33953729e-01, 7.40473747e-01, -7.60836959e-01,
          4.34691906e-02, 3.15847874e-01, 9.39074755e-01,
          -1.51675272e+00, -1.63294617e-02, 5.07222891e-01,
          2.18319938e-01, -2.21965671e+00, -4.48502809e-01,
          6.65026546e-01, 3.26205373e-01, -4.69306678e-01,
          -2.16030758e-02, 1.66141301e-01, 6.55370653e-01,
          4.07182008e-01, 5.20074844e-01, 1.02351561e-01,
          -5.86097240e-01, -6.68894649e-01, -6.31382823e-01,
          2.18663868e-02 ]
      - [ 2.13883847e-01, -8.18087086e-02, 2.91651697e-03,
          7.14400485e-02, 2.63375193e-01, -7.88970590e-01,
          -8.00827220e-02, 1.78053573e-01, 3.22186887e-01,
          -4.92112070e-01, -1.30030923e-02, 1.83501929e-01,
          4.59899247e-01, -3.48200023e-01, -1.24771018e-02,
          2.29212940e-01, 4.40505952e-01, -5.41082144e-01,
          -2.84061208e-02, 2.68133700e-01, 2.75802851e-01,
          -4.53632236e-01, -2.15869963e-01, 2.14109525e-01,
          -7.76890889e-02, -1.44381866e-01, -1.08699486e-01,
          1.88616738e-02, -1.93380956e-02, -7.75427818e-02,
          -4.58203144e-02, 1.87395103e-02, 2.55305082e-01,
          -4.49917108e-01, -2.32848935e-02, 1.35596290e-01,
          5.96425354e-01, -3.22333366e-01, -3.73722310e-03,
          2.01820865e-01, 4.07801658e-01, -8.24144304e-01,
          -5.56092430e-03, 3.33943456e-01, 7.27777481e-01,
          -1.56833315e+00, -1.24610968e-01, 3.94669324e-01,
          3.65437210e-01, -1.74800003e+00, -4.49717045e-01,
          6.72969341e-01, 2.28183582e-01, -6.57890081e-01,
          -2.25908309e-01, 1.77271962e-01, 6.59681082e-01,
          3.56117725e-01, 4.66569424e-01, 1.14071727e-01,
          -5.70903242e-01, -6.66965067e-01, -6.17973924e-01,
          2.89123356e-02 ]
      - [ 1.42243177e-01, -7.83260837e-02, 1.27354516e-02,
          4.55054864e-02, 4.47271436e-01, -5.94121337e-01,
          -5.00911847e-02, 1.92129299e-01, 5.53692341e-01,
          -3.84865016e-01, 3.63593921e-03, 2.27371410e-01,
          8.82634699e-01, -6.34834051e-01, 5.32685816e-02,
          3.67975354e-01, 7.97850132e-01, -3.95516813e-01,
          -1.19279269e-02, 3.41509223e-01, 4.63673204e-01,
          -6.51816428e-01, -2.82239288e-01, 2.51579195e-01,
          -1.02449164e-01, -1.72229365e-01, -1.33193165e-01,
          2.45432016e-02, 4.92073409e-02, -7.04717636e-02,
          -2.70290021e-03, 3.61579694e-02, 2.07151026e-01,
          -6.33421719e-01, -1.79366730e-02, 1.62176937e-01,
          4.28832173e-01, -3.08258861e-01, -1.86824724e-02,
          1.79958910e-01, 4.38578069e-01, -4.31851238e-01,
          -5.01179462e-03, 2.07201928e-01, 8.83792639e-01,
          -1.27628660e+00, -3.13686460e-01, 4.08738703e-01,
          3.01354587e-01, -1.44924557e+00, -3.75947237e-01,
          5.72083533e-01, 4.85748164e-02, -6.58379972e-01,
          -2.68807977e-01, 1.98662356e-01, 6.64679885e-01,
          4.07329172e-01, 5.01670480e-01, 9.38200206e-02,
          -5.40428996e-01, -7.38709688e-01, -6.12757921e-01,
          6.32544532e-02 ]
      - [ 4.43890840e-01, -1.72719598e-01, 8.42320547e-02,
          1.66774601e-01, 3.34184259e-01, -9.47468221e-01,
          -6.22760616e-02, 1.99562654e-01, 9.41681623e-01,
          -4.14919138e-01, 3.16171125e-02, 2.81900525e-01,
          8.50883722e-01, -4.16317075e-01, 1.74816072e-01,
          4.37377632e-01, 4.29156840e-01, -3.64266217e-01,
          5.12905978e-02, 2.35500991e-01, 4.11019683e-01,
          -7.62711644e-01, -6.64322600e-02, 3.86086613e-01,
          -2.08649516e-01, -2.56646007e-01, -2.27478072e-01,
          1.40283331e-02, -1.50396032e-02, -1.82805881e-01,
          -7.34189302e-02, 4.55828272e-02, 2.17495754e-01,
          -7.98428953e-01, -6.99885702e-03, 1.94115728e-01,
          6.45295322e-01, -6.04483366e-01, 1.27714523e-03,
          2.42568091e-01, 1.04756474e+00, -7.86388993e-01,
          4.21820395e-02, 3.28420401e-01, 1.26041198e+00,
          -2.43772149e+00, -7.31322691e-02, 6.83144569e-01,
          3.56215686e-01, -2.17776918e+00, -4.66223419e-01,
          6.79036915e-01, 7.28530645e-01, -3.83127868e-01,
          -4.62888032e-02, 2.94725150e-01, 7.30988741e-01,
          4.62620497e-01, 5.83065987e-01, 1.00595921e-01,
          -5.54088652e-01, -6.75473452e-01, -6.05928719e-01,
          3.21342759e-02 ]
      - [ 6.08851910e-01, -3.80288929e-01, 2.27152370e-02,
          1.95506975e-01, 9.63876069e-01, -2.16335940e+00,
          -3.47253680e-02, 4.92446184e-01, 2.26876825e-01,
          -4.46857214e-01, 1.84308775e-02, 1.82333097e-01,
          2.04093528e+00, -1.02967823e+00, 2.72450149e-01,
          6.74635410e-01, 1.05086398e+00, -1.56937286e-01,
          4.63416696e-01, 4.08153415e-01, 2.88429642e+00,
          -1.35296130e+00, -2.27012321e-01, 8.03872883e-01,
          -3.23148906e-01, -5.34053445e-01, -4.21252847e-01,
          4.11088280e-02, -1.09877193e+00, -1.29712534e+00,
          -1.15127027e+00, 5.21026403e-02, 1.33425936e-01,
          -5.84094763e-01, -6.29457384e-02, 1.46461651e-01,
          3.53266269e-01, -8.90634894e-01, -5.95674515e-02,
          2.28128925e-01, 3.58996660e-01, -1.46737862e+00,
          -2.94109210e-02, 4.06017482e-01, 1.63206446e+00,
          -1.76974750e+00, -1.61637440e-01, 4.91239488e-01,
          3.75060230e-01, -1.95635831e+00, -4.89953876e-01,
          6.94603264e-01, 4.58988428e-01, -7.26742327e-01,
          -4.71841954e-02, 3.41139764e-01, 5.93047202e-01,
          3.34458321e-01, 4.26260859e-01, 9.80703011e-02,
          -3.97699445e-01, -4.77013111e-01, -4.33886349e-01,
          2.73668487e-02 ]
      - [ 4.81601810e+00, -2.87325644e+00, 1.41324267e-01,
          1.14602935e+00, 6.19128084e+00, -1.45745897e+01,
          6.13115132e-02, 2.29147315e+00, 4.24703598e+00,
          -6.25302601e+00, -4.18276042e-02, 1.40521145e+00,
          2.24979477e+01, -1.31138000e+01, 8.56335610e-02,
          4.59068251e+00, 3.02264118e+00, -2.96568418e+00,
          5.80422997e-01, 1.42007101e+00, 7.34252644e+00,
          -5.55629396e+00, -5.36994100e-01, 2.46035099e+00,
          -5.63026071e-01, -8.53940070e-01, -7.47100174e-01,
          5.08432128e-02, -5.31499565e-01, -1.04327583e+00,
          -8.53698432e-01, 1.17605112e-01, 2.68105412e+00,
          -4.44024229e+00, -2.73663193e-01, 9.95076001e-01,
          4.68574333e+00, -1.29849410e+00, 9.75084081e-02,
          8.46119046e-01, 2.04970527e+00, -9.15655136e+00,
          -6.46134652e-03, 1.99692190e+00, 2.40615630e+00,
          -5.56283665e+00, -8.94842684e-01, 1.82554936e+00,
          1.79518259e+00, -8.11364269e+00, -1.37011814e+00,
          2.41021705e+00, 2.88260174e+00, -4.47169733e+00,
          -1.59338102e-01, 1.40329671e+00, 1.28441978e+00,
          6.03637457e-01, 8.52658987e-01, 2.68270135e-01, 1.72508683e-03,
          -4.97139156e-01, -2.80349702e-01, 1.97018012e-01 ]
      - [ 3.08611465e+00, -1.48322737e+00, 2.71230221e-01,
          6.94718421e-01, 6.50563669e+00, -1.45224724e+01,
          -1.56846698e-02, 2.41862488e+00, 2.59498334e+00,
          -4.42986202e+00, -2.42277868e-02, 1.06636667e+00,
          2.02505341e+01, -1.51976576e+01, -5.89514966e-04,
          4.12218332e+00, 4.05229998e+00, -1.49884665e+00,
          5.23759425e-01, 1.33465302e+00, 6.86344433e+00,
          -4.52389812e+00, -7.06945062e-01, 2.19047570e+00,
          -2.53046930e-01, -8.30692768e-01, -5.61632276e-01,
          1.39267206e-01, -8.37000728e-01, -1.22286665e+00,
          -1.03352368e+00, 9.68337804e-02, 5.41443944e-01,
          -1.37553716e+00, -3.23257238e-01, 4.11127955e-01,
          1.42512331e+01, -3.59774303e+00, 9.49112996e-02,
          2.31501055e+00, 2.19403052e+00, -5.40437031e+00,
          -3.20693105e-02, 1.00782621e+00, 7.83965302e+00,
          -5.84488440e+00, -4.47274208e-01, 2.18265986e+00,
          3.37355065e+00, -2.21213341e+00, -3.65574896e-01,
          1.23844099e+00, 3.08503294e+00, -6.80842161e+00,
          -3.88173908e-01, 3.07967186e+00, 1.39735448e+00,
          9.73053515e-01, 1.22883677e+00, 1.13235384e-01,
          -3.24098766e-01, -1.06796360e+00, -7.56464124e-01,
          2.71487415e-01 ]
      - [ 3.00453949e+00, -1.08828628e+00, 2.35800818e-01,
          7.04995215e-01, 4.85902929e+00, -8.50551510e+00,
          4.64526005e-02, 1.89471948e+00, 2.45750093e+00,
          -3.07637715e+00, 1.99415744e-03, 8.40533793e-01,
          1.45681963e+01, -1.46739235e+01, 2.45075271e-01,
          3.44783783e+00, 3.33155155e+00, -1.39772820e+00,
          7.38053679e-01, 1.56825423e+00, 5.93640471e+00,
          -4.95426893e+00, -7.73543656e-01, 2.38257813e+00,
          -2.50777036e-01, -6.47891521e-01, -4.68660802e-01,
          1.19731978e-01, -7.82618761e-01, -1.21978211e+00,
          -9.76640344e-01, 1.26230568e-01, 8.75449181e-01,
          -1.76464295e+00, -2.15352044e-01, 4.54351753e-01,
          1.47794752e+01, -4.22035313e+00, 1.18117392e-01,
          2.45296216e+00, 2.69082093e+00, -4.17783356e+00,
          3.92873250e-02, 1.02208018e+00, 1.57510767e+01,
          -9.67381477e+00, -1.18949938e+00, 3.63678551e+00,
          2.94845510e+00, -5.46565819e+00, -6.94376647e-01,
          1.33288121e+00, 4.20305967e+00, -6.01303911e+00,
          -8.18739057e-01, 2.65416026e+00, 1.42265797e+00,
          1.11374164e+00, 1.34575307e+00, 6.46167025e-02,
          -2.43893459e-01, -1.03736186e+00, -7.42494464e-01,
          2.80718595e-01 ]
      - [ 2.97276592e+00, -2.31438923e+00, 1.46494448e-01,
          9.18545604e-01, 4.63104200e+00, -1.20877237e+01,
          5.70590533e-02, 2.24152470e+00, 4.97030640e+00,
          -2.02839065e+00, 1.54155359e-01, 8.92845035e-01,
          1.37898521e+01, -1.95018044e+01, 4.45491463e-01,
          5.08272266e+00, 5.56217623e+00, -3.78061223e+00,
          3.74719620e-01, 1.28509450e+00, 1.29736938e+01,
          -1.16512241e+01, -1.21711111e+00, 3.23185325e+00,
          5.42020559e-01, -3.04246336e-01, -3.92273553e-02,
          2.38355041e-01, -5.97780585e-01, -1.01609015e+00,
          -8.60888600e-01, 9.05082375e-02, 1.33395207e+00,
          -2.67883158e+00, -2.85412163e-01, 6.26529694e-01,
          6.98836803e-01, -1.49287426e+00, -1.33205950e-01,
          3.66694033e-01, 1.67569470e+00, -7.72468138e+00,
          1.43609896e-01, 1.62489331e+00, 2.00389719e+00,
          -3.44255781e+00, -2.85425097e-01, 1.19884086e+00,
          2.89193797e+00, -6.60172653e+00, -7.32598841e-01,
          2.41500521e+00, 1.52132010e+00, -3.37274790e+00,
          -8.53497013e-02, 9.84591544e-01, 8.69579732e-01,
          2.59940058e-01, 5.12044966e-01, 2.35011280e-01,
          -3.76823545e-01, -6.68617010e-01, -5.24207056e-01,
          8.87418315e-02 ]
      - [ 3.39939380e+00, -1.53883994e+00, 1.62839279e-01,
          8.56384814e-01, 3.67046881e+00, -1.57635355e+01,
          -7.55226472e-03, 2.40518594e+00, 1.88786280e+00,
          -6.27686977e+00, -1.89991610e-03, 1.02405143e+00,
          1.55563946e+01, -1.65892735e+01, -2.01444775e-01,
          3.75574279e+00, 7.17639112e+00, -2.15589595e+00,
          5.89645803e-01, 1.39543009e+00, 1.08846979e+01,
          -8.44314957e+00, -6.44739568e-01, 3.15211916e+00,
          7.68151432e-02, -4.44316328e-01, -1.66099548e-01,
          1.21573187e-01, -7.92140365e-01, -1.04280305e+00,
          -9.86103356e-01, 5.55762239e-02, 5.12444437e-01,
          -7.73803592e-01, -3.21811557e-01, 3.42394263e-01,
          4.17973328e+00, -1.73639977e+00, 2.42373757e-02,
          1.12084985e+00, 8.08422983e-01, -8.89891803e-01,
          5.45515418e-02, 3.97873342e-01, 1.20081539e+01,
          -1.21471653e+01, -8.16930711e-01, 4.63559771e+00,
          2.63240337e+00, -2.68991518e+00, -4.60530758e-01,
          1.30855322e+00, 1.80016994e+00, -6.73501635e+00,
          -1.27725887e+00, 2.26167941e+00, 2.58034801e+00,
          1.63132989e+00, 2.08058190e+00, 3.49484056e-01,
          -4.49082136e-01, -9.02180195e-01, -6.29263103e-01,
          1.42865226e-01 ]
      - [ 5.40036619e-01, -1.62628800e-01, 1.03985593e-01,
          2.24415600e-01, 5.72088182e-01, -6.31244957e-01,
          -7.83168420e-04, 3.44189942e-01, 4.16984558e-01,
          -2.34150127e-01, 1.21874452e-01, 1.54422954e-01,
          -7.61755526e-01, -8.49356890e-01, -8.04257333e-01,
          2.91412417e-02, -4.05719608e-01, -5.83855927e-01,
          -5.08139729e-01, 6.24138787e-02, -1.04095519e-01,
          -2.15315372e-01, -1.62733108e-01, 4.09861468e-02,
          -7.53073931e-01, -1.07494307e+00, -8.95910859e-01,
          9.75186825e-02, -6.17700934e-01, -1.03598309e+00,
          -8.37123036e-01, 1.36686906e-01, 3.30314279e-01,
          -3.77032280e-01, -6.36755973e-02, 2.20618278e-01,
          9.30814922e-01, -3.72539341e-01, 8.56870934e-02,
          3.38262618e-01, 1.74246803e-01, -1.50885224e-01,
          1.85393952e-02, 9.23365876e-02, 7.79845774e-01, 6.88158274e-01,
          7.49603033e-01, 2.91752405e-02, 3.45512450e-01, 2.70088881e-01,
          3.12710583e-01, 2.30011959e-02, -4.65983003e-01,
          -5.69471776e-01, -4.99742001e-01, 2.83484403e-02,
          1.31136382e+00, 9.18319106e-01, 1.08382201e+00, 1.10538252e-01,
          -8.01856041e-01, -9.52834666e-01, -8.71582508e-01,
          5.28470501e-02 ]
      - [ 6.26591027e-01, -2.06910715e-01, 2.73592770e-01,
          2.22535983e-01, 4.29802001e-01, -1.71203867e-01,
          3.36098969e-02, 1.77580863e-01, 3.09431225e-01,
          -4.00020421e-01, 3.65394540e-02, 1.76413313e-01,
          -7.30826735e-01, -8.18002999e-01, -7.51536429e-01,
          2.02341359e-02, -8.28762725e-02, -3.21267128e-01,
          -1.87971354e-01, 6.15845956e-02, -4.01688755e-01,
          -4.34062660e-01, -4.14846718e-01, 1.04071684e-02,
          -8.64553392e-01, -1.07822824e+00, -9.40846026e-01,
          7.55124837e-02, 3.09631467e-01, -3.29152733e-01,
          1.03789575e-01, 1.51456460e-01, 1.47690266e-01,
          -3.93373728e-01, -5.74874878e-02, 1.47168085e-01,
          9.57153678e-01, -2.98845619e-01, 5.02321959e-01,
          3.95868957e-01, 4.40624118e-01, -5.57142077e-03,
          2.07352936e-01, 1.26682520e-01, 1.41405180e-01,
          -2.50944227e-01, -1.14002056e-01, 1.15469754e-01,
          6.34356439e-01, 5.88401794e-01, 6.06333911e-01, 1.73753668e-02,
          -2.91655988e-01, -4.01466936e-01, -3.38669777e-01,
          3.77883427e-02, -1.48755944e+00, -1.60949743e+00,
          -1.53751862e+00, 3.76610383e-02, -1.70975402e-01,
          -6.41318917e-01, -3.48612398e-01, 1.47653013e-01 ]
      - [ 2.51229119e+00, -1.67188036e+00, 1.75376773e-01,
          7.22603559e-01, 2.48170400e+00, -1.20602293e+01,
          3.34365144e-02, 1.88217604e+00, 1.47029817e+00,
          -3.08540154e+00, -1.27864406e-02, 6.58514023e-01,
          2.50727940e+01, -1.15601034e+01, -1.55207992e-01,
          5.18402052e+00, 4.90658855e+00, -2.74155879e+00,
          -8.94618779e-02, 1.28068769e+00, 7.72985077e+00,
          -1.02820015e+01, -1.62222242e+00, 2.82420969e+00,
          1.54851508e+00, -2.04753518e+00, -3.42960328e-01,
          1.39393246e+00, -9.72987771e-01, -1.48023331e+00,
          -1.31819952e+00, 1.43598869e-01, 1.19382739e+00,
          -2.99867749e+00, -2.73804694e-01, 7.00516522e-01,
          9.50361729e+00, -2.12352681e+00, -1.30010560e-01,
          1.83728611e+00, 3.51433420e+00, -5.69176531e+00,
          8.96590278e-02, 1.08651459e+00, 1.04343100e+01,
          -7.66619635e+00, -1.01295626e+00, 3.22743225e+00,
          1.88127160e+00, -5.89452124e+00, -1.65329075e+00,
          1.72995794e+00, 5.47137976e+00, -7.96527624e+00,
          -1.20316505e+00, 2.92618656e+00, 1.44900846e+00,
          4.31579947e-01, 9.31139529e-01, 3.23084682e-01,
          -3.78000110e-01, -1.21984136e+00, -8.74446154e-01,
          3.07749659e-01 ]
      - [ 2.17174029e+00, -1.86612689e+00, 8.20322111e-02,
          6.60885215e-01, 2.09038329e+00, -8.57668972e+00,
          1.20538346e-01, 1.44611633e+00, 1.99314785e+00,
          -3.19030619e+00, 1.99662130e-02, 7.31382012e-01,
          2.68591766e+01, -1.33204460e+01, 9.36452970e-02,
          5.53887320e+00, 4.83403683e+00, -2.40450811e+00,
          4.27699149e-01, 1.22626054e+00, 8.27312469e+00,
          -7.84315968e+00, -8.63896728e-01, 2.51331496e+00,
          2.87503958e+00, -3.08755445e+00, -5.09890258e-01,
          2.08008265e+00, -1.25071526e+00, -1.41432059e+00,
          -1.35549653e+00, 3.75838429e-02, 1.01930642e+00,
          -1.54033780e+00, -2.03484848e-01, 4.54246998e-01,
          8.54494476e+00, -8.51758242e-01, 2.15141084e-02,
          1.80446577e+00, 8.32486391e-01, -4.29840422e+00,
          1.67179793e-01, 8.33774626e-01, 1.15268335e+01,
          -6.48119593e+00, -6.08642757e-01, 3.63290596e+00,
          2.23443294e+00, -4.04407024e+00, -5.89317858e-01,
          1.49733365e+00, 3.27892423e+00, -9.62324142e+00,
          -1.47641826e+00, 3.24990058e+00, 1.20567799e+00,
          3.42232943e-01, 8.55982006e-01, 2.92355090e-01,
          -2.19135672e-01, -1.13655972e+00, -7.49016345e-01,
          3.61372471e-01 ]
      - [ 3.46794933e-01, -4.04047340e-01, 1.83405764e-02,
          1.76215783e-01, 4.82427955e-01, -6.83429301e-01,
          -7.29939044e-02, 2.76565373e-01, 5.81005752e-01,
          -7.29254663e-01, -2.65711471e-02, 3.97274733e-01,
          6.31598234e-01, 5.41053414e-01, 5.98183274e-01, 3.08824778e-02,
          8.20059001e-01, 7.55337656e-01, 7.79902577e-01, 2.40893289e-02,
          1.77518383e-01, -8.19815993e-02, 5.05673215e-02,
          9.13168862e-02, -2.06244469e+00, -2.53005505e+00,
          -2.27736640e+00, 1.63863346e-01, -1.04922831e+00,
          -1.29348361e+00, -1.20133126e+00, 8.68030041e-02,
          6.02878518e-02, -4.02299464e-01, -1.31028727e-01,
          1.19513460e-01, 6.06369495e-01, -6.63310707e-01,
          1.35231912e-02, 2.85906255e-01, 3.88641953e-01,
          -8.22692752e-01, -1.16962269e-01, 3.17293286e-01,
          -5.08330822e-01, -5.86227059e-01, -5.62678933e-01,
          2.02794913e-02, -6.79362476e-01, -7.72851348e-01,
          -7.46961772e-01, 2.25591883e-02, 4.65839326e-01,
          2.94715881e-01, 3.45402688e-01, 5.14594316e-02, 2.65376449e+00,
          2.32078910e+00, 2.40649509e+00, 8.16489756e-02,
          -1.00562072e+00, -1.09770811e+00, -1.06173956e+00,
          3.27809080e-02 ]
      - [ 2.18820721e-01, -4.04047340e-01, -1.90401711e-02,
          1.42350778e-01, 4.82427955e-01, -4.61768061e-01,
          -3.16834673e-02, 2.12637544e-01, 5.81005752e-01,
          -6.24690831e-01, 1.10676512e-02, 3.65044922e-01,
          6.31598234e-01, 5.37582159e-01, 5.89689136e-01, 3.50050516e-02,
          8.27298164e-01, 7.55337656e-01, 7.87649453e-01, 2.60570198e-02,
          1.77518383e-01, -5.84833920e-02, 7.83511996e-02,
          8.47437158e-02, -2.06244469e+00, -2.56664586e+00,
          -2.32158113e+00, 1.79389760e-01, -1.04922831e+00,
          -1.27658617e+00, -1.17416918e+00, 9.09816027e-02,
          6.02878518e-02, -4.02299464e-01, -1.39244080e-01,
          1.30364925e-01, 6.06369495e-01, -6.63310707e-01,
          9.15203057e-03, 2.87363857e-01, 3.88641953e-01,
          -8.22692752e-01, -9.88195986e-02, 3.13788712e-01,
          -5.44148147e-01, -5.86227059e-01, -5.68437397e-01,
          1.23585435e-02, -6.40166581e-01, -7.68831789e-01,
          -7.33067811e-01, 3.58511470e-02, 4.89661157e-01,
          2.94715881e-01, 3.59865397e-01, 6.80580810e-02, 2.50839949e+00,
          2.24690461e+00, 2.36692214e+00, 5.11358790e-02,
          -1.00562072e+00, -1.09770811e+00, -1.06509006e+00,
          2.98340861e-02 ]
      - [ 2.72906184e-01, -2.68883198e-01, -4.76064219e-04,
          1.72813371e-01, 3.62941951e-01, -3.02164584e-01,
          3.54337357e-02, 2.09738567e-01, 2.20972538e-01,
          -2.62012839e-01, -5.79130650e-02, 1.08948253e-01,
          5.20131946e-01, 5.01197636e-01, 5.09606719e-01, 6.14221534e-03,
          8.49064648e-01, 7.88946450e-01, 8.31710696e-01, 1.82817169e-02,
          3.22580963e-01, 1.29730552e-01, 2.02362210e-01, 6.26012683e-02,
          -2.56593847e+00, -2.73147655e+00, -2.66129184e+00,
          5.37259057e-02, -9.82973516e-01, -1.03020108e+00,
          -1.00588775e+00, 1.64333228e-02, 3.73891950e-01,
          -5.21697514e-02, 1.05520897e-01, 1.33578554e-01,
          1.81798190e-01, -3.23714823e-01, -2.64225025e-02,
          1.48546606e-01, 2.73442000e-01, -3.80613893e-01,
          -2.79601943e-02, 1.59430817e-01, -6.83561563e-01,
          -7.63381362e-01, -7.42768228e-01, 1.94503814e-02,
          -4.63138700e-01, -5.28854609e-01, -4.86331910e-01,
          1.64946523e-02, 4.21064317e-01, 3.19507211e-01, 3.67044479e-01,
          2.75399145e-02, 1.27787864e+00, 7.11968184e-01, 8.34425211e-01,
          1.32128865e-01, -1.14035404e+00, -1.26870716e+00,
          -1.18079007e+00, 3.00485622e-02 ]
      - [ 2.72906184e-01, -2.68883198e-01, -2.23025847e-02,
          1.89538449e-01, 3.62941951e-01, -3.02164584e-01,
          2.00474858e-02, 2.05981970e-01, 2.20972538e-01,
          -3.45681429e-01, -8.37134123e-02, 1.35439143e-01,
          5.48794627e-01, 5.01197636e-01, 5.12347758e-01, 1.10281799e-02,
          8.49064648e-01, 7.53849566e-01, 8.22875321e-01, 2.68023256e-02,
          3.50065321e-01, 1.30027428e-01, 2.27409825e-01, 7.00670704e-02,
          -2.56266761e+00, -2.73147655e+00, -2.66394496e+00,
          5.02637811e-02, -9.82973516e-01, -1.09733880e+00,
          -1.01369643e+00, 2.58777067e-02, 3.73891950e-01,
          -5.21697514e-02, 9.58987772e-02, 1.38059080e-01,
          1.81798190e-01, -3.82092565e-01, -4.88523990e-02,
          1.77360520e-01, 2.73442000e-01, -2.89741278e-01,
          -2.77942605e-02, 1.53432354e-01, -7.15619504e-01,
          -7.63381362e-01, -7.49696314e-01, 1.12382900e-02,
          -4.63138700e-01, -5.24331510e-01, -4.86945182e-01,
          1.71261579e-02, 4.04383838e-01, 3.17784488e-01, 3.55815232e-01,
          2.59524267e-02, 1.00677371e+00, 7.10560679e-01, 7.85579979e-01,
          7.25714043e-02, -1.14035404e+00, -1.23082232e+00,
          -1.17683637e+00, 2.25532297e-02 ]
      - [ 2.72906184e-01, -4.84623611e-01, -4.80326191e-02,
          2.21197590e-01, 3.62941951e-01, -3.52815151e-01,
          -3.54306549e-02, 2.02477857e-01, 2.20972538e-01,
          -3.45681429e-01, -7.65240937e-02, 1.45002171e-01,
          5.56899011e-01, 5.01197636e-01, 5.17671287e-01, 1.71982553e-02,
          8.49064648e-01, 7.37076461e-01, 8.10537994e-01, 3.56612429e-02,
          3.60446930e-01, 1.39123827e-01, 2.54546374e-01, 7.17928708e-02,
          -2.55874300e+00, -2.73147655e+00, -2.66231656e+00,
          5.29378317e-02, -9.82973516e-01, -1.15784121e+00,
          -1.03003812e+00, 4.46137562e-02, 3.73891950e-01,
          -6.99528307e-02, 8.96816626e-02, 1.42410070e-01,
          1.81798190e-01, -3.82092565e-01, -6.19714558e-02,
          1.70977429e-01, 2.73442000e-01, -3.30056787e-01,
          -4.42725569e-02, 1.72504202e-01, -7.36796498e-01,
          -7.63381362e-01, -7.52066612e-01, 6.47967542e-03,
          -4.63138700e-01, -5.31926334e-01, -4.92538750e-01,
          2.20407080e-02, 3.88400733e-01, 3.17784488e-01, 3.46361041e-01,
          2.26156320e-02, 8.72264326e-01, 7.10560679e-01, 7.59399354e-01,
          3.63617875e-02, -1.14035404e+00, -1.26364565e+00,
          -1.18386090e+00, 3.31712924e-02 ]
      - [ 1.87473035e+00, -1.42889291e-01, 1.43111199e-01,
          3.36701155e-01, 9.40826237e-01, -6.58592105e-01,
          4.89395671e-03, 3.34183425e-01, 1.57167530e+00,
          -4.91014051e+00, -5.56741841e-02, 8.95704865e-01,
          3.25296640e+00, -3.77415061e+00, -7.32277036e-02,
          1.16166115e+00, 2.05528498e+00, -2.75472546e+00,
          2.98669599e-02, 1.25750303e+00, 7.82067418e-01,
          -9.58288789e-01, 5.89036904e-02, 5.31986535e-01,
          3.13862395e+00, -3.13510036e+00, -1.32576537e+00,
          2.73004198e+00, -4.36954051e-01, -5.52281380e-01,
          -4.99258757e-01, 3.05866841e-02, 3.96527112e-01,
          -1.60778987e+00, -2.51883626e-01, 4.99117792e-01,
          7.84671593e+00, -1.21565592e+00, 1.01114380e+00,
          2.20441556e+00, 6.55469000e-01, -4.09212798e-01,
          1.29561186e-01, 2.91431427e-01, 1.41338766e+00,
          -1.99806786e+00, -2.56850958e-01, 7.22420573e-01,
          1.20912588e+00, -7.81934738e-01, -1.40067577e-01,
          5.46438694e-01, 1.31157160e+00, -4.21927643e+00,
          -5.54685473e-01, 1.43936551e+00, 2.98654199e+00,
          -3.00067854e+00, 1.23476946e+00, 1.18696570e+00,
          4.69944686e-01, -1.44428372e+00, -2.94923425e-01,
          8.57933521e-01 ]
      - [ 9.85463202e-01, -1.11059799e+01, -4.05314982e-01,
          2.17425704e+00, 9.85471189e-01, -1.41511631e+01,
          -5.48262775e-01, 2.75614643e+00, 9.85493541e-01,
          -1.71286793e+01, -6.83374226e-01, 3.32732487e+00,
          9.85532999e-01, -1.95698013e+01, -7.91043460e-01,
          3.79566526e+00, 9.85589623e-01, -2.09063377e+01,
          -8.33867729e-01, 4.05059290e+00, 9.85667765e-01,
          -2.08151569e+01, -8.08258951e-01, 4.03071976e+00,
          9.86382544e-01, -6.34455395e+00, -2.57355988e-01,
          1.29624021e+00, 9.86601591e-01, -3.12888288e+00,
          -1.37270659e-01, 7.63772607e-01, 9.87066209e-01,
          -1.32025826e+00, 7.21065979e-03, 5.07005453e-01,
          1.35353732e+00, -1.31369388e+00, 4.09342125e-02,
          5.41432202e-01, 2.17377472e+00, -1.30445945e+00,
          8.16796198e-02, 6.18745565e-01, 3.52997541e+00,
          -1.28918231e+00, 1.49869785e-01, 8.07808280e-01,
          5.62746429e+00, -1.26103449e+00, 2.51274616e-01,
          1.15707588e+00, 8.35373783e+00, -1.21099210e+00,
          3.84778172e-01, 1.64749944e+00, 2.45898590e+01,
          -4.61214364e-01, 1.15130520e+00, 4.70474148e+00,
          2.67697163e+01, -2.10140228e-01, 1.25632763e+00,
          5.11957026e+00 ]
      - [ 9.85767603e-01, -1.95841942e+01, -7.35607743e-01,
          3.79305625e+00, 9.85888243e-01, -1.73899326e+01,
          -6.41596615e-01, 3.37150025e+00, 9.86028135e-01,
          -1.41924114e+01, -5.32460272e-01, 2.76043630e+00,
          9.86190021e-01, -1.02707901e+01, -3.97975743e-01,
          2.01853108e+00, 9.86382544e-01, -6.34455395e+00,
          -2.57355988e-01, 1.29624021e+00, 9.86601591e-01,
          -3.12888288e+00, -1.37270659e-01, 7.63772607e-01,
          3.52997541e+00, -1.28918231e+00, 1.49869785e-01,
          8.07808280e-01, 5.62746429e+00, -1.26103449e+00,
          2.51274616e-01, 1.15707588e+00, 1.12180433e+01,
          -1.13192880e+00, 5.22927821e-01, 2.17838407e+00,
          1.43165941e+01, -1.02013767e+00, 6.58944249e-01,
          2.76176882e+00, 1.79450245e+01, -8.71294618e-01,
          8.16788554e-01, 3.44916129e+00, 2.14912300e+01,
          -6.83679819e-01, 9.93680418e-01, 4.11904669e+00,
          2.45898590e+01, -4.61214364e-01, 1.15130520e+00,
          4.70474148e+00, 2.67697163e+01, -2.10140228e-01,
          1.25632763e+00, 5.11957026e+00, 1.68194675e+00,
          -2.03874564e+00, 1.32110491e-01, 6.17643058e-01,
          9.88319755e-01, -2.65358353e+00, -7.74808135e-03,
          6.53745651e-01 ]
      - [ 9.86833811e-01, -1.32325804e+00, -4.76282984e-02,
          5.24335444e-01, 9.87066209e-01, -1.32025826e+00,
          7.21065979e-03, 5.07005453e-01, 1.35353732e+00,
          -1.31369388e+00, 4.09342125e-02, 5.41432202e-01,
          2.17377472e+00, -1.30445945e+00, 8.16796198e-02,
          6.18745565e-01, 3.52997541e+00, -1.28918231e+00,
          1.49869785e-01, 8.07808280e-01, 5.62746429e+00,
          -1.26103449e+00, 2.51274616e-01, 1.15707588e+00,
          2.14912300e+01, -6.83679819e-01, 9.93680418e-01,
          4.11904669e+00, 2.45898590e+01, -4.61214364e-01,
          1.15130520e+00, 4.70474148e+00, 2.63252487e+01,
          -2.22165778e-01, 1.26623428e+00, 5.03649235e+00,
          2.21138821e+01, -2.31914848e-01, 1.11451077e+00,
          4.24465466e+00, 1.54179268e+01, -7.17413187e-01,
          7.97963381e-01, 3.00513911e+00, 8.42016792e+00,
          -2.14229321e+00, 4.17250991e-01, 1.72157335e+00,
          1.68194675e+00, -2.03874564e+00, 1.32110491e-01,
          6.17643058e-01, 9.88319755e-01, -2.65358353e+00,
          -7.74808135e-03, 6.53745651e-01, 1.30457783e+00,
          -4.08833444e-01, 1.60452425e-01, 3.98881614e-01,
          1.98579562e+00, -3.46947968e-01, 1.80636495e-01,
          4.82422262e-01 ]
      - [ 9.87868845e-01, -2.64492989e-01, 9.51288417e-02,
          3.07767838e-01, 9.87866104e-01, -2.64564991e-01,
          9.43767950e-02, 3.08016509e-01, 9.87868309e-01,
          -2.64513999e-01, 9.47006717e-02, 3.07828158e-01,
          9.87874210e-01, -2.64389008e-01, 9.53469500e-02,
          3.07635665e-01, 9.87878203e-01, -2.64039397e-01,
          9.53246206e-02, 3.07623684e-01, 9.87881005e-01,
          -2.63751358e-01, 9.41713750e-02, 3.08149636e-01,
          9.87890244e-01, -1.41210639e+00, 3.92456725e-02,
          4.22024369e-01, 9.87893581e-01, -2.15577507e+00,
          9.28550772e-03, 5.30406356e-01, 9.87912834e-01,
          -5.69027996e+00, -1.46752059e-01, 1.15450060e+00,
          9.87931728e-01, -8.72838211e+00, -2.85207719e-01,
          1.72378647e+00, 9.87958729e-01, -1.24556284e+01,
          -4.62215781e-01, 2.43180680e+00, 9.87993360e-01,
          -1.66606464e+01, -6.64499760e-01, 3.23607755e+00,
          9.88031864e-01, -2.08083534e+01, -8.51655245e-01,
          4.03479862e+00, 9.88073528e-01, -2.35834160e+01,
          -9.61938024e-01, 4.56781912e+00, 9.88418937e-01,
          -1.12109880e+01, -4.44276690e-01, 2.19917226e+00,
          9.88516092e-01, -5.90836334e+00, -2.33845115e-01,
          1.23668230e+00 ]
      - [ 9.87881124e-01, -2.63743997e-01, 9.24850032e-02,
          3.09319943e-01, 9.87883329e-01, -2.63256013e-01,
          8.72312710e-02, 3.13876539e-01, 9.87887084e-01,
          -5.39720058e-01, 7.57017434e-02, 3.29990655e-01,
          9.87888157e-01, -9.32586193e-01, 5.83290718e-02,
          3.65176499e-01, 9.87890244e-01, -1.41210639e+00,
          3.92456725e-02, 4.22024369e-01, 9.87893581e-01,
          -2.15577507e+00, 9.28550772e-03, 5.30406356e-01,
          9.87993360e-01, -1.66606464e+01, -6.64499760e-01,
          3.23607755e+00, 9.88031864e-01, -2.08083534e+01,
          -8.51655245e-01, 4.03479862e+00, 9.88120139e-01,
          -2.41974144e+01, -9.61614668e-01, 4.68207645e+00,
          9.88177836e-01, -2.30901585e+01, -8.73386204e-01,
          4.46818876e+00, 9.88246799e-01, -2.08322811e+01,
          -7.54106760e-01, 4.03473711e+00, 9.88327682e-01,
          -1.63381500e+01, -6.06922090e-01, 3.17125964e+00,
          9.88418937e-01, -1.12109880e+01, -4.44276690e-01,
          2.19917226e+00, 9.88516092e-01, -5.90836334e+00,
          -2.33845115e-01, 1.23668230e+00, 3.74545884e+00,
          -1.25896287e+00, 1.54133767e-01, 8.41211021e-01,
          4.83058834e+00, -1.23086977e+00, 2.08029047e-01,
          1.01777661e+00 ]
      - [ 9.88073528e-01, -2.35834160e+01, -9.61938024e-01,
          4.56781912e+00, 9.88120139e-01, -2.41974144e+01,
          -9.61614668e-01, 4.68207645e+00, 9.88177836e-01,
          -2.30901585e+01, -8.73386204e-01, 4.46818876e+00,
          9.88246799e-01, -2.08322811e+01, -7.54106760e-01,
          4.03473711e+00, 9.88327682e-01, -1.63381500e+01,
          -6.06922090e-01, 3.17125964e+00, 9.88418937e-01,
          -1.12109880e+01, -4.44276690e-01, 2.19917226e+00,
          3.08163905e+00, -1.27925467e+00, 1.12414166e-01,
          7.48256385e-01, 3.74545884e+00, -1.25896287e+00,
          1.54133767e-01, 8.41211021e-01, 6.58574533e+00,
          -1.18969858e+00, 2.90300995e-01, 1.32434535e+00,
          8.99190426e+00, -1.12874460e+00, 4.07060057e-01,
          1.76228821e+00, 1.13999357e+01, -1.04277623e+00,
          5.25363207e-01, 2.20899892e+00, 1.38750038e+01,
          -9.30490375e-01, 6.40366673e-01, 2.67390704e+00,
          1.67609787e+01, -7.89030433e-01, 7.66565442e-01,
          3.21976161e+00, 1.96633873e+01, -6.16270542e-01,
          9.00312781e-01, 3.76882172e+00, 1.48026171e+01,
          -5.96085489e-01, 7.60254979e-01, 2.86723161e+00,
          9.28895283e+00, -1.46638680e+00, 4.80809987e-01,
          1.84199572e+00 ]
      - [ 9.88516092e-01, -5.90836334e+00, -2.33845115e-01,
          1.23668230e+00, 1.03222990e+00, -1.31554580e+00,
          -6.32743165e-02, 5.75091481e-01, 1.48514640e+00,
          -1.31052041e+00, 4.36072648e-02, 6.04099631e-01,
          2.64977026e+00, -1.29651988e+00, 8.89452249e-02,
          7.12040544e-01, 3.08163905e+00, -1.27925467e+00,
          1.12414166e-01, 7.48256385e-01, 3.74545884e+00,
          -1.25896287e+00, 1.54133767e-01, 8.41211021e-01,
          1.38750038e+01, -9.30490375e-01, 6.40366673e-01,
          2.67390704e+00, 1.67609787e+01, -7.89030433e-01,
          7.66565442e-01, 3.21976161e+00, 2.20979557e+01,
          -4.15748775e-01, 1.01879334e+00, 4.22949743e+00,
          2.37647362e+01, -2.29001641e-01, 1.10131240e+00,
          4.54622078e+00, 2.31466331e+01, -2.15297699e-01,
          1.10409439e+00, 4.42864418e+00, 1.98453178e+01,
          -2.16099903e-01, 9.91838634e-01, 3.80847001e+00,
          1.48026171e+01, -5.96085489e-01, 7.60254979e-01,
          2.86723161e+00, 9.28895283e+00, -1.46638680e+00,
          4.80809987e-01, 1.84199572e+00, 9.89879966e-01,
          -2.99655032e+00, 8.86225235e-03, 6.74776435e-01,
          9.89872456e-01, -1.88652122e+00, 4.67608534e-02,
          4.94582504e-01 ]
      - [ 9.91635680e-01, -1.72092295e+00, 5.21896465e-04,
          5.23082078e-01, 9.91609454e-01, -3.58862591e+00,
          -4.91604879e-02, 7.80540824e-01, 9.91579831e-01,
          -3.71889544e+00, -3.32374796e-02, 8.00393760e-01,
          9.91546750e-01, -2.87695813e+00, 8.19117296e-03,
          6.56509161e-01, 9.91514802e-01, -1.55976641e+00,
          5.56735173e-02, 4.50435460e-01, 9.91487443e-01,
          -2.73328751e-01, 9.95789766e-02, 3.20462376e-01,
          9.91461813e-01, -2.96779990e-01, 9.00461525e-02,
          3.22011799e-01, 9.91478980e-01, -5.40639877e-01,
          6.21906854e-02, 3.49116176e-01, 9.91508663e-01,
          -9.38007355e-01, 5.00063747e-02, 3.78845483e-01,
          9.91510212e-01, -6.91845775e-01, 6.03370927e-02,
          3.52908969e-01, 9.91496444e-01, -3.61656666e-01,
          7.30576068e-02, 3.28672260e-01, 9.91468191e-01,
          -2.82508701e-01, 8.47942978e-02, 3.17025006e-01,
          9.91434634e-01, -2.82923520e-01, 9.31279734e-02,
          3.14845085e-01, 9.91400480e-01, -2.83909082e-01,
          9.63558704e-02, 3.14623058e-01, 9.91377115e-01,
          -2.84247249e-01, 8.02387595e-02, 3.19876254e-01,
          9.91383195e-01, -2.83131033e-01, 8.03344771e-02,
          3.20044488e-01 ]
      - [ 9.92371976e-01, -2.50230336e+00, -1.05857573e-01,
          6.95099652e-01, 9.92397547e-01, -1.24176013e+00,
          -4.44554873e-02, 5.22228062e-01, 9.92432117e-01,
          -1.25385189e+00, -1.49612986e-02, 4.84600484e-01,
          9.92475212e-01, -1.24792349e+00, 2.58987979e-03,
          4.82790917e-01, 9.92522001e-01, -1.23090386e+00,
          1.76838823e-02, 4.95424807e-01, 1.14082706e+00,
          -1.22110546e+00, 3.39419395e-02, 5.14957011e-01,
          6.62691784e+00, -1.15514076e+00, 3.14904779e-01,
          1.33167231e+00, 9.36470890e+00, -1.10208166e+00,
          4.47203666e-01, 1.83168614e+00, 1.58490372e+01,
          -9.01356041e-01, 7.37553060e-01, 3.04893970e+00,
          1.95082798e+01, -7.42498040e-01, 8.94871891e-01,
          3.74303079e+00, 2.26560898e+01, -5.45374572e-01,
          1.04107809e+00, 4.33982086e+00, 2.48710766e+01,
          -3.18762243e-01, 1.14964831e+00, 4.75935221e+00,
          2.57195396e+01, -2.60227263e-01, 1.20490575e+00,
          4.92039156e+00, 2.40228863e+01, -2.47242928e-01,
          1.15773189e+00, 4.60325050e+00, 9.92549598e-01,
          -2.84175944e+00, -3.19637507e-02, 6.65296495e-01,
          9.92531180e-01, -3.88431215e+00, -4.87864986e-02,
          8.31888139e-01 ]
      - [ 7.84991837e+00, -1.29731977e+00, 4.24970925e-01,
          1.57938600e+00, 1.06149063e+01, -1.25357676e+00,
          5.10708332e-01, 2.08716345e+00, 1.37017412e+01,
          -1.22237182e+00, 6.12602711e-01, 2.66916585e+00,
          1.70812893e+01, -1.27024877e+00, 7.38268971e-01,
          3.30938816e+00, 2.01805534e+01, -1.25614178e+00,
          8.72451127e-01, 3.89572906e+00, 2.24609528e+01,
          -1.46266568e+00, 9.79235291e-01, 4.33033562e+00,
          9.65853119e+00, -1.89609134e+00, 4.23266888e-01,
          1.95093250e+00, 2.43047214e+00, -1.87990177e+00,
          1.48062199e-01, 6.99147403e-01, 9.82589722e-01,
          -4.26826143e+00, -5.05065881e-02, 9.36511040e-01,
          9.85953033e-01, -4.18687582e+00, -4.43481021e-02,
          8.97150457e-01, 9.88515973e-01, -3.07149005e+00,
          7.00869772e-04, 6.90508306e-01, 9.89972770e-01,
          -1.46479046e+00, 5.18560223e-02, 4.34080511e-01,
          9.90380704e-01, -2.79327512e-01, 9.76373032e-02,
          3.30006570e-01, 1.55851257e+00, -5.75922191e-01,
          1.31299943e-01, 4.50766832e-01, 9.86876369e-01,
          -6.52782261e-01, 6.66550100e-02, 3.46738130e-01,
          9.87466991e-01, -9.02090430e-01, 5.74713759e-02,
          3.69788527e-01 ]
      - [ 3.09470177e+00, -1.95869293e+01, -5.47242880e-01,
          3.87314844e+00, 3.55368900e+00, -2.17166824e+01,
          -5.88125050e-01, 4.29993057e+00, 3.48416495e+00,
          -2.19262962e+01, -5.84779859e-01, 4.33784294e+00,
          2.94750977e+00, -2.08845520e+01, -5.76271296e-01,
          4.11807013e+00, 2.23427606e+00, -1.88473186e+01,
          -5.16145706e-01, 3.71236968e+00, 1.53743601e+00,
          -1.58184175e+01, -3.93794894e-01, 3.12891388e+00,
          1.83091402e+00, -1.29810786e+00, 2.74749190e-01,
          6.58203244e-01, 1.81542134e+00, -1.29313374e+00,
          2.36196369e-01, 6.29396260e-01, 2.01275253e+00,
          -1.29669368e+00, 2.32888356e-01, 7.10861027e-01,
          3.63046479e+00, -1.30061209e+00, 2.98469603e-01,
          8.87448370e-01, 5.84272575e+00, -1.30098927e+00,
          3.70016575e-01, 1.23049390e+00, 8.48023796e+00,
          -1.28730440e+00, 4.42090362e-01, 1.69960368e+00,
          1.14341984e+01, -1.24382162e+00, 5.25001168e-01,
          2.24976230e+00, 1.47717047e+01, -1.34269226e+00,
          6.31827235e-01, 2.88128567e+00, 2.46575012e+01,
          -2.99398160e+00, 1.05464160e+00, 4.78672981e+00,
          2.14949989e+01, -3.53311396e+00, 9.13140118e-01,
          4.21097946e+00 ]
      - [ 1.20004520e+01, -1.15473199e+00, 5.43483794e-01,
          2.34504724e+00, 1.45093031e+01, -1.18253148e+00,
          6.38930380e-01, 2.81985688e+00, 1.70043392e+01,
          -1.38397360e+00, 7.47170269e-01, 3.29232073e+00,
          1.93901405e+01, -1.51190174e+00, 8.57469499e-01,
          3.74414015e+00, 2.14386063e+01, -1.71586490e+00,
          9.42549288e-01, 4.13653088e+00, 2.26234856e+01,
          -2.15765810e+00, 9.79180813e-01, 4.37317562e+00,
          9.77001309e-01, -1.92077303e+00, 9.12800133e-02,
          5.48315227e-01, 9.78206336e-01, -2.77277470e+00,
          -1.53752631e-02, 7.14323282e-01, 9.84215200e-01,
          -2.77824426e+00, -1.87321212e-02, 6.37219071e-01,
          9.86034095e-01, -1.46098614e+00, 2.73179132e-02,
          4.37837958e-01, 9.86751318e-01, -5.35369277e-01,
          7.37242401e-02, 3.41345012e-01, 9.86528516e-01,
          -6.49184287e-01, 1.01122908e-01, 3.89056474e-01,
          1.53639901e+00, -6.78963840e-01, 1.15765564e-01,
          4.53720957e-01, 1.56061721e+00, -5.90383947e-01,
          1.19316943e-01, 4.48866278e-01, 9.83751893e-01,
          -9.35072720e-01, 5.83195873e-02, 3.75862390e-01,
          9.84420240e-01, -6.42489254e-01, 7.24340379e-02,
          3.45766693e-01 ]
      - [ 9.83695686e-01, -2.75662363e-01, 8.87018219e-02,
          3.18150699e-01, 9.83734488e-01, -4.92320597e-01,
          7.90922642e-02, 3.30857694e-01, 9.83799100e-01,
          -9.78626549e-01, 5.77114746e-02, 3.74290615e-01,
          9.83922958e-01, -1.91156161e+00, 1.44595401e-02,
          4.98487383e-01, 9.84178722e-01, -3.32014871e+00,
          -5.63027114e-02, 7.31858194e-01, 9.84697104e-01,
          -4.99494457e+00, -1.47112235e-01, 1.03720129e+00,
          9.94699955e-01, -1.65935936e+01, -8.48657846e-01,
          3.39518499e+00, 9.97391343e-01, -1.94216290e+01,
          -1.02897835e+00, 4.03187323e+00, 1.59399545e+00,
          -2.12280712e+01, -1.23231888e+00, 4.79630661e+00,
          2.25352740e+00, -2.00678749e+01, -1.23198187e+00,
          4.91776943e+00, 2.70484948e+00, -1.80581131e+01,
          -1.18176138e+00, 4.89118290e+00, 2.87692642e+00,
          -1.90562515e+01, -1.11394346e+00, 4.68552208e+00,
          2.69525242e+00, -1.88562222e+01, -1.01755226e+00,
          4.29355335e+00, 2.19708228e+00, -1.77972584e+01,
          -8.85181010e-01, 3.79548001e+00, 1.60459352e+00,
          -5.60570288e+00, -1.45546630e-01, 1.34310424e+00,
          1.78735483e+00, -3.54192185e+00, -5.89177608e-02,
          1.06588387e+00 ]
      - [ 9.85652089e-01, -6.82187366e+00, -2.52098888e-01,
          1.38900852e+00, 9.87171113e-01, -8.82799339e+00,
          -3.71940285e-01, 1.78828371e+00, 9.89262283e-01,
          -1.11102505e+01, -5.09970546e-01, 2.25044894e+00,
          9.91839468e-01, -1.36840458e+01, -6.70324862e-01,
          2.78075576e+00, 9.94699955e-01, -1.65935936e+01,
          -8.48657846e-01, 3.39518499e+00, 9.97391343e-01,
          -1.94216290e+01, -1.02897835e+00, 4.03187323e+00,
          2.87692642e+00, -1.90562515e+01, -1.11394346e+00,
          4.68552208e+00, 2.69525242e+00, -1.88562222e+01,
          -1.01755226e+00, 4.29355335e+00, 1.56136143e+00,
          -1.59511118e+01, -7.24505603e-01, 3.25507617e+00,
          1.04210603e+00, -1.35077515e+01, -5.55190444e-01,
          2.71748137e+00, 9.94991243e-01, -1.08070679e+01,
          -3.98692548e-01, 2.20630360e+00, 1.32673955e+00,
          -8.09632015e+00, -2.62579769e-01, 1.73540235e+00,
          1.60459352e+00, -5.60570288e+00, -1.45546630e-01,
          1.34310424e+00, 1.78735483e+00, -3.54192185e+00,
          -5.89177608e-02, 1.06588387e+00, 2.20945644e+00,
          -1.51000559e+00, 1.72335610e-01, 9.13062811e-01,
          3.48286581e+00, -1.39608920e+00, 2.52417773e-01,
          1.03395355e+00 ]
      - [ 9.98953044e-01, -2.11358109e+01, -1.16480887e+00,
          4.52484369e+00, 1.59399545e+00, -2.12280712e+01,
          -1.23231888e+00, 4.79630661e+00, 2.25352740e+00,
          -2.00678749e+01, -1.23198187e+00, 4.91776943e+00,
          2.70484948e+00, -1.80581131e+01, -1.18176138e+00,
          4.89118290e+00, 2.87692642e+00, -1.90562515e+01,
          -1.11394346e+00, 4.68552208e+00, 2.69525242e+00,
          -1.88562222e+01, -1.01755226e+00, 4.29355335e+00,
          1.32673955e+00, -8.09632015e+00, -2.62579769e-01,
          1.73540235e+00, 1.60459352e+00, -5.60570288e+00,
          -1.45546630e-01, 1.34310424e+00, 1.89282596e+00,
          -2.07280350e+00, -6.42536115e-03, 9.16470289e-01,
          1.95396614e+00, -1.63058841e+00, 2.45813113e-02,
          8.60172629e-01, 1.99216533e+00, -1.61644483e+00,
          5.93024828e-02, 8.45887244e-01, 2.01513362e+00,
          -1.57986188e+00, 1.08323954e-01, 8.58499050e-01,
          2.20945644e+00, -1.51000559e+00, 1.72335610e-01,
          9.13062811e-01, 3.48286581e+00, -1.39608920e+00,
          2.52417773e-01, 1.03395355e+00, 1.55589724e+01,
          -1.33466113e+00, 1.09565639e+00, 3.39680791e+00,
          1.86946068e+01, -1.28652263e+00, 1.32247472e+00,
          4.14522839e+00 ]
      - [ 2.19708228e+00, -1.77972584e+01, -8.85181010e-01,
          3.79548001e+00, 1.56136143e+00, -1.59511118e+01,
          -7.24505603e-01, 3.25507617e+00, 1.04210603e+00,
          -1.35077515e+01, -5.55190444e-01, 2.71748137e+00,
          9.94991243e-01, -1.08070679e+01, -3.98692548e-01,
          2.20630360e+00, 1.32673955e+00, -8.09632015e+00,
          -2.62579769e-01, 1.73540235e+00, 1.60459352e+00,
          -5.60570288e+00, -1.45546630e-01, 1.34310424e+00,
          2.01513362e+00, -1.57986188e+00, 1.08323954e-01,
          8.58499050e-01, 2.20945644e+00, -1.51000559e+00,
          1.72335610e-01, 9.13062811e-01, 5.13363266e+00,
          -1.31477737e+00, 3.59995157e-01, 1.25503147e+00,
          7.21893311e+00, -1.32395673e+00, 5.05637109e-01,
          1.60681903e+00, 9.74125004e+00, -1.33688498e+00,
          6.85547233e-01, 2.10131049e+00, 1.25620489e+01,
          -1.34556556e+00, 8.85829508e-01, 2.71059585e+00,
          1.55589724e+01, -1.33466113e+00, 1.09565639e+00,
          3.39680791e+00, 1.86946068e+01, -1.28652263e+00,
          1.32247472e+00, 4.14522839e+00, 2.44468365e+01,
          -2.24470830e+00, 2.07709908e+00, 6.17284822e+00,
          2.43598213e+01, -2.96764040e+00, 1.72573936e+00,
          5.43598795e+00 ]
      - [ 1.78735483e+00, -3.54192185e+00, -5.89177608e-02,
          1.06588387e+00, 1.89282596e+00, -2.07280350e+00,
          -6.42536115e-03, 9.16470289e-01, 1.95396614e+00,
          -1.63058841e+00, 2.45813113e-02, 8.60172629e-01,
          1.99216533e+00, -1.61644483e+00, 5.93024828e-02,
          8.45887244e-01, 2.01513362e+00, -1.57986188e+00,
          1.08323954e-01, 8.58499050e-01, 2.20945644e+00,
          -1.51000559e+00, 1.72335610e-01, 9.13062811e-01,
          1.25620489e+01, -1.34556556e+00, 8.85829508e-01,
          2.71059585e+00, 1.55589724e+01, -1.33466113e+00,
          1.09565639e+00, 3.39680791e+00, 2.17237072e+01,
          -1.19278443e+00, 1.56898904e+00, 4.90914488e+00,
          2.44328861e+01, -1.20024049e+00, 1.81637979e+00,
          5.63376188e+00, 2.62392159e+01, -1.37589228e+00,
          2.03434181e+00, 6.20451736e+00, 2.57340202e+01,
          -1.64363086e+00, 2.16213155e+00, 6.42431736e+00,
          2.44468365e+01, -2.24470830e+00, 2.07709908e+00,
          6.17284822e+00, 2.43598213e+01, -2.96764040e+00,
          1.72573936e+00, 5.43598795e+00, 9.82400119e-01,
          -3.38354349e+00, -1.27649188e-01, 1.03809285e+00,
          9.85741735e-01, -4.22894001e+00, -4.71917503e-02,
          9.45364833e-01 ]
      - [ 3.48286581e+00, -1.39608920e+00, 2.52417773e-01,
          1.03395355e+00, 5.13363266e+00, -1.31477737e+00,
          3.59995157e-01, 1.25503147e+00, 7.21893311e+00,
          -1.32395673e+00, 5.05637109e-01, 1.60681903e+00,
          9.74125004e+00, -1.33688498e+00, 6.85547233e-01,
          2.10131049e+00, 1.25620489e+01, -1.34556556e+00,
          8.85829508e-01, 2.71059585e+00, 1.55589724e+01,
          -1.33466113e+00, 1.09565639e+00, 3.39680791e+00,
          2.57340202e+01, -1.64363086e+00, 2.16213155e+00,
          6.42431736e+00, 2.44468365e+01, -2.24470830e+00,
          2.07709908e+00, 6.17284822e+00, 2.16025105e+01,
          -3.67977858e+00, 1.18059707e+00, 4.43823528e+00,
          1.60790710e+01, -3.52239609e+00, 6.57424271e-01,
          3.24372816e+00, 8.26996422e+00, -3.71687269e+00,
          2.22829506e-01, 1.90621150e+00, 9.80991662e-01,
          -4.56401253e+00, -7.33308196e-02, 1.10248780e+00,
          9.82400119e-01, -3.38354349e+00, -1.27649188e-01,
          1.03809285e+00, 9.85741735e-01, -4.22894001e+00,
          -4.71917503e-02, 9.45364833e-01, 2.38342762e+00,
          -8.94661248e-01, 1.75192073e-01, 5.82910776e-01,
          1.93735909e+00, -6.19561970e-01, 1.28681093e-01,
          5.11072278e-01 ]
      - [ 1.86946068e+01, -1.28652263e+00, 1.32247472e+00,
          4.14522839e+00, 2.17237072e+01, -1.19278443e+00,
          1.56898904e+00, 4.90914488e+00, 2.44328861e+01,
          -1.20024049e+00, 1.81637979e+00, 5.63376188e+00,
          2.62392159e+01, -1.37589228e+00, 2.03434181e+00,
          6.20451736e+00, 2.57340202e+01, -1.64363086e+00,
          2.16213155e+00, 6.42431736e+00, 2.44468365e+01,
          -2.24470830e+00, 2.07709908e+00, 6.17284822e+00,
          9.80991662e-01, -4.56401253e+00, -7.33308196e-02,
          1.10248780e+00, 9.82400119e-01, -3.38354349e+00,
          -1.27649188e-01, 1.03809285e+00, 1.42884290e+00,
          -3.18360615e+00, 6.50462210e-02, 7.86321282e-01,
          2.58380342e+00, -1.34878230e+00, 1.60568282e-01,
          6.70362651e-01, 2.50194073e+00, -6.45037353e-01,
          2.11041704e-01, 6.00702107e-01, 1.95476818e+00,
          -9.07679975e-01, 2.11955771e-01, 5.94589174e-01,
          2.38342762e+00, -8.94661248e-01, 1.75192073e-01,
          5.82910776e-01, 1.93735909e+00, -6.19561970e-01,
          1.28681093e-01, 5.11072278e-01, 9.86499667e-01,
          -7.91637957e-01, 8.15722123e-02, 3.52690965e-01,
          9.86951768e-01, -3.32087278e-01, 1.03024125e-01,
          3.17173451e-01 ]
      - [ 9.86074984e-01, -4.35982257e-01, 7.67475069e-02,
          3.12139869e-01, 9.86108541e-01, -5.28231263e-01,
          7.28125051e-02, 3.18292826e-01, 9.86166894e-01,
          -6.68323398e-01, 6.52249902e-02, 3.29738200e-01,
          9.86257136e-01, -8.65908086e-01, 5.44581600e-02,
          3.49089414e-01, 9.86401260e-01, -1.24796355e+00,
          3.66545729e-02, 3.94490272e-01, 9.86633956e-01,
          -2.03604054e+00, -1.80354260e-03, 5.10521650e-01,
          9.93701339e-01, -1.20980186e+01, -6.40930474e-01,
          2.54373717e+00, 9.96601760e-01, -1.50296068e+01,
          -8.65988314e-01, 3.23292518e+00, 1.50627995e+00,
          -2.06300602e+01, -1.32556820e+00, 4.79512596e+00,
          2.39241266e+00, -2.18453331e+01, -1.47183597e+00,
          5.42373896e+00, 3.11241388e+00, -2.15377026e+01,
          -1.51645064e+00, 5.79952097e+00, 3.35130548e+00,
          -2.20693016e+01, -1.44371426e+00, 5.71762943e+00,
          2.95736670e+00, -2.13891087e+01, -1.33611882e+00,
          5.25556231e+00, 2.16062522e+00, -1.97282467e+01,
          -1.17013252e+00, 4.52615976e+00, 2.61966276e+00,
          -1.46018589e+00, 1.62276089e-01, 1.01077449e+00,
          2.03508592e+00, -1.35133195e+00, 1.88567460e-01,
          8.76750171e-01 ]
      - [ 2.16062522e+00, -1.97282467e+01, -1.17013252e+00,
          4.52615976e+00, 1.25451732e+00, -1.67659321e+01,
          -8.87850642e-01, 3.59028792e+00, 8.79359007e-01,
          -1.27461243e+01, -5.36845326e-01, 2.60745740e+00,
          1.29915142e+00, -8.48372364e+00, -2.21112102e-01,
          1.83523154e+00, 2.49068761e+00, -4.49290323e+00,
          2.50556823e-02, 1.31013358e+00, 2.61966276e+00,
          -1.46018589e+00, 1.62276089e-01, 1.01077449e+00,
          3.11764288e+00, -1.35544479e+00, 2.50123262e-01,
          9.30630922e-01, 4.60674763e+00, -1.36018896e+00,
          3.55157316e-01, 1.12643600e+00, 8.96808147e+00,
          -1.36912823e+00, 6.13865495e-01, 1.90755498e+00,
          1.14322128e+01, -1.36492407e+00, 7.65877187e-01,
          2.41678047e+00, 1.39635963e+01, -1.34337950e+00,
          9.29655910e-01, 2.96898532e+00, 1.64978027e+01,
          -1.29606295e+00, 1.10766733e+00, 3.54352784e+00,
          1.87980804e+01, -1.21958363e+00, 1.29123127e+00,
          4.09711218e+00, 2.07484264e+01, -1.11428869e+00,
          1.46768200e+00, 4.61199379e+00, 2.04480152e+01,
          -2.03926706e+00, 1.37825859e+00, 4.38674545e+00,
          1.90796337e+01, -2.72423196e+00, 9.85829949e-01,
          3.80816483e+00 ]
      - [ 2.03508592e+00, -1.35133195e+00, 1.88567460e-01,
          8.76750171e-01, 1.76047170e+00, -1.34578156e+00,
          1.45086169e-01, 8.16206992e-01, 1.75100422e+00,
          -1.34776080e+00, 1.20874815e-01, 8.17345977e-01,
          2.18137574e+00, -1.35143304e+00, 1.61747009e-01,
          8.50079298e-01, 3.11764288e+00, -1.35544479e+00,
          2.50123262e-01, 9.30630922e-01, 4.60674763e+00,
          -1.36018896e+00, 3.55157316e-01, 1.12643600e+00,
          1.64978027e+01, -1.29606295e+00, 1.10766733e+00,
          3.54352784e+00, 1.87980804e+01, -1.21958363e+00,
          1.29123127e+00, 4.09711218e+00, 2.22317753e+01,
          -1.12517762e+00, 1.62202978e+00, 5.05276823e+00,
          2.26410179e+01, -1.31170058e+00, 1.74687469e+00,
          5.31900549e+00, 2.10290127e+01, -1.38175559e+00,
          1.79227102e+00, 5.29076767e+00, 2.01492710e+01,
          -1.59397531e+00, 1.67036450e+00, 4.93155098e+00,
          2.04480152e+01, -2.03926706e+00, 1.37825859e+00,
          4.38674545e+00, 1.90796337e+01, -2.72423196e+00,
          9.85829949e-01, 3.80816483e+00, 9.86396968e-01,
          -2.31787229e+00, 2.03707814e-02, 6.16214991e-01,
          1.41091084e+00, -2.51707745e+00, 7.81382173e-02,
          6.73775315e-01 ]
      - [ 9.98036385e-01, -9.60082436e+00, -5.57140291e-01,
          2.21999192e+00, 9.98942554e-01, -1.24218016e+01,
          -7.62892485e-01, 2.87613034e+00, 1.08129990e+00,
          -1.56305580e+01, -9.97301936e-01, 3.65315413e+00,
          1.77771246e+00, -1.85931892e+01, -1.21075463e+00,
          4.42152643e+00, 2.41000724e+00, -2.04564304e+01,
          -1.35378087e+00, 5.01490021e+00, 2.85441566e+00,
          -2.07947254e+01, -1.39370358e+00, 5.30529404e+00,
          1.18197834e+00, -1.27498064e+01, -6.91343009e-01,
          2.80689144e+00, 1.29238057e+00, -9.56187820e+00,
          -4.32818353e-01, 2.05379081e+00, 1.89689159e+00,
          -3.28636956e+00, 2.25888100e-02, 1.07105684e+00,
          2.07908201e+00, -1.34502101e+00, 1.53388381e-01,
          9.31189001e-01, 2.68745303e+00, -1.34084940e+00,
          2.16265202e-01, 9.34797525e-01, 3.22378540e+00,
          -1.34284329e+00, 2.45612055e-01, 9.80639458e-01,
          3.88431764e+00, -1.34886169e+00, 2.91687548e-01,
          1.06361473e+00, 4.83469915e+00, -1.35696709e+00,
          3.76722485e-01, 1.20380116e+00, 1.48281069e+01,
          -1.30488384e+00, 1.05668318e+00, 3.28061604e+00,
          1.72466125e+01, -1.22968471e+00, 1.23147178e+00,
          3.85135484e+00 ]
      - [ 1.93763840e+00, -1.67152424e+01, -1.18525100e+00,
          4.41966915e+00, 3.30647278e+00, -2.05005760e+01,
          -1.34665239e+00, 5.20520020e+00, 3.86767769e+00,
          -2.26176071e+01, -1.40243065e+00, 5.61044598e+00,
          3.57753038e+00, -2.24578266e+01, -1.36878681e+00,
          5.52781343e+00, 2.77384710e+00, -2.07238007e+01,
          -1.28357267e+00, 5.11578846e+00, 1.86139274e+00,
          -1.80566864e+01, -1.13646591e+00, 4.50828075e+00,
          1.62785423e+00, -2.70738578e+00, -4.30881791e-02,
          1.00118303e+00, 1.69778121e+00, -1.57735825e+00,
          3.66950631e-02, 8.68997037e-01, 1.76570511e+00,
          -1.44107175e+00, 5.03877215e-02, 8.05522025e-01,
          1.78585672e+00, -1.40270460e+00, 6.77556694e-02,
          7.96834350e-01, 1.80146754e+00, -1.35675478e+00,
          1.05041228e-01, 8.02272081e-01, 2.04416132e+00,
          -1.30560148e+00, 1.49926081e-01, 8.39583158e-01,
          3.03336287e+00, -1.29728329e+00, 2.11971655e-01,
          9.33105946e-01, 4.46009731e+00, -1.28160203e+00,
          3.06725204e-01, 1.12391114e+00, 1.75386047e+01,
          -1.25491619e+00, 1.15754175e+00, 3.74934387e+00,
          2.01499100e+01, -1.19271088e+00, 1.35392642e+00,
          4.35193872e+00 ]
      - [ 2.38326430e+00, -1.24370265e+00, 1.10151917e-01,
          6.14472330e-01, 3.16699362e+00, -1.22396648e+00,
          1.47802100e-01, 7.27208614e-01, 3.62442875e+00,
          -1.19810104e+00, 1.72046751e-01, 7.95627058e-01,
          3.65172625e+00, -1.16867280e+00, 1.77392840e-01,
          7.94727504e-01, 3.30383182e+00, -1.13928246e+00,
          1.67081326e-01, 7.32376337e-01, 2.75559139e+00,
          -1.11319482e+00, 1.48494929e-01, 6.40700519e-01,
          4.83891916e+00, -9.90456879e-01, 2.59115130e-01,
          9.81661916e-01, 6.51405239e+00, -9.39027309e-01,
          3.33671004e-01, 1.28463948e+00, 9.88183403e+00,
          -7.84835875e-01, 4.87622321e-01, 1.90852106e+00,
          1.13113880e+01, -6.83384657e-01, 5.54101527e-01,
          2.17595530e+00, 1.25081501e+01, -5.68314254e-01,
          6.08716726e-01, 2.40070868e+00, 1.33769398e+01,
          -4.42362368e-01, 6.47027850e-01, 2.56423807e+00,
          1.38487644e+01, -3.09169650e-01, 6.69427872e-01,
          2.65278029e+00, 1.38340454e+01, -1.86236784e-01,
          6.74992859e-01, 2.64906287e+00, 4.04720068e+00,
          -6.16574049e-01, 2.64599264e-01, 8.29327166e-01,
          1.73660398e+00, -5.56826055e-01, 1.76166803e-01,
          4.49901730e-01 ]
      - [ 9.90115881e-01, -1.91378736e+00, -7.93184787e-02,
          6.16975725e-01, 9.89986658e-01, -1.91738033e+00,
          -7.05000535e-02, 6.18655622e-01, 9.89800930e-01,
          -1.91659522e+00, -6.42582774e-02, 6.19992614e-01,
          9.89586651e-01, -1.91391611e+00, -6.46390915e-02,
          6.19626999e-01, 9.89382625e-01, -1.91167891e+00,
          -6.83414936e-02, 6.17472351e-01, 9.89218235e-01,
          -1.90967739e+00, -7.06795231e-02, 6.15109742e-01,
          9.88963902e-01, -1.86915064e+00, -6.02774993e-02,
          6.10174239e-01, 9.88939524e-01, -1.85184431e+00,
          -5.59429824e-02, 6.08731568e-01, 9.88878548e-01,
          -1.80817354e+00, -4.29434180e-02, 6.09075427e-01,
          9.88849580e-01, -1.77885747e+00, -3.40884849e-02,
          6.11994743e-01, 1.09457934e+00, -1.74256647e+00,
          -2.26505194e-02, 6.18794203e-01, 1.38654053e+00,
          -1.69684553e+00, -6.91702683e-03, 6.32686675e-01,
          1.74233365e+00, -1.63872409e+00, 1.23029286e-02,
          6.55460596e-01, 2.04961991e+00, -1.56713748e+00,
          2.98648085e-02, 6.76703811e-01, 1.03988945e+00,
          -1.29384828e+00, 1.09558888e-02, 5.21930993e-01,
          9.88764763e-01, -1.29083514e+00, -4.01230482e-03,
          4.90323186e-01 ]
      - [ 9.88632262e-01, -5.05032349e+00, -2.08965018e-01,
          1.05688477e+00, 9.88670588e-01, -5.20109367e+00,
          -2.29675084e-01, 1.08975613e+00, 9.88710642e-01,
          -5.28293324e+00, -2.44747058e-01, 1.11307085e+00,
          9.88748193e-01, -5.19480991e+00, -2.52331257e-01,
          1.11121571e+00, 9.88781869e-01, -4.77503920e+00,
          -2.48441562e-01, 1.05867469e+00, 9.88810599e-01,
          -4.10001993e+00, -2.32615337e-01, 9.72353578e-01,
          9.88894403e-01, -2.17494488e+00, -1.35680720e-01,
          6.93266273e-01, 9.88914132e-01, -2.20012808e+00,
          -1.31713584e-01, 6.97284818e-01, 9.88951623e-01,
          -2.24548006e+00, -1.24900058e-01, 7.05979347e-01,
          9.88964021e-01, -2.26374555e+00, -1.21480227e-01,
          7.05931246e-01, 9.88976061e-01, -2.27859449e+00,
          -1.19933799e-01, 7.06029296e-01, 9.88991857e-01,
          -2.29093933e+00, -1.20467454e-01, 7.06835806e-01,
          9.89012599e-01, -2.30174065e+00, -1.20785601e-01,
          7.07728565e-01, 9.89037395e-01, -2.31141520e+00,
          -1.21564440e-01, 7.08561063e-01, 9.89102900e-01,
          -2.33533883e+00, -1.10258885e-01, 7.10537076e-01,
          9.89103019e-01, -2.33430147e+00, -1.08913414e-01,
          7.09913731e-01 ]
      - [ 9.88355696e-01, -2.52995014e-01, 8.83199945e-02,
          3.00410151e-01, 9.88367438e-01, -2.52113998e-01,
          8.70785713e-02, 3.00902128e-01, 9.88383412e-01,
          -2.51195014e-01, 8.55735317e-02, 3.01431328e-01,
          9.88404989e-01, -2.50241011e-01, 8.48349780e-02,
          3.01634908e-01, 9.88433182e-01, -2.48890445e-01,
          8.47038478e-02, 3.01422209e-01, 9.88467872e-01,
          -2.47998759e-01, 8.52692947e-02, 3.00576419e-01,
          9.88863587e-01, -2.45646998e-01, 8.30427185e-02,
          3.02460432e-01, 9.89066541e-01, -3.84919882e-01,
          7.83030391e-02, 3.09081078e-01, 9.89849389e-01,
          -9.32402670e-01, 6.03885800e-02, 3.54270011e-01,
          9.90486085e-01, -1.29209065e+00, 4.78619970e-02,
          3.97119284e-01, 9.91276622e-01, -1.64926922e+00,
          3.56780365e-02, 4.46467310e-01, 9.92164493e-01,
          -1.95221543e+00, 2.64349692e-02, 4.92171615e-01,
          9.93067861e-01, -2.15719843e+00, 2.11526807e-02,
          5.24927497e-01, 9.93904114e-01, -2.23537636e+00,
          1.99684426e-02, 5.38127601e-01, 9.96074736e-01,
          -1.64887178e+00, 3.97423469e-02, 4.44905132e-01,
          9.96230781e-01, -1.69308984e+00, 3.56527008e-02,
          4.51531827e-01 ]
      - [ 1.09285669e+01, -1.04457676e+00, 5.06115675e-01,
          2.12145281e+00, 1.10555191e+01, -1.17512500e+00,
          5.08123457e-01, 2.14768338e+00, 1.07956409e+01,
          -1.27676320e+00, 4.92774218e-01, 2.10100865e+00,
          1.00991287e+01, -1.32986951e+00, 4.60844368e-01,
          1.97148490e+00, 9.12306213e+00, -1.36601114e+00,
          4.18439299e-01, 1.79007006e+00, 7.96642351e+00,
          -1.31582463e+00, 3.68298054e-01, 1.57357264e+00,
          2.12834358e+00, -7.67024398e-01, 1.44580036e-01,
          5.23994863e-01, 1.68959439e+00, -7.40736067e-01,
          1.27408594e-01, 4.60059613e-01, 1.56992614e+00,
          -8.01620007e-01, 1.22322388e-01, 4.47195917e-01,
          1.62147105e+00, -8.65338683e-01, 1.23211555e-01,
          4.59120840e-01, 1.57983780e+00, -8.75420272e-01,
          1.21528089e-01, 4.55504090e-01, 1.40482092e+00,
          -8.01324546e-01, 1.16458327e-01, 4.28989232e-01,
          1.13996077e+00, -6.78404152e-01, 1.09785832e-01,
          3.90883088e-01, 9.85801458e-01, -5.56058824e-01,
          1.04425415e-01, 3.54318827e-01, 9.84170735e-01,
          -2.42750004e-01, 1.05092146e-01, 3.02717686e-01,
          9.83886719e-01, -2.42613003e-01, 1.06340341e-01,
          3.02828521e-01 ]
      - [ 9.80569661e-01, -3.02489698e-01, 8.12331662e-02,
          3.05091232e-01, 9.80699658e-01, -3.45496237e-01,
          7.94230551e-02, 3.07418674e-01, 9.80842531e-01,
          -4.05404866e-01, 7.65385777e-02, 3.11108977e-01,
          9.81003106e-01, -4.70704019e-01, 7.28088692e-02,
          3.15796822e-01, 9.81183887e-01, -5.49549460e-01,
          6.86435252e-02, 3.21956038e-01, 9.81386602e-01,
          -6.26983404e-01, 6.44121617e-02, 3.28610539e-01,
          9.82780099e-01, -1.20174384e+00, 3.09192538e-02,
          3.94407272e-01, 9.83163536e-01, -1.27431810e+00,
          2.56918855e-02, 4.05726403e-01, 9.84057367e-01,
          -1.57891333e+00, 8.23478214e-03, 4.52634633e-01,
          9.84590232e-01, -2.00374889e+00, -1.35065289e-02,
          5.20225167e-01, 9.85208333e-01, -2.59046364e+00,
          -4.57248129e-02, 6.20101154e-01, 9.85933006e-01,
          -3.21641040e+00, -8.22711959e-02, 7.34267533e-01,
          9.86792028e-01, -3.72516203e+00, -1.15331911e-01,
          8.35862160e-01, 9.87778425e-01, -4.03289366e+00,
          -1.40419409e-01, 9.07355368e-01, 9.92875099e-01,
          -3.69598222e+00, -1.69658303e-01, 9.58171666e-01,
          9.93588567e-01, -3.71310115e+00, -1.79767281e-01,
          9.90028799e-01 ]
      - [ 9.75550771e-01, -2.50604004e-01, 1.01907544e-01,
          2.96803743e-01, 9.75500286e-01, -2.50685006e-01,
          1.00326106e-01, 2.97427535e-01, 9.75457370e-01,
          -2.50591993e-01, 9.88034084e-02, 2.98036635e-01,
          9.75415766e-01, -2.50108749e-01, 9.75521058e-02,
          2.98631132e-01, 9.75378454e-01, -2.49938995e-01,
          9.67626125e-02, 2.98939168e-01, 9.75353539e-01,
          -2.49477997e-01, 9.66084525e-02, 2.98852772e-01,
          9.75397706e-01, -2.46830553e-01, 9.19310823e-02,
          3.01945239e-01, 9.75452662e-01, -2.65306205e-01,
          8.78789946e-02, 3.05547953e-01, 9.75697160e-01,
          -5.14125049e-01, 7.58583695e-02, 3.21832150e-01,
          9.75910366e-01, -6.49546027e-01, 6.79990947e-02,
          3.34518939e-01, 9.76194561e-01, -7.55817056e-01,
          6.08459711e-02, 3.46464932e-01, 9.76531148e-01,
          -8.19015682e-01, 5.61140664e-02, 3.53599876e-01,
          9.76883233e-01, -8.41769755e-01, 5.48688285e-02,
          3.55112255e-01, 9.77217376e-01, -8.29157829e-01,
          5.62050715e-02, 3.52429092e-01, 9.78881180e-01,
          -3.92285973e-01, 7.07491413e-02, 3.18930537e-01,
          9.79195476e-01, -2.99381435e-01, 7.79046565e-02,
          3.08983415e-01 ]
      - [ 9.62402999e-01, -4.95012403e-01, 8.28958228e-02,
          3.39593858e-01, 9.62425470e-01, -4.94907022e-01,
          7.25074932e-02, 3.45190495e-01, 9.62392330e-01,
          -4.94931996e-01, 6.75031021e-02, 3.48830134e-01,
          9.62318361e-01, -5.10739028e-01, 6.57633394e-02,
          3.51359457e-01, 9.62220728e-01, -5.62638402e-01,
          6.35308698e-02, 3.54708642e-01, 9.62138891e-01,
          -6.88731313e-01, 5.73436953e-02, 3.63718778e-01,
          9.61694658e-01, -2.41882062e+00, -5.00058644e-02,
          5.94067037e-01, 9.61523175e-01, -2.71382117e+00,
          -6.76277950e-02, 6.49076760e-01, 9.61059093e-01,
          -3.28291678e+00, -9.46987048e-02, 7.38855004e-01,
          9.60936069e-01, -3.59735489e+00, -1.04454085e-01,
          7.88524449e-01, 9.60848570e-01, -3.86436439e+00,
          -1.20029785e-01, 8.33168209e-01, 9.60744619e-01,
          -4.02139044e+00, -1.34211376e-01, 8.62564802e-01,
          9.60602045e-01, -4.02618599e+00, -1.42697960e-01,
          8.69575977e-01, 9.60421026e-01, -3.87552905e+00,
          -1.43780395e-01, 8.55706215e-01, 9.58758712e-01,
          -2.41716480e+00, -9.17594731e-02, 6.33483410e-01,
          9.58518863e-01, -2.31929731e+00, -8.74269679e-02,
          6.13375545e-01 ]
      - [ 1.20565128e+01, -1.87105000e+00, 9.44054902e-01,
          3.20563388e+00, 1.40766773e+01, -1.71728301e+00,
          1.08900809e+00, 3.65465069e+00, 1.58122177e+01,
          -1.53307760e+00, 1.22268414e+00, 4.05517101e+00,
          1.72836895e+01, -1.33553851e+00, 1.34518695e+00,
          4.40799379e+00, 1.86053848e+01, -1.14833093e+00,
          1.44879770e+00, 4.72154808e+00, 1.96071854e+01,
          -1.08073306e+00, 1.52501571e+00, 4.95432234e+00,
          8.33464718e+00, -1.44957387e+00, 5.72944045e-01,
          2.00439477e+00, 3.90672755e+00, -1.45340359e+00,
          2.27582723e-01, 1.02700257e+00, 9.88710225e-01,
          -1.55451679e+00, -3.08718067e-02, 5.60082138e-01,
          9.35322642e-01, -2.32169175e+00, -9.40538943e-02,
          7.24553883e-01, 9.34291959e-01, -5.07829857e+00,
          -2.53032327e-01, 1.24425077e+00, 9.31996942e-01,
          -8.77490711e+00, -5.06101131e-01, 2.03214955e+00,
          9.26867127e-01, -1.27723570e+01, -8.13196063e-01,
          2.95469022e+00, 1.36733568e+00, -1.65106258e+01,
          -1.10347593e+00, 3.89093018e+00, 2.90284753e+00,
          -1.90514946e+01, -1.29402530e+00, 5.10396004e+00,
          2.37873936e+00, -1.62788582e+01, -1.08936548e+00,
          4.44083643e+00 ]
      - [ 1.99520397e+01, -1.26192987e+00, 1.57120252e+00,
          5.02741909e+00, 1.91227150e+01, -1.66287363e+00,
          1.53264225e+00, 4.80622768e+00, 1.68472652e+01,
          -2.13158441e+00, 1.33752525e+00, 4.20924807e+00,
          1.30020056e+01, -1.95102191e+00, 9.83023465e-01,
          3.19684863e+00, 8.33464718e+00, -1.44957387e+00,
          5.72944045e-01, 2.00439477e+00, 3.90672755e+00,
          -1.45340359e+00, 2.27582723e-01, 1.02700257e+00,
          9.31996942e-01, -8.77490711e+00, -5.06101131e-01,
          2.03214955e+00, 9.26867127e-01, -1.27723570e+01,
          -8.13196063e-01, 2.95469022e+00, 2.05208063e+00,
          -1.94476509e+01, -1.32413530e+00, 4.69629288e+00,
          2.62747717e+00, -2.13572807e+01, -1.45908928e+00,
          5.29465485e+00, 3.06140780e+00, -2.19792480e+01,
          -1.49605846e+00, 5.59555721e+00, 3.19855428e+00,
          -2.12799168e+01, -1.44064927e+00, 5.54403305e+00,
          2.90284753e+00, -1.90514946e+01, -1.29402530e+00,
          5.10396004e+00, 2.37873936e+00, -1.62788582e+01,
          -1.08936548e+00, 4.44083643e+00, 2.12526822e+00,
          -3.27962255e+00, 2.81686261e-02, 1.07509816e+00,
          4.00368547e+00, -2.11768007e+00, 2.48956576e-01,
          1.18008494e+00 ]
      - [ 2.37873936e+00, -1.62788582e+01, -1.08936548e+00,
          4.44083643e+00, 1.89832973e+00, -1.35411930e+01,
          -8.65065992e-01, 3.66469717e+00, 1.94637609e+00,
          -1.06461611e+01, -6.47870004e-01, 2.89851761e+00,
          2.03213096e+00, -8.04540348e+00, -4.38831151e-01,
          2.19039202e+00, 2.08958793e+00, -5.56469393e+00,
          -2.13619769e-01, 1.51630938e+00, 2.12526822e+00,
          -3.27962255e+00, 2.81686261e-02, 1.07509816e+00,
          1.70791092e+01, -1.77193832e+00, 1.06089628e+00,
          3.57036090e+00, 1.94367180e+01, -1.59262121e+00,
          1.28101957e+00, 4.17223024e+00, 2.09595299e+01,
          -1.19754982e+00, 1.60526776e+00, 4.93318367e+00,
          1.98040981e+01, -1.43026519e+00, 1.65186107e+00,
          5.00665474e+00, 1.90984573e+01, -1.85522091e+00,
          1.61063886e+00, 4.94960260e+00, 1.95423584e+01,
          -1.89739084e+00, 1.48792493e+00, 4.70891047e+00,
          1.87770348e+01, -1.69352448e+00, 1.29660392e+00,
          4.21646881e+00, 1.69545708e+01, -1.59613121e+00,
          1.02337050e+00, 3.52616477e+00, 9.13708746e-01,
          -1.80130882e+01, -9.82271552e-01, 3.59512854e+00,
          9.66862559e-01, -2.10853710e+01, -1.18603134e+00,
          4.33654642e+00 ]
      - [ 4.00368547e+00, -2.11768007e+00, 2.48956576e-01,
          1.18008494e+00, 7.17959833e+00, -2.07695079e+00,
          4.42107737e-01, 1.59408510e+00, 1.04367237e+01,
          -2.01092243e+00, 6.36606097e-01, 2.16874456e+00,
          1.39434013e+01, -1.91167545e+00, 8.46475065e-01,
          2.87333989e+00, 1.70791092e+01, -1.77193832e+00,
          1.06089628e+00, 3.57036090e+00, 1.94367180e+01,
          -1.59262121e+00, 1.28101957e+00, 4.17223024e+00,
          1.95423584e+01, -1.89739084e+00, 1.48792493e+00,
          4.70891047e+00, 1.87770348e+01, -1.69352448e+00,
          1.29660392e+00, 4.21646881e+00, 1.42558270e+01,
          -1.69417548e+00, 6.41687572e-01, 2.81044412e+00,
          1.03138971e+01, -4.68947220e+00, 1.82329550e-01,
          2.30448747e+00, 4.96200085e+00, -9.44700050e+00,
          -2.60280728e-01, 2.16380382e+00, 9.15696442e-01,
          -1.36400442e+01, -6.42441273e-01, 2.66560483e+00,
          9.13708746e-01, -1.80130882e+01, -9.82271552e-01,
          3.59512854e+00, 9.66862559e-01, -2.10853710e+01,
          -1.18603134e+00, 4.33654642e+00, 1.79221463e+00,
          -1.69146690e+01, -1.08134341e+00, 4.17770576e+00,
          1.42618501e+00, -1.50158768e+01, -8.57771933e-01,
          3.48813701e+00 ]
      - [ 9.66862559e-01, -2.10853710e+01, -1.18603134e+00,
          4.33654642e+00, 9.29192781e-01, -2.17908249e+01,
          -1.26556408e+00, 4.72322750e+00, 1.54249346e+00,
          -2.13681202e+01, -1.29110730e+00, 5.00601292e+00,
          2.11215830e+00, -1.96842194e+01, -1.28173769e+00,
          5.00702763e+00, 2.13769698e+00, -1.76608448e+01,
          -1.22509432e+00, 4.69858503e+00, 1.79221463e+00,
          -1.69146690e+01, -1.08134341e+00, 4.17770576e+00,
          9.80168629e+00, -1.97401905e+00, 5.24000823e-01,
          2.06417871e+00, 1.44170094e+01, -1.86634910e+00,
          9.60517883e-01, 3.11099029e+00, 2.07889442e+01,
          -1.56296265e+00, 1.63910472e+00, 4.91642237e+00,
          2.20146542e+01, -2.03387833e+00, 1.74009657e+00,
          5.41198874e+00, 2.17046967e+01, -2.33924079e+00,
          1.73161972e+00, 5.54850769e+00, 2.01610527e+01,
          -2.49267530e+00, 1.65612173e+00, 5.32394934e+00,
          1.78426800e+01, -2.55428052e+00, 1.45269763e+00,
          4.74026585e+00, 1.46234179e+01, -2.23332286e+00,
          1.09556770e+00, 3.70066261e+00, 9.20165241e-01,
          -1.97332306e+01, -1.07136798e+00, 3.97291684e+00,
          9.46785212e-01, -2.12508450e+01, -1.16432381e+00,
          4.46910143e+00 ]
      - [ 1.42618501e+00, -1.50158768e+01, -8.57771933e-01,
          3.48813701e+00, 1.57477069e+00, -1.24922009e+01,
          -5.47461987e-01, 2.66686916e+00, 1.69200540e+00,
          -9.07753658e+00, -2.10310787e-01, 1.93267524e+00,
          5.18125772e+00, -4.19860077e+00, 1.41432151e-01,
          1.53806901e+00, 9.80168629e+00, -1.97401905e+00,
          5.24000823e-01, 2.06417871e+00, 1.44170094e+01,
          -1.86634910e+00, 9.60517883e-01, 3.11099029e+00,
          2.01610527e+01, -2.49267530e+00, 1.65612173e+00,
          5.32394934e+00, 1.78426800e+01, -2.55428052e+00,
          1.45269763e+00, 4.74026585e+00, 9.59316063e+00,
          -1.71123219e+00, 5.15314460e-01, 2.18792486e+00,
          4.20984793e+00, -4.01651525e+00, -1.23970427e-01,
          1.37643540e+00, 9.24252748e-01, -1.08528824e+01,
          -5.60350776e-01, 2.18419528e+00, 9.23208892e-01,
          -1.58382454e+01, -8.56882572e-01, 3.14012814e+00,
          9.20165241e-01, -1.97332306e+01, -1.07136798e+00,
          3.97291684e+00, 9.46785212e-01, -2.12508450e+01,
          -1.16432381e+00, 4.46910143e+00, 2.27393079e+00,
          -1.65743904e+01, -8.99159968e-01, 3.69803596e+00,
          1.90815794e+00, -1.45716705e+01, -5.80660224e-01,
          3.00123715e+00 ]
      - [ 1.82936974e+01, -1.71350837e+00, 1.36565447e+00,
          4.14212990e+00, 2.07889442e+01, -1.56296265e+00,
          1.63910472e+00, 4.91642237e+00, 2.20146542e+01,
          -2.03387833e+00, 1.74009657e+00, 5.41198874e+00,
          2.17046967e+01, -2.33924079e+00, 1.73161972e+00,
          5.54850769e+00, 2.01610527e+01, -2.49267530e+00,
          1.65612173e+00, 5.32394934e+00, 1.78426800e+01,
          -2.55428052e+00, 1.45269763e+00, 4.74026585e+00,
          9.23208892e-01, -1.58382454e+01, -8.56882572e-01,
          3.14012814e+00, 9.20165241e-01, -1.97332306e+01,
          -1.07136798e+00, 3.97291684e+00, 1.50893259e+00,
          -2.03493843e+01, -1.16054952e+00, 4.64218140e+00,
          2.18828559e+00, -1.83913574e+01, -1.15931356e+00,
          4.63845396e+00, 2.50650501e+00, -1.71242733e+01,
          -1.17210674e+00, 4.50192070e+00, 2.50817752e+00,
          -1.75391445e+01, -1.10738838e+00, 4.23372030e+00,
          2.27393079e+00, -1.65743904e+01, -8.99159968e-01,
          3.69803596e+00, 1.90815794e+00, -1.45716705e+01,
          -5.80660224e-01, 3.00123715e+00, 1.96201916e+01,
          -1.41732764e+00, 1.31173635e+00, 4.07105446e+00,
          2.01676254e+01, -1.31410646e+00, 1.49918616e+00,
          4.48036051e+00 ]
      - [ 1.46234179e+01, -2.23332286e+00, 1.09556770e+00,
          3.70066261e+00, 9.59316063e+00, -1.71123219e+00,
          5.15314460e-01, 2.18792486e+00, 4.20984793e+00,
          -4.01651525e+00, -1.23970427e-01, 1.37643540e+00,
          9.24252748e-01, -1.08528824e+01, -5.60350776e-01,
          2.18419528e+00, 9.23208892e-01, -1.58382454e+01,
          -8.56882572e-01, 3.14012814e+00, 9.20165241e-01,
          -1.97332306e+01, -1.07136798e+00, 3.97291684e+00,
          2.50817752e+00, -1.75391445e+01, -1.10738838e+00,
          4.23372030e+00, 2.27393079e+00, -1.65743904e+01,
          -8.99159968e-01, 3.69803596e+00, 2.63057470e+00,
          -1.17384319e+01, -1.98903531e-01, 2.47735715e+00,
          9.01763821e+00, -7.54477930e+00, 2.10943863e-01,
          2.44736934e+00, 1.38525248e+01, -2.02036548e+00,
          6.11390054e-01, 2.79827094e+00, 1.73785152e+01,
          -1.58781433e+00, 9.85325992e-01, 3.42135334e+00,
          1.96201916e+01, -1.41732764e+00, 1.31173635e+00,
          4.07105446e+00, 2.01676254e+01, -1.31410646e+00,
          1.49918616e+00, 4.48036051e+00, 1.20390396e+01,
          -1.98585844e+00, 3.34854841e-01, 2.46134543e+00,
          7.76665640e+00, -8.13450813e+00, -1.23185918e-01,
          2.31564641e+00 ]
      - [ 9.46785212e-01, -2.12508450e+01, -1.16432381e+00,
          4.46910143e+00, 1.50893259e+00, -2.03493843e+01,
          -1.16054952e+00, 4.64218140e+00, 2.18828559e+00,
          -1.83913574e+01, -1.15931356e+00, 4.63845396e+00,
          2.50650501e+00, -1.71242733e+01, -1.17210674e+00,
          4.50192070e+00, 2.50817752e+00, -1.75391445e+01,
          -1.10738838e+00, 4.23372030e+00, 2.27393079e+00,
          -1.65743904e+01, -8.99159968e-01, 3.69803596e+00,
          1.73785152e+01, -1.58781433e+00, 9.85325992e-01,
          3.42135334e+00, 1.96201916e+01, -1.41732764e+00,
          1.31173635e+00, 4.07105446e+00, 1.88425541e+01,
          -1.64496744e+00, 1.52047753e+00, 4.55943298e+00,
          1.65204811e+01, -1.87368155e+00, 1.43027055e+00,
          4.38498592e+00, 1.64916859e+01, -1.95653605e+00,
          1.22793281e+00, 3.91268492e+00, 1.49865351e+01,
          -1.99440312e+00, 8.48178387e-01, 3.12756205e+00,
          1.20390396e+01, -1.98585844e+00, 3.34854841e-01,
          2.46134543e+00, 7.76665640e+00, -8.13450813e+00,
          -1.23185918e-01, 2.31564641e+00, 2.01073551e+00,
          -1.89928799e+01, -1.17220998e+00, 4.56515121e+00,
          2.34710956e+00, -1.70725594e+01, -1.16610038e+00,
          4.57765627e+00 ]
      - [ 1.90815794e+00, -1.45716705e+01, -5.80660224e-01,
          3.00123715e+00, 2.63057470e+00, -1.17384319e+01,
          -1.98903531e-01, 2.47735715e+00, 9.01763821e+00,
          -7.54477930e+00, 2.10943863e-01, 2.44736934e+00,
          1.38525248e+01, -2.02036548e+00, 6.11390054e-01,
          2.79827094e+00, 1.73785152e+01, -1.58781433e+00,
          9.85325992e-01, 3.42135334e+00, 1.96201916e+01,
          -1.41732764e+00, 1.31173635e+00, 4.07105446e+00,
          1.49865351e+01, -1.99440312e+00, 8.48178387e-01,
          3.12756205e+00, 1.20390396e+01, -1.98585844e+00,
          3.34854841e-01, 2.46134543e+00, 2.67261815e+00,
          -1.34689035e+01, -4.97551501e-01, 2.73716259e+00,
          9.02469099e-01, -1.78612747e+01, -8.07231247e-01,
          3.49502969e+00, 9.23235536e-01, -2.02229900e+01,
          -1.02487445e+00, 4.08198833e+00, 1.48634899e+00,
          -2.02831535e+01, -1.13865519e+00, 4.39174318e+00,
          2.01073551e+00, -1.89928799e+01, -1.17220998e+00,
          4.56515121e+00, 2.34710956e+00, -1.70725594e+01,
          -1.16610038e+00, 4.57765627e+00, 1.80500758e+00,
          -1.09279032e+01, -3.48466277e-01, 2.27501822e+00,
          4.11993885e+00, -8.17767525e+00, -4.40614782e-02,
          1.98550415e+00 ]
      - [ 2.01676254e+01, -1.31410646e+00, 1.49918616e+00,
          4.48036051e+00, 1.88425541e+01, -1.64496744e+00,
          1.52047753e+00, 4.55943298e+00, 1.65204811e+01,
          -1.87368155e+00, 1.43027055e+00, 4.38498592e+00,
          1.64916859e+01, -1.95653605e+00, 1.22793281e+00,
          3.91268492e+00, 1.49865351e+01, -1.99440312e+00,
          8.48178387e-01, 3.12756205e+00, 1.20390396e+01,
          -1.98585844e+00, 3.34854841e-01, 2.46134543e+00,
          1.48634899e+00, -2.02831535e+01, -1.13865519e+00,
          4.39174318e+00, 2.01073551e+00, -1.89928799e+01,
          -1.17220998e+00, 4.56515121e+00, 2.51966190e+00,
          -1.72556553e+01, -1.12056386e+00, 4.38771486e+00,
          2.40981126e+00, -1.69142151e+01, -1.02706039e+00,
          4.05019522e+00, 2.03553724e+00, -1.55105600e+01,
          -8.62846971e-01, 3.53087187e+00, 1.67828548e+00,
          -1.33720360e+01, -6.29625976e-01, 2.86498570e+00,
          1.80500758e+00, -1.09279032e+01, -3.48466277e-01,
          2.27501822e+00, 4.11993885e+00, -8.17767525e+00,
          -4.40614782e-02, 1.98550415e+00, 2.22591934e+01,
          -1.49433613e+00, 1.49193037e+00, 4.58847666e+00,
          2.23559341e+01, -1.25236344e+00, 1.61931324e+00,
          4.84408903e+00 ]
      - [ 7.76665640e+00, -8.13450813e+00, -1.23185918e-01,
          2.31564641e+00, 2.67261815e+00, -1.34689035e+01,
          -4.97551501e-01, 2.73716259e+00, 9.02469099e-01,
          -1.78612747e+01, -8.07231247e-01, 3.49502969e+00,
          9.23235536e-01, -2.02229900e+01, -1.02487445e+00,
          4.08198833e+00, 1.48634899e+00, -2.02831535e+01,
          -1.13865519e+00, 4.39174318e+00, 2.01073551e+00,
          -1.89928799e+01, -1.17220998e+00, 4.56515121e+00,
          1.67828548e+00, -1.33720360e+01, -6.29625976e-01,
          2.86498570e+00, 1.80500758e+00, -1.09279032e+01,
          -3.48466277e-01, 2.27501822e+00, 8.80568504e+00,
          -4.93393946e+00, 2.65301883e-01, 2.14370847e+00,
          1.33750839e+01, -2.05507469e+00, 5.97393870e-01,
          2.69929409e+00, 1.73805103e+01, -1.92189634e+00,
          9.24072325e-01, 3.42079377e+00, 2.04787827e+01,
          -1.73114204e+00, 1.24006176e+00, 4.08954430e+00,
          2.22591934e+01, -1.49433613e+00, 1.49193037e+00,
          4.58847666e+00, 2.23559341e+01, -1.25236344e+00,
          1.61931324e+00, 4.84408903e+00, 1.73008213e+01,
          -2.28275847e+00, 9.07259107e-01, 3.59624434e+00,
          1.49632921e+01, -1.96789646e+00, 4.97383147e-01,
          2.97342348e+00 ]
      - [ 1.49632921e+01, -1.96789646e+00, 4.97383147e-01,
          2.97342348e+00, 1.14276772e+01, -6.42226171e+00,
          6.83624595e-02, 2.65940714e+00, 6.86076117e+00,
          -1.11943855e+01, -3.22132796e-01, 2.64520001e+00,
          1.63239574e+00, -1.48484945e+01, -6.55396283e-01,
          2.94014192e+00, 9.16463494e-01, -1.78040485e+01,
          -9.22623396e-01, 3.50127387e+00, 9.87126529e-01,
          -1.96417198e+01, -1.09022295e+00, 4.03596687e+00,
          1.50957096e+00, -1.49819012e+01, -8.39155793e-01,
          3.37814212e+00, 1.32498264e+00, -1.34924259e+01,
          -5.16492426e-01, 2.73584867e+00, 9.89476776e+00,
          -8.35485554e+00, 1.69932693e-01, 2.67610478e+00,
          1.39180727e+01, -3.71636868e+00, 5.05993605e-01,
          2.90490794e+00, 1.70332069e+01, -1.58056653e+00,
          8.74032617e-01, 3.33259177e+00, 1.88957920e+01,
          -1.39958882e+00, 1.19225478e+00, 3.86828756e+00,
          1.89167900e+01, -1.36973751e+00, 1.39984405e+00,
          4.20176697e+00, 1.72933369e+01, -1.66895127e+00,
          1.43110061e+00, 4.29912710e+00, 1.19250221e+01,
          -5.74428368e+00, 1.52230829e-01, 2.67778325e+00,
          7.53609371e+00, -1.09499912e+01, -2.47042075e-01,
          2.67491436e+00 ]
      - [ 1.32276893e+00, -2.01595154e+01, -1.16222525e+00,
          4.43866491e+00, 1.84906507e+00, -1.96614304e+01,
          -1.16737044e+00, 4.64245367e+00, 1.99600899e+00,
          -1.77118073e+01, -1.14629495e+00, 4.47074080e+00,
          1.78727829e+00, -1.53876085e+01, -1.06359839e+00,
          4.02827787e+00, 1.50957096e+00, -1.49819012e+01,
          -8.39155793e-01, 3.37814212e+00, 1.32498264e+00,
          -1.34924259e+01, -5.16492426e-01, 2.73584867e+00,
          1.88957920e+01, -1.39958882e+00, 1.19225478e+00,
          3.86828756e+00, 1.89167900e+01, -1.36973751e+00,
          1.39984405e+00, 4.20176697e+00, 1.70063248e+01,
          -1.76429367e+00, 1.36155462e+00, 4.26660156e+00,
          1.79416504e+01, -1.83732247e+00, 1.22419953e+00,
          4.04772711e+00, 1.74440784e+01, -1.99664187e+00,
          9.69997346e-01, 3.58538342e+00, 1.53969126e+01,
          -2.16627955e+00, 5.81530094e-01, 3.04500103e+00,
          1.19250221e+01, -5.74428368e+00, 1.52230829e-01,
          2.67778325e+00, 7.53609371e+00, -1.09499912e+01,
          -2.47042075e-01, 2.67491436e+00, 1.37838471e+00,
          -1.54658899e+01, -8.32430065e-01, 3.53102565e+00,
          1.29421389e+00, -1.35597506e+01, -8.57795060e-01,
          3.58014321e+00 ]
      - [ 4.30240726e+00, -1.14537420e+01, -1.62238121e-01,
          2.52070189e+00, 9.89476776e+00, -8.35485554e+00,
          1.69932693e-01, 2.67610478e+00, 1.39180727e+01,
          -3.71636868e+00, 5.05993605e-01, 2.90490794e+00,
          1.70332069e+01, -1.58056653e+00, 8.74032617e-01,
          3.33259177e+00, 1.88957920e+01, -1.39958882e+00,
          1.19225478e+00, 3.86828756e+00, 1.89167900e+01,
          -1.36973751e+00, 1.39984405e+00, 4.20176697e+00,
          1.53969126e+01, -2.16627955e+00, 5.81530094e-01,
          3.04500103e+00, 1.19250221e+01, -5.74428368e+00,
          1.52230829e-01, 2.67778325e+00, 3.10692453e+00,
          -1.53317318e+01, -5.62893391e-01, 3.07740974e+00,
          9.23136711e-01, -1.78225880e+01, -7.46961176e-01,
          3.46717596e+00, 9.21266019e-01, -1.81178837e+01,
          -8.19602907e-01, 3.57022619e+00, 1.00908148e+00,
          -1.71653423e+01, -8.24902654e-01, 3.54126358e+00,
          1.37838471e+00, -1.54658899e+01, -8.32430065e-01,
          3.53102565e+00, 1.29421389e+00, -1.35597506e+01,
          -8.57795060e-01, 3.58014321e+00, 1.97115278e+00,
          -1.18634043e+01, -2.83939898e-01, 2.45854640e+00,
          5.91002989e+00, -9.84337234e+00, -5.45615442e-02,
          2.37504482e+00 ]
      - [ 1.93908367e+01, -1.37018645e+00, 1.38821769e+00,
          4.23856449e+00, 1.83270969e+01, -1.57882357e+00,
          1.40496933e+00, 4.32604122e+00, 1.61838722e+01,
          -1.63771439e+00, 1.32896197e+00, 4.20402002e+00,
          1.55219822e+01, -1.65922666e+00, 1.18389535e+00,
          3.86104178e+00, 1.49602861e+01, -1.72645855e+00,
          9.29809093e-01, 3.25917506e+00, 1.32387419e+01,
          -2.00738049e+00, 5.28971970e-01, 2.64231992e+00,
          1.59612262e+00, -2.09092731e+01, -1.12499905e+00,
          4.37744904e+00, 1.77378976e+00, -1.99275417e+01,
          -1.11253428e+00, 4.43182611e+00, 1.51073432e+00,
          -1.54056177e+01, -9.93589520e-01, 3.93366313e+00,
          1.41254175e+00, -1.33028994e+01, -9.11924005e-01,
          3.55805945e+00, 1.36424875e+00, -1.26854601e+01,
          -7.69678652e-01, 3.07938075e+00, 1.48858309e+00,
          -1.16699457e+01, -5.51936924e-01, 2.53707814e+00,
          1.61741221e+00, -1.02944689e+01, -2.91040897e-01,
          2.15260148e+00, 4.88825178e+00, -8.26764202e+00,
          -1.94206778e-02, 2.05628967e+00, 2.03818550e+01,
          -1.36543715e+00, 1.33806217e+00, 4.20835447e+00,
          2.08497105e+01, -1.28888738e+00, 1.46683478e+00,
          4.49645710e+00 ]
      - [ 9.23589349e-01, -1.90281467e+01, -1.05398214e+00,
          3.95690560e+00, 1.24375832e+00, -1.97809639e+01,
          -1.13258469e+00, 4.36369514e+00, 1.81620145e+00,
          -1.94882298e+01, -1.18785751e+00, 4.57322550e+00,
          2.09953427e+00, -1.80645199e+01, -1.20523524e+00,
          4.54060507e+00, 2.06855488e+00, -1.61494503e+01,
          -1.14393365e+00, 4.30988312e+00, 1.95188653e+00,
          -1.59305067e+01, -9.93283391e-01, 3.88354897e+00,
          1.13978148e+01, -4.80038261e+00, 3.77767473e-01,
          2.52104473e+00, 1.47861814e+01, -1.66936970e+00,
          6.80637658e-01, 2.91546583e+00, 1.88046417e+01,
          -1.31556821e+00, 1.22649360e+00, 3.81188869e+00,
          1.89305916e+01, -1.14140451e+00, 1.36303306e+00,
          4.05251312e+00, 1.79154778e+01, -9.96970356e-01,
